{"learner":{"attributes":{"scikit_learn":"{\"_estimator_type\": \"regressor\"}"},"feature_names":[],"feature_types":[],"gradient_booster":{"model":{"cats":{"enc":[],"feature_segments":[],"sorted_idx":[]},"gbtree_model_param":{"num_parallel_tree":"1","num_trees":"318"},"iteration_indptr":[0,1,2,3,4,5,6,7,8,9,10,11,12,13,14,15,16,17,18,19,20,21,22,23,24,25,26,27,28,29,30,31,32,33,34,35,36,37,38,39,40,41,42,43,44,45,46,47,48,49,50,51,52,53,54,55,56,57,58,59,60,61,62,63,64,65,66,67,68,69,70,71,72,73,74,75,76,77,78,79,80,81,82,83,84,85,86,87,88,89,90,91,92,93,94,95,96,97,98,99,100,101,102,103,104,105,106,107,108,109,110,111,112,113,114,115,116,117,118,119,120,121,122,123,124,125,126,127,128,129,130,131,132,133,134,135,136,137,138,139,140,141,142,143,144,145,146,147,148,149,150,151,152,153,154,155,156,157,158,159,160,161,162,163,164,165,166,167,168,169,170,171,172,173,174,175,176,177,178,179,180,181,182,183,184,185,186,187,188,189,190,191,192,193,194,195,196,197,198,199,200,201,202,203,204,205,206,207,208,209,210,211,212,213,214,215,216,217,218,219,220,221,222,223,224,225,226,227,228,229,230,231,232,233,234,235,236,237,238,239,240,241,242,243,244,245,246,247,248,249,250,251,252,253,254,255,256,257,258,259,260,261,262,263,264,265,266,267,268,269,270,271,272,273,274,275,276,277,278,279,280,281,282,283,284,285,286,287,288,289,290,291,292,293,294,295,296,297,298,299,300,301,302,303,304,305,306,307,308,309,310,311,312,313,314,315,316,317,318],"tree_info":[0,0,0,0,0,0,0,0,0,0,0,0,0,0,0,0,0,0,0,0,0,0,0,0,0,0,0,0,0,0,0,0,0,0,0,0,0,0,0,0,0,0,0,0,0,0,0,0,0,0,0,0,0,0,0,0,0,0,0,0,0,0,0,0,0,0,0,0,0,0,0,0,0,0,0,0,0,0,0,0,0,0,0,0,0,0,0,0,0,0,0,0,0,0,0,0,0,0,0,0,0,0,0,0,0,0,0,0,0,0,0,0,0,0,0,0,0,0,0,0,0,0,0,0,0,0,0,0,0,0,0,0,0,0,0,0,0,0,0,0,0,0,0,0,0,0,0,0,0,0,0,0,0,0,0,0,0,0,0,0,0,0,0,0,0,0,0,0,0,0,0,0,0,0,0,0,0,0,0,0,0,0,0,0,0,0,0,0,0,0,0,0,0,0,0,0,0,0,0,0,0,0,0,0,0,0,0,0,0,0,0,0,0,0,0,0,0,0,0,0,0,0,0,0,0,0,0,0,0,0,0,0,0,0,0,0,0,0,0,0,0,0,0,0,0,0,0,0,0,0,0,0,0,0,0,0,0,0,0,0,0,0,0,0,0,0,0,0,0,0,0,0,0,0,0,0,0,0,0,0,0,0,0,0,0,0,0,0,0,0,0,0,0,0,0,0,0,0,0,0,0,0,0,0,0,0,0,0,0,0,0,0,0,0,0,0,0,0],"trees":[{"base_weights":[-8.708435E-4,3.956289E-2,-8.359651E-2,8.5244715E-2,-1.2764968E-1,1.1495146E-2,-1.2758319E-1,4.259267E-3,1.8013474E-1,-3.1111488E-1,-6.6769496E-2,1.2749456E-1,-7.1226306E-2,-1.6237487E-1,1.32773565E-2,-2.4375914E-2,2.809774E-1,8.496288E-2,4.5258597E-1,-2.6470542E-1,-6.378777E-3,1.6276143E-2,-1.8431336E-1,1.573606E-1,6.4320055E-5,-1.1164856E-1,2.598245E-3,-4.7661327E-3,-1.452266E-1,-5.4453325E-2,1.8734952E-3,5.1661665E-3,-3.671438E-2,3.1410754E-3,6.058847E-3,1.0514808E-2,5.1602185E-2,8.774595E-3,3.5288534E-1,-3.499516E-3,-4.6552285E-3,-4.952255E-2,1.8356796E-1,-3.110622E-3,-1.2406111E-3,1.8705303E-3,2.7309305E-3,-1.8650089E-1,-5.164756E-4,-1.2749156E-1,-4.3264222E-3,-7.442485E-5,-2.0864941E-3,-1.0872565E-3,1.3451998E-3,2.8698884E-3,5.426185E-5,5.895672E-3,3.499464E-3,-2.0969722E-3,-3.286402E-4,3.489764E-3,1.7666075E-3,-3.0482514E-3,-2.0749164E-3,-2.6933197E-3,-1.4913761E-3],"categories":[],"categories_nodes":[],"categories_segments":[],"categories_sizes":[],"default_left":[0,0,0,0,0,0,0,0,0,0,0,0,0,0,0,0,0,0,0,0,0,0,0,0,0,0,0,0,0,0,0,0,0,0,0,0,0,0,0,0,0,0,0,0,0,0,0,0,0,0,0,0,0,0,0,0,0,0,0,0,0,0,0,0,0,0,0],"id":0,"left_children":[1,3,5,7,9,11,13,15,17,19,21,23,25,27,29,31,33,35,37,39,-1,41,43,45,-1,47,-1,-1,49,51,-1,-1,53,-1,-1,-1,55,-1,57,-1,-1,59,61,-1,-1,-1,-1,63,-1,65,-1,-1,-1,-1,-1,-1,-1,-1,-1,-1,-1,-1,-1,-1,-1,-1,-1],"loss_changes":[1.3292769E2,2.0290825E2,5.528627E1,1.5937491E2,6.35179E1,4.1115128E1,4.478383E1,9.315953E1,2.4762665E2,7.5103455E0,4.3685493E1,5.8447495E0,2.499497E1,1.9652557E1,1.5097008E1,4.8149918E1,9.561836E0,1.5736015E2,3.2090057E1,1.4520645E0,0E0,3.000891E1,3.7231407E0,1.0173416E0,0E0,1.1723141E1,0E0,0E0,1.6982437E1,4.5657E0,0E0,0E0,4.545308E1,0E0,0E0,0E0,4.553539E1,0E0,6.241379E0,0E0,0E0,4.6676292E0,2.1963654E0,0E0,0E0,0E0,0E0,6.054344E-1,0E0,8.563393E0,0E0,0E0,0E0,0E0,0E0,0E0,0E0,0E0,0E0,0E0,0E0,0E0,0E0,0E0,0E0,0E0,0E0],"parents":[2147483647,0,0,1,1,2,2,3,3,4,4,5,5,6,6,7,7,8,8,9,9,10,10,11,11,12,12,13,13,14,14,15,15,16,16,17,17,18,18,19,19,21,21,22,22,23,23,25,25,28,28,29,29,32,32,36,36,38,38,41,41,42,42,47,47,49,49],"right_children":[2,4,6,8,10,12,14,16,18,20,22,24,26,28,30,32,34,36,38,40,-1,42,44,46,-1,48,-1,-1,50,52,-1,-1,54,-1,-1,-1,56,-1,58,-1,-1,60,62,-1,-1,-1,-1,64,-1,66,-1,-1,-1,-1,-1,-1,-1,-1,-1,-1,-1,-1,-1,-1,-1,-1,-1],"split_conditions":[5.7E1,1E0,5.4E1,5.19E1,3.38E1,5.19E1,7.85E1,6.54E1,1E0,1E0,4.34E1,2E0,5.23E1,2.45E1,1E0,1.55E1,7.46E1,3.66E1,5.46E1,4.19E1,-6.378777E-3,4.25E1,2E0,4.25E1,6.4320055E-5,1E0,2.598245E-3,-4.7661327E-3,7.42E1,5.53E1,1.8734952E-3,5.1661665E-3,1E0,3.1410754E-3,6.058847E-3,1.0514808E-2,1E0,8.774595E-3,7.05E1,-3.499516E-3,-4.6552285E-3,3.08E1,3.92E1,-3.110622E-3,-1.2406111E-3,1.8705303E-3,2.7309305E-3,4.91E1,-5.164756E-4,1E0,-4.3264222E-3,-7.442485E-5,-2.0864941E-3,-1.0872565E-3,1.3451998E-3,2.8698884E-3,5.426185E-5,5.895672E-3,3.499464E-3,-2.0969722E-3,-3.286402E-4,3.489764E-3,1.7666075E-3,-3.0482514E-3,-2.0749164E-3,-2.6933197E-3,-1.4913761E-3],"split_indices":[44,38,4,8,8,8,44,20,37,14,4,5,4,0,33,0,4,0,16,0,0,4,9,0,0,11,0,0,24,0,0,0,22,0,0,0,43,0,0,0,0,4,0,0,0,0,0,0,0,43,0,0,0,0,0,0,0,0,0,0,0,0,0,0,0,0,0],"split_type":[0,0,0,0,0,0,0,0,0,0,0,0,0,0,0,0,0,0,0,0,0,0,0,0,0,0,0,0,0,0,0,0,0,0,0,0,0,0,0,0,0,0,0,0,0,0,0,0,0,0,0,0,0,0,0,0,0,0,0,0,0,0,0,0,0,0,0],"sum_hessian":[3.930691E4,2.6362043E4,1.2944865E4,2.0729277E4,5.6327656E3,4.0583901E3,8.886475E3,1.1213052E4,9.516226E3,1.3819518E3,4.250814E3,1.71432E3,2.34407E3,7.154662E3,1.731813E3,1.0145976E4,1.0670768E3,7.067197E3,2.4490286E3,1.01459753E3,3.6735428E2,2.4665217E3,1.7842922E3,1.3469657E3,3.6735428E2,2.0291951E3,3.148751E2,6.822294E2,6.4724326E3,1.0495836E3,6.822294E2,3.148751E2,9.831101E3,6.997224E2,3.6735428E2,3.3236816E2,6.7348286E3,1.0320906E3,1.416938E3,6.647363E2,3.498612E2,1.7493062E3,7.172155E2,1.416938E3,3.6735428E2,6.647363E2,6.822294E2,9.971045E2,1.0320906E3,5.790203E3,6.822294E2,6.997224E2,3.498612E2,7.696947E3,2.1341536E3,1.6968269E3,5.0380015E3,1.0320906E3,3.8484735E2,3.6735428E2,1.3819518E3,3.6735428E2,3.498612E2,6.647363E2,3.3236816E2,1.976716E3,3.8134873E3],"tree_param":{"num_deleted":"0","num_feature":"48","num_nodes":"67","size_leaf_vector":"1"}},{"base_weights":[-1.0930161E-3,3.9598137E-2,-8.181242E-2,8.5331954E-2,-1.2914512E-1,1.4481516E-2,-1.2762061E-1,5.4970495E-3,1.7922758E-1,-3.0519438E-1,-6.691841E-2,-8.578548E-2,1.13522306E-1,-1.6116689E-1,1.9537212E-2,-2.2749696E-2,2.75935E-1,5.626067E-1,1.5094349E-1,-2.6216102E-1,-6.3607534E-3,1.6072767E-2,-1.8293405E-1,1.7379089E-3,-1.2711568E-1,3.568878E-2,2.746922E-3,-4.7501945E-3,-1.4507096E-1,6.595564E-2,-2.0753045E-3,5.1472723E-3,-3.7866972E-2,3.1423862E-3,5.966472E-3,1.0514808E-2,5.95657E-3,1.0550999E-1,3.9339316E-1,-2.9375805E-3,-4.3408303E-3,-4.7770247E-2,1.814722E-1,-3.095683E-3,-1.2329121E-3,-3.0406928E-3,-7.2099514E-2,1.769296E-3,-6.812601E-5,-1.270362E-1,-4.3400982E-3,-0E0,1.8615373E-3,-1.115688E-3,1.3727031E-3,1.2480626E-3,8.464095E-3,6.9589512E-3,2.622306E-3,-2.0636483E-3,-3.339572E-4,3.4411E-3,1.7388617E-3,-4.781222E-4,-2.075366E-3,-2.6819506E-3,-1.4885584E-3],"categories":[],"categories_nodes":[],"categories_segments":[],"categories_sizes":[],"default_left":[0,0,0,0,0,0,0,0,0,0,0,0,0,0,0,0,0,0,0,0,0,0,0,0,0,0,0,0,0,0,0,0,0,0,0,0,0,0,0,0,0,0,0,0,0,0,0,0,0,0,0,0,0,0,0,0,0,0,0,0,0,0,0,0,0,0,0],"id":1,"left_children":[1,3,5,7,9,11,13,15,17,19,21,23,25,27,29,31,33,35,37,39,-1,41,43,-1,45,47,-1,-1,49,51,-1,-1,53,-1,-1,-1,-1,55,57,-1,-1,59,61,-1,-1,-1,63,-1,-1,65,-1,-1,-1,-1,-1,-1,-1,-1,-1,-1,-1,-1,-1,-1,-1,-1,-1],"loss_changes":[1.3081013E2,2.0335173E2,5.9593002E1,1.5447713E2,6.138465E1,4.405495E1,4.5722565E1,8.947437E1,1.04018524E2,7.537369E0,4.187747E1,1.8963589E1,1.1589184E1,1.9032623E1,1.35420065E1,5.781101E1,8.86924E0,1.6725388E1,9.789967E1,1.6760864E0,0E0,2.7948349E1,3.6708565E0,0E0,7.325712E0,4.9043474E0,0E0,0E0,1.798558E1,5.989566E0,0E0,0E0,4.6864487E1,0E0,0E0,0E0,0E0,7.844557E1,2.014534E1,0E0,0E0,4.2001877E0,2.0262032E0,0E0,0E0,0E0,2.916594E0,0E0,0E0,8.719894E0,0E0,0E0,0E0,0E0,0E0,0E0,0E0,0E0,0E0,0E0,0E0,0E0,0E0,0E0,0E0,0E0,0E0],"parents":[2147483647,0,0,1,1,2,2,3,3,4,4,5,5,6,6,7,7,8,8,9,9,10,10,11,11,12,12,13,13,14,14,15,15,16,16,17,17,18,18,19,19,21,21,22,22,24,24,25,25,28,28,29,29,32,32,37,37,38,38,41,41,42,42,46,46,49,49],"right_children":[2,4,6,8,10,12,14,16,18,20,22,24,26,28,30,32,34,36,38,40,-1,42,44,-1,46,48,-1,-1,50,52,-1,-1,54,-1,-1,-1,-1,56,58,-1,-1,60,62,-1,-1,-1,64,-1,-1,66,-1,-1,-1,-1,-1,-1,-1,-1,-1,-1,-1,-1,-1,-1,-1,-1,-1],"split_conditions":[5.7E1,1E0,5.4E1,5.19E1,3.38E1,1E0,7.85E1,6.54E1,3.88E1,1E0,4.34E1,4.25E1,1E0,2.45E1,5.87E1,1.55E1,7.46E1,3.66E1,2E0,1E0,-6.3607534E-3,4.25E1,2E0,1.7379089E-3,4.91E1,3.87E1,2.746922E-3,-4.7501945E-3,7.42E1,1E0,-2.0753045E-3,5.1472723E-3,1E0,3.1423862E-3,5.966472E-3,1.0514808E-2,5.95657E-3,8E0,2E0,-2.9375805E-3,-4.3408303E-3,3.08E1,3.92E1,-3.095683E-3,-1.2329121E-3,-3.0406928E-3,5.73E1,1.769296E-3,-6.812601E-5,1E0,-4.3400982E-3,-0E0,1.8615373E-3,-1.115688E-3,1.3727031E-3,1.2480626E-3,8.464095E-3,6.9589512E-3,2.622306E-3,-2.0636483E-3,-3.339572E-4,3.4411E-3,1.7388617E-3,-4.781222E-4,-2.075366E-3,-2.6819506E-3,-1.4885584E-3],"split_indices":[44,38,4,8,8,25,44,20,24,6,4,0,27,0,0,0,4,0,13,1,0,4,9,0,0,0,0,0,24,9,0,0,22,0,0,0,0,47,1,0,0,4,0,0,0,0,0,0,0,43,0,0,0,0,0,0,0,0,0,0,0,0,0,0,0,0,0],"split_type":[0,0,0,0,0,0,0,0,0,0,0,0,0,0,0,0,0,0,0,0,0,0,0,0,0,0,0,0,0,0,0,0,0,0,0,0,0,0,0,0,0,0,0,0,0,0,0,0,0,0,0,0,0,0,0,0,0,0,0,0,0,0,0,0,0,0,0],"sum_hessian":[3.9393152E4,2.614956E4,1.324359E4,2.0597285E4,5.552276E3,4.234252E3,9.009338E3,1.1161506E4,9.435779E3,1.4279946E3,4.124281E3,2.0790803E3,2.1551716E3,7.3644175E3,1.6449204E3,1.0090046E4,1.0714594E3,6.348588E2,8.80092E3,1.0803582E3,3.4763657E2,2.3797227E3,1.7445585E3,3.3299048E2,1.74609E3,1.0501438E3,1.1050277E3,6.6157556E2,6.7028423E3,1.2957885E3,3.4913202E2,3.868406E2,9.703206E3,7.194719E2,3.5198743E2,3.0052542E2,3.3433344E2,7.4305425E3,1.3703777E3,3.6607095E2,7.142872E2,1.6956824E3,6.840401E2,1.3776597E3,3.6689874E2,6.975928E2,1.0484972E3,3.855679E2,6.645759E2,5.9887227E3,7.1411926E2,5.77228E2,7.185604E2,7.601213E3,2.101993E3,7.095245E3,3.3529733E2,1.0204975E3,3.4988022E2,3.3167194E2,1.3640105E3,3.5108426E2,3.3295587E2,6.993612E2,3.4913602E2,2.0411827E3,3.94754E3],"tree_param":{"num_deleted":"0","num_feature":"48","num_nodes":"67","size_leaf_vector":"1"}},{"base_weights":[9.414466E-4,-6.51867E-3,6.012508E-3,-1.1674575E-2,8.330283E-3,-1.6650919E-2,8.340307E-3,1.6869389E-1,-2.7830504E-2,-1.6652381E-1,4.9136525E-1,-8.31805E-2,6.5189265E-3,-3.770256E-3,-1.7392783E-3,5.5812728E-3,1.0514808E-2,-3.2592143E-3,-8.9710194E-4,1.5752552E-3,-6.3085015E-4],"categories":[],"categories_nodes":[],"categories_segments":[],"categories_sizes":[],"default_left":[0,0,0,0,0,0,0,0,0,0,0,0,0,0,0,0,0,0,0,0,0],"id":2,"left_children":[1,3,-1,5,-1,7,-1,9,11,13,15,17,19,-1,-1,-1,-1,-1,-1,-1,-1],"loss_changes":[1.2203221E2,1.13439835E2,0E0,1.0977238E2,0E0,7.891843E1,0E0,2.3494965E2,6.839398E1,4.547865E0,2.9489502E1,4.3315453E1,1.058267E2,0E0,0E0,0E0,0E0,0E0,0E0,0E0,0E0],"parents":[2147483647,0,0,1,1,3,3,5,5,7,7,8,8,9,9,10,10,11,11,12,12],"right_children":[2,4,-1,6,-1,8,-1,10,12,14,16,18,20,-1,-1,-1,-1,-1,-1,-1,-1],"split_conditions":[4E0,8E0,6.012508E-3,4E0,8.330283E-3,2.45E1,8.340307E-3,3.68E1,4.8E1,1.99E1,1E0,3.5E1,5.46E1,-3.770256E-3,-1.7392783E-3,5.5812728E-3,1.0514808E-2,-3.2592143E-3,-8.9710194E-4,1.5752552E-3,-6.3085015E-4],"split_indices":[9,47,0,31,0,16,0,24,16,0,7,24,16,0,0,0,0,0,0,0,0],"split_type":[0,0,0,0,0,0,0,0,0,0,0,0,0,0,0,0,0,0,0,0,0],"sum_hessian":[3.893861E4,3.8213184E4,7.254238E2,3.787504E4,3.3814737E2,3.7555168E4,3.1986835E2,2.1101387E3,3.544503E4,1.0275858E3,1.0825529E3,1.362849E4,2.1816541E4,3.4712888E2,6.8045703E2,7.252563E2,3.572965E2,1.9999868E3,1.1628503E4,7.2406074E3,1.4575934E4],"tree_param":{"num_deleted":"0","num_feature":"48","num_nodes":"21","size_leaf_vector":"1"}},{"base_weights":[7.319299E-4,-1.0372957E-2,3.9316976E-1,-1.8934505E-1,3.0892915E-3,5.665895E-1,7.537877E-5,-3.046297E-1,-5.822675E-2,-3.695855E-2,6.0248025E-2,1.0514808E-2,5.897535E-3,-1.2213547E-3,-3.770881E-1,-3.7162541E-3,-0E0,-4.424727E-2,5.9592775E-3,2.2291143E-1,-4.7955564E-3,-6.056706E-3,-4.6274303E-3,1.6398782E-4,-3.9859876E-4,5.003357E-3,-5.146329E-2,4.8595136E-1,1.6849846E-1,-4.141175E-2,1.6821809E-1,-1.1358443E-3,9.90707E-4,5.8008316E-3,8.442929E-3,1.7141282E-3,5.5822446E-3,4.028385E-4,-2.2256104E-3,-4.6631772E-4,7.0469882E-3],"categories":[],"categories_nodes":[],"categories_segments":[],"categories_sizes":[],"default_left":[0,0,0,0,0,0,0,0,0,0,0,0,0,0,0,0,0,0,0,0,0,0,0,0,0,0,0,0,0,0,0,0,0,0,0,0,0,0,0,0,0],"id":3,"left_children":[1,3,5,7,9,11,-1,13,15,17,19,-1,-1,-1,21,-1,23,25,-1,27,29,-1,-1,-1,-1,-1,31,33,35,37,39,-1,-1,-1,-1,-1,-1,-1,-1,-1,-1],"loss_changes":[1.7831822E2,9.540074E1,7.3025894E1,4.095951E1,8.2867714E1,1.791037E1,0E0,2.2270248E1,1.5563424E1,6.856177E1,1.5909424E2,0E0,0E0,0E0,1.5701294E0,0E0,6.995943E-1,5.8183125E1,0E0,6.168387E1,6.815502E1,0E0,0E0,0E0,0E0,0E0,5.8400734E1,5.063736E0,3.972596E1,6.545093E1,1.1443468E2,0E0,0E0,0E0,0E0,0E0,0E0,0E0,0E0,0E0,0E0],"parents":[2147483647,0,0,1,1,2,2,3,3,4,4,5,5,7,7,8,8,9,9,10,10,14,14,16,16,17,17,19,19,20,20,26,26,27,27,28,28,29,29,30,30],"right_children":[2,4,6,8,10,12,-1,14,16,18,20,-1,-1,-1,22,-1,24,26,-1,28,30,-1,-1,-1,-1,-1,32,34,36,38,40,-1,-1,-1,-1,-1,-1,-1,-1,-1,-1],"split_conditions":[2E0,2.39E1,4.47E1,1E0,5.71E1,3.66E1,7.537877E-5,1E0,1.99E1,3E0,5.33E1,1.0514808E-2,5.897535E-3,-1.2213547E-3,4.27E1,-3.7162541E-3,6.34E1,1.55E1,5.9592775E-3,5.8E1,2E0,-6.056706E-3,-4.6274303E-3,1.6398782E-4,-3.9859876E-4,5.003357E-3,2E0,4.92E1,1E0,5.4E1,6.26E1,-1.1358443E-3,9.90707E-4,5.8008316E-3,8.442929E-3,1.7141282E-3,5.5822446E-3,4.028385E-4,-2.2256104E-3,-4.6631772E-4,7.0469882E-3],"split_indices":[34,4,0,35,32,0,0,3,0,11,40,0,0,0,0,0,0,0,0,32,13,0,0,0,0,0,35,0,1,4,0,0,0,0,0,0,0,0,0,0,0],"split_type":[0,0,0,0,0,0,0,0,0,0,0,0,0,0,0,0,0,0,0,0,0,0,0,0,0,0,0,0,0,0,0,0,0,0,0,0,0,0,0,0,0],"sum_hessian":[3.955222E4,3.845236E4,1.099861E3,2.7151045E3,3.5737254E4,7.509898E2,3.4887115E2,1.4237913E3,1.2913134E3,2.0962742E4,1.4774511E4,3.9718054E2,3.5380923E2,3.662172E2,1.0575741E3,2.939492E2,9.973642E2,2.0628477E4,3.3426578E2,4.2415444E3,1.0532967E4,7.11157E2,3.4641705E2,6.462809E2,3.5108334E2,3.732399E2,2.0255236E4,7.099115E2,3.5316328E3,8.7176455E3,1.8153214E3,1.6835148E4,3.4200876E3,3.3827188E2,3.7163962E2,2.8064307E3,7.252022E2,5.2903237E3,3.4273215E3,1.0826776E3,7.326438E2],"tree_param":{"num_deleted":"0","num_feature":"48","num_nodes":"41","size_leaf_vector":"1"}},{"base_weights":[-0E0,-9.838662E-3,3.7136835E-1,-3.632121E-2,1.16183795E-1,5.416368E-1,6.3506064E-5,-4.2827077E-2,8.113237E-3,2.1592692E-1,-2.214092E-2,1.03935255E-2,5.819214E-3,-1.2855776E-1,-1.240593E-2,1.08644746E-1,3.9456993E-1,1.8291496E-3,-7.599133E-2,-4.983798E-2,-2.0455047E-1,4.9937747E-2,-9.336979E-2,2.7086285E-1,-2.1616885E-2,3.40555E-1,8.286231E-3,-2.9209242E-3,-4.6788737E-2,-2.5986694E-3,1.4142481E-4,-6.0481974E-3,-2.4301799E-3,3.443165E-4,3.2338563E-3,7.513958E-4,-1.9787005E-3,3.0713317E-3,5.773082E-3,-8.0981525E-4,9.0283045E-4,3.392032E-3,5.834598E-3,-5.126095E-4,-1.1990357E-3],"categories":[],"categories_nodes":[],"categories_segments":[],"categories_sizes":[],"default_left":[0,0,0,0,0,0,0,0,0,0,0,0,0,0,0,0,0,0,0,0,0,0,0,0,0,0,0,0,0,0,0,0,0,0,0,0,0,0,0,0,0,0,0,0,0],"id":4,"left_children":[1,3,5,7,9,11,-1,13,-1,15,17,-1,-1,19,21,23,25,-1,27,29,31,33,35,37,39,41,-1,-1,43,-1,-1,-1,-1,-1,-1,-1,-1,-1,-1,-1,-1,-1,-1,-1,-1],"loss_changes":[1.4773204E2,1.2841571E2,6.2573257E1,1.2141446E2,9.318979E1,1.5597473E1,0E0,8.17272E1,0E0,7.4162506E1,2.279569E1,0E0,0E0,4.8650406E1,1.1810872E2,5.436103E1,1.24418335E1,0E0,7.432605E0,3.1557018E1,3.5508575E1,5.8820778E1,5.675585E1,8.427238E0,4.405167E0,5.558365E0,0E0,0E0,7.9244566E-1,0E0,0E0,0E0,0E0,0E0,0E0,0E0,0E0,0E0,0E0,0E0,0E0,0E0,0E0,0E0,0E0],"parents":[2147483647,0,0,1,1,2,2,3,3,4,4,5,5,7,7,9,9,10,10,13,13,14,14,15,15,16,16,18,18,19,19,20,20,21,21,22,22,23,23,24,24,25,25,28,28],"right_children":[2,4,6,8,10,12,-1,14,-1,16,18,-1,-1,20,22,24,26,-1,28,30,32,34,36,38,40,42,-1,-1,44,-1,-1,-1,-1,-1,-1,-1,-1,-1,-1,-1,-1,-1,-1,-1,-1],"split_conditions":[2E0,2E0,4.47E1,4E0,5.18E1,3.66E1,6.3506064E-5,3.88E1,8.113237E-3,1E0,3.87E1,1.03935255E-2,5.819214E-3,2.75E1,5.7E1,1E0,7.05E1,1.8291496E-3,4.91E1,4.29E1,2.83E1,2E0,4.3E1,1E0,3E0,3.92E1,8.286231E-3,-2.9209242E-3,2E0,-2.5986694E-3,1.4142481E-4,-6.0481974E-3,-2.4301799E-3,3.443165E-4,3.2338563E-3,7.513958E-4,-1.9787005E-3,3.0713317E-3,5.773082E-3,-8.0981525E-4,9.0283045E-4,3.392032E-3,5.834598E-3,-5.126095E-4,-1.1990357E-3],"split_indices":[34,9,0,31,44,0,0,36,0,37,0,0,0,36,44,30,0,0,0,40,44,25,12,3,9,0,0,0,5,0,0,0,0,0,0,0,0,0,0,0,0,0,0,0,0],"split_type":[0,0,0,0,0,0,0,0,0,0,0,0,0,0,0,0,0,0,0,0,0,0,0,0,0,0,0,0,0,0,0,0,0,0,0,0,0,0,0,0,0,0,0,0,0],"sum_hessian":[3.9183477E4,3.8167723E4,1.01575543E3,3.1573258E4,6.5944644E3,6.8430286E2,3.3145258E2,3.1230383E4,3.4287433E2,3.8522625E3,2.7422017E3,3.2840085E2,3.5590204E2,8.1356104E3,2.3094773E4,2.4253445E3,1.426918E3,7.210694E2,2.0211323E3,4.0292349E3,4.1063755E3,1.3013084E4,1.0081689E4,1.0967897E3,1.3285549E3,1.0878218E3,3.3909622E2,3.6472388E2,1.6564084E3,1.3355793E3,2.6936555E3,7.068627E2,3.3995127E3,1.1212501E4,1.800583E3,2.1001348E3,7.9815547E3,7.214804E2,3.7530923E2,9.96341E2,3.322139E2,3.5267633E2,7.3514545E2,1.3082966E3,3.4811185E2],"tree_param":{"num_deleted":"0","num_feature":"48","num_nodes":"45","size_leaf_vector":"1"}},{"base_weights":[-1.3532698E-3,4.082615E-2,-8.3496936E-2,8.753583E-2,-1.2829313E-1,6.8740053E-3,-1.2584119E-1,7.4616685E-3,1.8143742E-1,-1.7172574E-1,1.7564183E-1,-8.731614E-2,1.0646082E-1,-1.7256622E-1,-3.2255077E-3,-2.3154985E-2,1.7891833E-1,1.4322771E-1,6.1540866E-1,-3.346542E-1,-1.2645087E-1,3.3437558E-3,1.7413198E-3,1.733725E-3,-1.271146E-1,1.6703464E-1,-4.132382E-5,-2.599288E-1,-1.5445635E-1,-7.701319E-2,8.71527E-2,-5.7988826E-2,1.2453463E-1,4.6149507E-1,-0E0,2.0018907E-1,-6.18315E-3,1.022298E-2,8.166925E-3,-4.2774077E-3,-6.3393377E-3,-4.9942847E-2,-1.865405E-1,-1.8445571E-1,-4.6736424E-4,2.7018113E-3,1.6815573E-3,-4.731541E-3,-2.0467187E-3,-1.8276547E-1,-6.342862E-2,-4.448819E-4,-1.1443872E-1,1.8317499E-3,1.0435959E-4,-3.1008015E-3,-5.186254E-4,1.4234624E-4,2.9939678E-3,8.1281215E-3,5.686439E-3,-4.9444207E-4,8.888354E-4,1.8584204E-3,5.8049737E-3,-8.419711E-4,1.910659E-3,-2.062481E-3,-3.2625275E-4,-1.2187957E-3,-3.0862635E-3,-2.0545817E-3,-3.0173094E-3,-3.9720256E-3,-2.1324663E-3,-4.6989715E-4,-2.0550177E-3,-1.2114438E-3,-2.0420905E-3],"categories":[],"categories_nodes":[],"categories_segments":[],"categories_sizes":[],"default_left":[0,0,0,0,0,0,0,0,0,0,0,0,0,0,0,0,0,0,0,0,0,0,0,0,0,0,0,0,0,0,0,0,0,0,0,0,0,0,0,0,0,0,0,0,0,0,0,0,0,0,0,0,0,0,0,0,0,0,0,0,0,0,0,0,0,0,0,0,0,0,0,0,0,0,0,0,0,0,0],"id":5,"left_children":[1,3,5,7,9,11,13,15,17,19,21,23,25,27,29,31,33,35,37,39,41,-1,-1,-1,43,45,-1,47,49,51,53,55,57,59,61,63,65,-1,-1,-1,-1,67,69,71,-1,-1,-1,-1,-1,73,75,-1,77,-1,-1,-1,-1,-1,-1,-1,-1,-1,-1,-1,-1,-1,-1,-1,-1,-1,-1,-1,-1,-1,-1,-1,-1,-1,-1],"loss_changes":[1.3822682E2,2.072945E2,5.249626E1,1.5369441E2,7.630656E1,4.1835632E1,5.2246185E1,6.0774616E1,1.573469E2,3.688832E1,1.8398609E0,1.9043018E1,1.5293667E1,1.0782181E1,1.8671274E1,4.941279E1,9.033452E1,7.503505E1,3.0915527E0,4.6304016E0,1.7750923E1,0E0,0E0,0E0,9.850388E0,7.406235E-1,0E0,7.0235214E0,1.393663E1,2.5066195E0,2.9056196E0,2.7088152E1,1.4930952E1,4.17894E0,2.850153E0,8.98221E1,1.7108301E1,0E0,0E0,0E0,0E0,4.595855E0,3.8122482E0,6.849899E-1,0E0,0E0,0E0,0E0,0E0,1.4091507E1,3.4012713E0,0E0,4.7059727E-1,0E0,0E0,0E0,0E0,0E0,0E0,0E0,0E0,0E0,0E0,0E0,0E0,0E0,0E0,0E0,0E0,0E0,0E0,0E0,0E0,0E0,0E0,0E0,0E0,0E0,0E0],"parents":[2147483647,0,0,1,1,2,2,3,3,4,4,5,5,6,6,7,7,8,8,9,9,10,10,11,11,12,12,13,13,14,14,15,15,16,16,17,17,18,18,19,19,20,20,24,24,25,25,27,27,28,28,29,29,30,30,31,31,32,32,33,33,34,34,35,35,36,36,41,41,42,42,43,43,49,49,50,50,52,52],"right_children":[2,4,6,8,10,12,14,16,18,20,22,24,26,28,30,32,34,36,38,40,42,-1,-1,-1,44,46,-1,48,50,52,54,56,58,60,62,64,66,-1,-1,-1,-1,68,70,72,-1,-1,-1,-1,-1,74,76,-1,78,-1,-1,-1,-1,-1,-1,-1,-1,-1,-1,-1,-1,-1,-1,-1,-1,-1,-1,-1,-1,-1,-1,-1,-1,-1,-1],"split_conditions":[5.7E1,1E0,5.4E1,4.45E1,6.22E1,1E0,7.09E1,1E0,2E0,2.33E1,1E0,3.95E1,6E1,3.35E1,7.9E1,5.11E1,1E0,1E0,1E0,2.17E1,4.25E1,3.3437558E-3,1.7413198E-3,1.733725E-3,1E0,2E0,-4.132382E-5,6.41E1,1E0,1E0,1E0,2.74E1,4.34E1,1E0,3.83E1,5.34E1,5.71E1,1.022298E-2,8.166925E-3,-4.2774077E-3,-6.3393377E-3,3.08E1,3.78E1,4.13E1,-4.6736424E-4,2.7018113E-3,1.6815573E-3,-4.731541E-3,-2.0467187E-3,1E0,1E0,-4.448819E-4,1E0,1.8317499E-3,1.0435959E-4,-3.1008015E-3,-5.186254E-4,1.4234624E-4,2.9939678E-3,8.1281215E-3,5.686439E-3,-4.9444207E-4,8.888354E-4,1.8584204E-3,5.8049737E-3,-8.419711E-4,1.910659E-3,-2.062481E-3,-3.2625275E-4,-1.2187957E-3,-3.0862635E-3,-2.0545817E-3,-3.0173094E-3,-3.9720256E-3,-2.1324663E-3,-4.6989715E-4,-2.0550177E-3,-1.2114438E-3,-2.0420905E-3],"split_indices":[44,38,4,12,32,25,36,13,17,4,1,12,36,24,44,20,46,17,1,4,4,0,0,0,39,10,0,4,18,5,1,20,4,1,4,20,32,0,0,0,0,4,12,4,0,0,0,0,0,13,7,0,1,0,0,0,0,0,0,0,0,0,0,0,0,0,0,0,0,0,0,0,0,0,0,0,0,0,0],"split_type":[0,0,0,0,0,0,0,0,0,0,0,0,0,0,0,0,0,0,0,0,0,0,0,0,0,0,0,0,0,0,0,0,0,0,0,0,0,0,0,0,0,0,0,0,0,0,0,0,0,0,0,0,0,0,0,0,0,0,0,0,0,0,0,0,0,0,0,0,0,0,0,0,0,0,0,0,0,0,0],"sum_hessian":[3.947645E4,2.6043285E4,1.3433164E4,2.0430545E4,5.61274E3,4.248592E3,9.184572E3,1.1056495E4,9.37405E3,4.925734E3,6.870064E2,2.1577178E3,2.0908743E3,6.6205137E3,2.5640583E3,9.357287E3,1.6992079E3,8.627297E3,7.467528E2,1.0457207E3,3.8800134E3,3.361809E2,3.5082553E2,3.3314246E2,1.8245754E3,1.3740289E3,7.168453E2,1.0870605E3,5.533453E3,1.4421289E3,1.1219296E3,7.599373E3,1.7579142E3,6.654332E2,1.0337747E3,6.2700356E3,2.3572617E3,3.5026703E2,3.9648578E2,7.047506E2,3.409701E2,1.7442363E3,2.135777E3,1.109105E3,7.154704E2,1.0389795E3,3.3504947E2,7.231262E2,3.639343E2,4.1781387E3,1.3553142E3,6.9604224E2,7.460866E2,7.386515E2,3.8327808E2,1.0070656E3,6.5923076E3,7.1926117E2,1.038653E3,3.059264E2,3.5950684E2,7.0100214E2,3.3277252E2,4.4653423E3,1.8046932E3,1.7434703E3,6.137915E2,3.8170013E2,1.3625363E3,3.660666E2,1.7697104E3,3.6446515E2,7.4463983E2,1.3493674E3,2.8287715E3,9.908196E2,3.644946E2,3.8246417E2,3.6362247E2],"tree_param":{"num_deleted":"0","num_feature":"48","num_nodes":"79","size_leaf_vector":"1"}},{"base_weights":[9.3422923E-4,-9.592055E-3,3.5790277E-1,-1.4953229E-2,7.910519E-3,5.319836E-1,7.988524E-5,2.1041477E-2,-8.2427755E-2,1.0055643E-2,5.728641E-3,-8.619527E-4,3.0490494E-1,9.9418005E-3,-1.2687849E-1,-1.8037379E-1,2.3564838E-2,1.9502777E-1,4.623151E-1,-6.0363118E-2,1.1162488E-1,-1.727707E-1,-2.1031522E-3,-5.1562255E-3,-3.4604623E-4,-4.2148207E-5,2.7907074E-3,3.3102657E-3,2.6277294E-3,8.0194E-3,5.57224E-3,-1.8618385E-3,1.3106144E-3,-3.6254464E-4,2.2666901E-3,-4.7186213E-3,-2.3162272E-3,-1.1380751E-3,1.337238E-3],"categories":[],"categories_nodes":[],"categories_segments":[],"categories_sizes":[],"default_left":[0,0,0,0,0,0,0,0,0,0,0,0,0,0,0,0,0,0,0,0,0,0,0,0,0,0,0,0,0,0,0,0,0,0,0,0,0,0,0],"id":6,"left_children":[1,3,5,7,-1,9,-1,11,13,-1,-1,15,17,19,21,23,25,27,29,31,33,35,37,-1,-1,-1,-1,-1,-1,-1,-1,-1,-1,-1,-1,-1,-1,-1,-1],"loss_changes":[1.5246294E2,1.1201448E2,6.874397E1,9.26003E1,0E0,1.5206345E1,0E0,1.566702E2,5.5085953E1,0E0,0E0,1.0246749E2,3.0779572E1,3.2149654E1,5.061664E1,7.0410645E1,8.803673E1,5.2929306E-1,4.335434E0,2.492973E1,1.0656277E1,1.7588303E1,1.7850368E1,0E0,0E0,0E0,0E0,0E0,0E0,0E0,0E0,0E0,0E0,0E0,0E0,0E0,0E0,0E0,0E0],"parents":[2147483647,0,0,1,1,2,2,3,3,5,5,7,7,8,8,11,11,12,12,13,13,14,14,15,15,16,16,17,17,18,18,19,19,20,20,21,21,22,22],"right_children":[2,4,6,8,-1,10,-1,12,14,-1,-1,16,18,20,22,24,26,28,30,32,34,36,38,-1,-1,-1,-1,-1,-1,-1,-1,-1,-1,-1,-1,-1,-1,-1,-1],"split_conditions":[2E0,4E0,4.47E1,5.7E1,7.910519E-3,3.66E1,7.988524E-5,6.67E1,5.4E1,1.0055643E-2,5.728641E-3,2.39E1,1E0,1E0,7.09E1,5.32E1,6.25E1,3.74E1,4.44E1,1E0,4.65E1,2.45E1,7.9E1,-5.1562255E-3,-3.4604623E-4,-4.2148207E-5,2.7907074E-3,3.3102657E-3,2.6277294E-3,8.0194E-3,5.57224E-3,-1.8618385E-3,1.3106144E-3,-3.6254464E-4,2.2666901E-3,-4.7186213E-3,-2.3162272E-3,-1.1380751E-3,1.337238E-3],"split_indices":[34,31,0,44,0,0,0,4,4,0,0,4,3,15,36,24,0,0,0,26,4,0,44,0,0,0,0,0,0,0,0,0,0,0,0,0,0,0,0],"split_type":[0,0,0,0,0,0,0,0,0,0,0,0,0,0,0,0,0,0,0,0,0,0,0,0,0,0,0,0,0,0,0,0,0,0,0,0,0,0,0],"sum_hessian":[3.913414E4,3.8000547E4,1.1335935E3,3.763457E4,3.6597882E2,7.49068E2,3.845255E2,2.4494443E4,1.3140127E4,3.7249066E2,3.765773E2,2.2724371E4,1.7700717E3,4.2327256E3,8.907401E3,2.7455686E3,1.9978803E4,1.062451E3,7.076206E2,2.4736487E3,1.7590768E3,6.482638E3,2.4247632E3,1.3327805E3,1.4127882E3,1.7159492E4,2.8193108E3,3.5536157E2,7.070895E2,3.633974E2,3.442232E2,1.7527058E3,7.209428E2,3.6622763E2,1.3928491E3,7.197127E2,5.7629253E3,1.3713112E3,1.0534521E3],"tree_param":{"num_deleted":"0","num_feature":"48","num_nodes":"39","size_leaf_vector":"1"}},{"base_weights":[-1.0874727E-3,-1.1518945E-2,3.5921097E-1,-1.8731477E-2,5.675783E-3,5.1702416E-1,5.978926E-5,1.3015952E-2,-7.902621E-2,9.869011E-3,5.6631737E-3,-3.2336198E-2,1.3334964E-1,5.245473E-2,-1.04302146E-1,2.6272503E-3,-1.4626198E-1,6.2453583E-2,3.211483E-1,-4.9581923E-2,1.5947865E-1,-4.7001145E-3,-9.007339E-2,4.9146293E-3,-9.251153E-5,-2.9421304E-3,1.3517872E-3,-3.1846995E-4,3.249162E-3,6.2356596E-3,2.6084755E-3,-5.4156746E-5,-2.0164142E-3,1.6971318E-3,2.6167587E-3,-1.1080122E-3,-3.6222504E-3],"categories":[],"categories_nodes":[],"categories_segments":[],"categories_sizes":[],"default_left":[0,0,0,0,0,0,0,0,0,0,0,0,0,0,0,0,0,0,0,0,0,0,0,0,0,0,0,0,0,0,0,0,0,0,0,0,0],"id":7,"left_children":[1,3,5,7,-1,9,-1,11,13,-1,-1,15,17,19,21,23,25,27,29,31,33,-1,35,-1,-1,-1,-1,-1,-1,-1,-1,-1,-1,-1,-1,-1,-1],"loss_changes":[1.5133336E2,1.1057424E2,6.0946884E1,7.370797E1,0E0,1.4553848E1,0E0,1.3741565E2,4.472429E1,0E0,0E0,7.353099E1,9.137442E1,2.4927177E1,3.376191E1,4.4067444E1,5.1836952E1,6.672178E1,2.529808E1,4.2635655E0,5.358505E-1,0E0,2.6219025E1,0E0,0E0,0E0,0E0,0E0,0E0,0E0,0E0,0E0,0E0,0E0,0E0,0E0,0E0],"parents":[2147483647,0,0,1,1,2,2,3,3,5,5,7,7,8,8,11,11,12,12,13,13,14,14,15,15,16,16,17,17,18,18,19,19,20,20,22,22],"right_children":[2,4,6,8,-1,10,-1,12,14,-1,-1,16,18,20,22,24,26,28,30,32,34,-1,36,-1,-1,-1,-1,-1,-1,-1,-1,-1,-1,-1,-1,-1,-1],"split_conditions":[2E0,4E0,4.47E1,5.7E1,5.675783E-3,3.66E1,5.978926E-5,5.3E1,4.3E1,9.869011E-3,5.6631737E-3,1E0,1E0,6.29E1,2.45E1,1.55E1,2E0,5.94E1,5.83E1,6.08E1,4.25E1,-4.7001145E-3,7.42E1,4.9146293E-3,-9.251153E-5,-2.9421304E-3,1.3517872E-3,-3.1846995E-4,3.249162E-3,6.2356596E-3,2.6084755E-3,-5.4156746E-5,-2.0164142E-3,1.6971318E-3,2.6167587E-3,-1.1080122E-3,-3.6222504E-3],"split_indices":[34,9,0,44,0,0,0,20,12,0,0,38,33,24,0,0,9,24,16,0,0,0,24,0,0,0,0,0,0,0,0,0,0,0,0,0,0],"split_type":[0,0,0,0,0,0,0,0,0,0,0,0,0,0,0,0,0,0,0,0,0,0,0,0,0,0,0,0,0,0,0,0,0,0,0,0,0],"sum_hessian":[3.974185E4,3.863804E4,1.1038151E3,3.7948883E4,6.8915375E2,7.5421844E2,3.4959656E2,2.4805645E4,1.3143239E4,3.5744238E2,3.967761E2,1.7986104E4,6.8195405E3,2.087184E3,1.1056056E4,1.3729618E4,4.2564863E3,4.9709204E3,1.8486202E3,1.0448458E3,1.0423383E3,6.82214E2,1.0373842E4,3.7592337E2,1.3353694E4,3.5355073E3,7.209789E2,3.1995645E3,1.7713558E3,1.1073525E3,7.412677E2,7.1606085E2,3.28785E2,3.3447784E2,7.078604E2,9.394202E3,9.796397E2],"tree_param":{"num_deleted":"0","num_feature":"48","num_nodes":"37","size_leaf_vector":"1"}},{"base_weights":[3.2561738E-3,-7.7225976E-3,3.6969465E-1,-4.438545E-2,6.416032E-2,5.1989555E-1,5.9341168E-5,-5.9070073E-2,1.4416438E-1,2.9315352E-1,3.361858E-2,9.731268E-3,5.5892537E-3,-7.626066E-2,8.563659E-2,2.1701507E-1,-2.8782936E-3,-1.1754038E-3,4.157582E-1,1.07431136E-1,-5.8372367E-2,4.8189587E-3,-8.266089E-2,2.3844592E-1,-3.355869E-2,5.740462E-3,1.5746202E-1,5.31822E-3,8.000998E-3,-1.6464491E-1,1.622163E-1,-0E0,-1.3014086E-1,-1.6564325E-3,2.3342427E-4,2.6095747E-3,5.4906015E-3,-0E0,-2.089508E-3,1.7514623E-3,2.5796923E-3,-2.890278E-3,-2.1428561E-3,3.9270794E-4,3.7197447E-3,-9.160928E-4,9.507208E-4,-3.318013E-3,-8.8714506E-4],"categories":[],"categories_nodes":[],"categories_segments":[],"categories_sizes":[],"default_left":[0,0,0,0,0,0,0,0,0,0,0,0,0,0,0,0,0,0,0,0,0,0,0,0,0,0,0,0,0,0,0,0,0,0,0,0,0,0,0,0,0,0,0,0,0,0,0,0,0],"id":8,"left_children":[1,3,5,7,9,11,-1,13,15,17,19,-1,-1,21,23,25,-1,-1,27,29,31,-1,33,35,37,-1,39,-1,-1,41,43,45,47,-1,-1,-1,-1,-1,-1,-1,-1,-1,-1,-1,-1,-1,-1,-1,-1],"loss_changes":[1.6520311E2,1.0242102E2,6.3064255E1,7.19249E1,9.165053E1,1.5128494E1,0E0,6.002569E1,4.7384632E1,7.231421E1,7.937962E1,0E0,0E0,5.609707E1,4.824199E1,1.531778E1,0E0,0E0,8.32959E0,9.742767E1,2.1775002E1,0E0,5.7633972E1,9.373077E0,6.2930393E0,0E0,5.083504E-1,0E0,0E0,6.461983E-1,6.1727463E1,1.20863495E1,1.4686886E1,0E0,0E0,0E0,0E0,0E0,0E0,0E0,0E0,0E0,0E0,0E0,0E0,0E0,0E0,0E0,0E0],"parents":[2147483647,0,0,1,1,2,2,3,3,4,4,5,5,7,7,8,8,9,9,10,10,13,13,14,14,15,15,18,18,19,19,20,20,22,22,23,23,24,24,26,26,29,29,30,30,31,31,32,32],"right_children":[2,4,6,8,10,12,-1,14,16,18,20,-1,-1,22,24,26,-1,-1,28,30,32,-1,34,36,38,-1,40,-1,-1,42,44,46,48,-1,-1,-1,-1,-1,-1,-1,-1,-1,-1,-1,-1,-1,-1,-1,-1],"split_conditions":[2E0,1E0,4.47E1,3E0,3.62E1,3.66E1,5.9341168E-5,7.52E1,7.05E1,4.85E1,1E0,9.731268E-3,5.5892537E-3,1.55E1,1E0,5.08E1,-2.8782936E-3,-1.1754038E-3,7.05E1,3.38E1,1E0,4.8189587E-3,1E0,5.96E1,2E0,5.740462E-3,6.23E1,5.31822E-3,8.000998E-3,1E0,1E0,1E0,5.93E1,-1.6564325E-3,2.3342427E-4,2.6095747E-3,5.4906015E-3,-0E0,-2.089508E-3,1.7514623E-3,2.5796923E-3,-2.890278E-3,-2.1428561E-3,3.9270794E-4,3.7197447E-3,-9.160928E-4,9.507208E-4,-3.318013E-3,-8.8714506E-4],"split_indices":[34,37,0,27,28,0,0,32,0,0,46,0,0,0,43,0,0,0,0,8,1,0,22,0,1,0,0,0,0,3,3,25,32,0,0,0,0,0,0,0,0,0,0,0,0,0,0,0,0],"split_type":[0,0,0,0,0,0,0,0,0,0,0,0,0,0,0,0,0,0,0,0,0,0,0,0,0,0,0,0,0,0,0,0,0,0,0,0,0,0,0,0,0,0,0,0,0,0,0,0,0],"sum_hessian":[3.968258E4,3.8515945E4,1.1666324E3,2.555296E4,1.2962983E4,8.17015E2,3.4961746E2,2.373188E4,1.8210791E3,1.50519E3,1.1457794E4,4.1798553E2,3.9902948E2,2.1243287E4,2.488595E3,1.5089441E3,3.1213507E2,3.635319E2,1.1416581E3,6.387066E3,5.070728E3,3.238075E2,2.0919479E4,1.108472E3,1.3801228E3,3.7623917E2,1.1327048E3,7.778269E2,3.6383115E2,1.0549022E3,5.3321636E3,2.8080925E3,2.2626355E3,1.6367886E4,4.551593E3,7.620725E2,3.4639957E2,1.0300647E3,3.500581E2,3.8631638E2,7.463885E2,3.6227075E2,6.926315E2,2.0794216E3,3.252742E3,1.4418348E3,1.3662576E3,9.6200507E2,1.3006304E3],"tree_param":{"num_deleted":"0","num_feature":"48","num_nodes":"49","size_leaf_vector":"1"}},{"base_weights":[-0E0,4.0276144E-2,-7.8643575E-2,8.435054E-2,-1.2395145E-1,-4.6854117E-3,-6.53401E-2,4.2103077E-3,1.7762342E-1,-2.9565352E-1,-6.493084E-2,-4.640328E-2,-2.1420698E-1,-4.9858198E-2,1.7184061E-1,8.675273E-2,4.1546512E-1,-2.5592148E-1,-6.2943455E-3,1.8774639E-3,-3.0412853E-3,-6.806144E-2,1.5466577E-1,-4.2896727E-3,-2.1252688E-3,-1.024061E-1,7.330915E-2,3.077022E-1,8.06271E-2,9.545176E-3,5.3283446E-2,7.9267705E-3,3.28025E-1,-3.4024436E-3,-4.5667635E-3,-5.6868937E-2,1.6962993E-1,-9.941711E-2,7.006263E-2,1.6694925E-3,2.5625317E-3,-2.280709E-3,8.0582325E-4,-2.2664042E-4,2.1891515E-3,5.185992E-3,3.2756857E-3,4.708801E-4,2.220973E-3,2.8426114E-3,4.6817757E-5,5.4018996E-3,3.3059428E-3,-3.0867755E-4,-1.7387889E-3,3.2654663E-3,1.6524949E-3,-1.738778E-3,9.850578E-4,2.105413E-3,-4.496736E-4],"categories":[],"categories_nodes":[],"categories_segments":[],"categories_sizes":[],"default_left":[0,0,0,0,0,0,0,0,0,0,0,0,0,0,0,0,0,0,0,0,0,0,0,0,0,0,0,0,0,0,0,0,0,0,0,0,0,0,0,0,0,0,0,0,0,0,0,0,0,0,0,0,0,0,0,0,0,0,0,0,0],"id":9,"left_children":[1,3,5,7,9,-1,11,13,15,17,19,21,23,25,27,29,31,33,-1,35,-1,37,39,-1,-1,41,43,45,47,-1,49,-1,51,-1,-1,53,55,57,59,-1,-1,-1,-1,-1,-1,-1,-1,-1,-1,-1,-1,-1,-1,-1,-1,-1,-1,-1,-1,-1,-1],"loss_changes":[1.2539209E2,1.8925667E2,4.2286926E1,1.5312445E2,5.592775E1,0E0,3.6112915E1,1.0288562E2,2.045947E2,7.056595E0,3.997925E1,5.008975E1,7.1668243E0,5.531415E1,3.385721E1,1.2820135E2,2.5394989E1,1.5441132E0,0E0,2.9717352E1,0E0,4.5036125E1,5.823879E-1,0E0,0E0,4.6780094E1,1.7298252E1,3.2603226E0,5.5463924E0,0E0,4.448075E1,0E0,4.603195E0,0E0,0E0,4.388259E0,1.9961281E0,2.34114E1,1.4489465E1,0E0,0E0,0E0,0E0,0E0,0E0,0E0,0E0,0E0,0E0,0E0,0E0,0E0,0E0,0E0,0E0,0E0,0E0,0E0,0E0,0E0,0E0],"parents":[2147483647,0,0,1,1,2,2,3,3,4,4,6,6,7,7,8,8,9,9,10,10,11,11,12,12,13,13,14,14,15,15,16,16,17,17,19,19,21,21,22,22,25,25,26,26,27,27,28,28,30,30,32,32,35,35,36,36,37,37,38,38],"right_children":[2,4,6,8,10,-1,12,14,16,18,20,22,24,26,28,30,32,34,-1,36,-1,38,40,-1,-1,42,44,46,48,-1,50,-1,52,-1,-1,54,56,58,60,-1,-1,-1,-1,-1,-1,-1,-1,-1,-1,-1,-1,-1,-1,-1,-1,-1,-1,-1,-1,-1,-1],"split_conditions":[5.7E1,1E0,2.45E1,5.19E1,3.38E1,-4.6854117E-3,7.42E1,5.45E1,1E0,1E0,2E0,7.42E1,7.79E1,5.44E1,3.5E1,3.66E1,5.46E1,4.19E1,-6.2943455E-3,5.3E1,-3.0412853E-3,2E0,4.25E1,-4.2896727E-3,-2.1252688E-3,1E0,4.54E1,1E0,1E0,9.545176E-3,1E0,7.9267705E-3,7.05E1,-3.4024436E-3,-4.5667635E-3,4.52E1,3.92E1,7.9E1,1E0,1.6694925E-3,2.5625317E-3,-2.280709E-3,8.0582325E-4,-2.2664042E-4,2.1891515E-3,5.185992E-3,3.2756857E-3,4.708801E-4,2.220973E-3,2.8426114E-3,4.6817757E-5,5.4018996E-3,3.3059428E-3,-3.0867755E-4,-1.7387889E-3,3.2654663E-3,1.6524949E-3,-1.738778E-3,9.850578E-4,2.105413E-3,-4.496736E-4],"split_indices":[44,38,0,8,8,0,40,28,37,6,45,24,8,24,40,0,16,0,0,36,0,35,0,0,0,22,20,2,22,0,43,0,0,0,0,36,0,44,5,0,0,0,0,0,0,0,0,0,0,0,0,0,0,0,0,0,0,0,0,0,0],"split_type":[0,0,0,0,0,0,0,0,0,0,0,0,0,0,0,0,0,0,0,0,0,0,0,0,0,0,0,0,0,0,0,0,0,0,0,0,0,0,0,0,0,0,0,0,0,0,0,0,0,0,0,0,0,0,0,0,0,0,0,0,0],"sum_hessian":[3.921674E4,2.593958E4,1.3277159E4,2.0475438E4,5.464141E3,6.948384E2,1.2582321E4,1.1042421E4,9.433018E3,1.375072E3,4.0890693E3,1.1193354E4,1.3889673E3,8.327344E3,2.7150776E3,6.8415107E3,2.5915063E3,1.0730984E3,3.0197372E2,2.7283848E3,1.3606846E3,1.012795E4,1.0654038E3,6.648295E2,7.2413776E2,5.865613E3,2.4617307E3,1.0676434E3,1.6474341E3,3.8370267E2,6.457808E3,1.1075668E3,1.4839397E3,7.3396796E2,3.391304E2,1.9991453E3,7.292394E2,8.2838955E3,1.844055E3,3.71694E2,6.937098E2,4.4790205E3,1.3865924E3,1.0779192E3,1.3838116E3,7.11134E2,3.5650946E2,9.943848E2,6.530493E2,1.712987E3,4.7448213E3,1.1102957E3,3.736441E2,1.2898622E3,7.09283E2,3.5685016E2,3.7238922E2,7.5653594E3,7.185357E2,1.1132494E3,7.308057E2],"tree_param":{"num_deleted":"0","num_feature":"48","num_nodes":"61","size_leaf_vector":"1"}},{"base_weights":[7.800748E-4,-9.406879E-3,3.5066336E-1,-3.4728408E-2,1.0972588E-1,5.008454E-1,6.0595798E-5,-4.111007E-2,7.708451E-3,2.2478406E-1,5.38984E-4,9.384057E-3,5.437491E-3,-7.624852E-2,5.499578E-2,1.2258835E-1,4.240852E-1,-7.0990235E-2,2.7395517E-1,-8.411879E-2,5.6279493E-3,2.727157E-2,3.1311876E-1,1.756747E-1,1.0061276E-2,5.455009E-3,7.7680065E-3,-2.8648982E-3,-5.0384976E-2,2.4485674E-3,5.3654793E-3,4.7214334E-3,-1.3657666E-3,9.189369E-4,-2.846537E-3,1.6468186E-3,7.5306506E-3,1.7723561E-3,3.3477403E-3,-3.6589985E-4,9.0575195E-4,-1.2705356E-3,-5.0354714E-4],"categories":[],"categories_nodes":[],"categories_segments":[],"categories_sizes":[],"default_left":[0,0,0,0,0,0,0,0,0,0,0,0,0,0,0,0,0,0,0,0,0,0,0,0,0,0,0,0,0,0,0,0,0,0,0,0,0,0,0,0,0,0,0],"id":10,"left_children":[1,3,5,7,9,11,-1,13,-1,15,17,-1,-1,19,21,23,25,27,29,31,-1,33,35,37,39,-1,-1,-1,41,-1,-1,-1,-1,-1,-1,-1,-1,-1,-1,-1,-1,-1,-1],"loss_changes":[1.450336E2,1.1585692E2,5.747853E1,1.1279236E2,8.345878E1,1.3003799E1,0E0,1.0600136E2,0E0,6.583934E1,7.1573875E1,0E0,0E0,8.333301E1,6.044143E1,1.2489136E1,6.047867E0,7.16119E0,6.5090027E0,6.2916733E1,0E0,5.673418E1,2.9975403E1,3.7986412E0,2.1677341E0,0E0,0E0,0E0,1.4363222E0,0E0,0E0,0E0,0E0,0E0,0E0,0E0,0E0,0E0,0E0,0E0,0E0,0E0,0E0],"parents":[2147483647,0,0,1,1,2,2,3,3,4,4,5,5,7,7,9,9,10,10,13,13,14,14,15,15,16,16,17,17,18,18,19,19,21,21,22,22,23,23,24,24,28,28],"right_children":[2,4,6,8,10,12,-1,14,-1,16,18,-1,-1,20,22,24,26,28,30,32,-1,34,36,38,40,-1,-1,-1,42,-1,-1,-1,-1,-1,-1,-1,-1,-1,-1,-1,-1,-1,-1],"split_conditions":[2E0,2E0,4.47E1,8E0,5.33E1,3.66E1,6.0595798E-5,6.11E1,7.708451E-3,4.32E1,1E0,9.384057E-3,5.437491E-3,3E0,2E0,4.88E1,6.53E1,4.91E1,6.64E1,1.55E1,5.6279493E-3,5.96E1,6.26E1,4.05E1,3.6E1,5.455009E-3,7.7680065E-3,-2.8648982E-3,1E0,2.4485674E-3,5.3654793E-3,4.7214334E-3,-1.3657666E-3,9.189369E-4,-2.846537E-3,1.6468186E-3,7.5306506E-3,1.7723561E-3,3.3477403E-3,-3.6589985E-4,9.0575195E-4,-1.2705356E-3,-5.0354714E-4],"split_indices":[34,9,0,47,40,0,0,32,0,0,22,0,0,11,13,24,0,0,0,0,0,36,0,8,0,0,0,0,47,0,0,0,0,0,0,0,0,0,0,0,0,0,0],"split_type":[0,0,0,0,0,0,0,0,0,0,0,0,0,0,0,0,0,0,0,0,0,0,0,0,0,0,0,0,0,0,0,0,0,0,0,0,0,0,0,0,0,0,0],"sum_hessian":[3.920257E4,3.8080527E4,1.1220428E3,3.144055E4,6.639974E3,7.7248395E2,3.4955896E2,3.10885E4,3.5205142E2,3.210249E3,3.4297249E3,3.8738266E2,3.8510126E2,2.2803326E4,8.285174E3,2.139751E3,1.070498E3,2.7046155E3,7.2510925E2,2.2423844E4,3.7948236E2,7.5000884E3,7.8508545E2,1.423295E3,7.16456E2,6.8234186E2,3.881562E2,3.6026404E2,2.3443516E3,3.3784003E2,3.8726926E2,3.634038E2,2.206044E4,6.506256E3,9.938325E2,3.9076724E2,3.943182E2,6.897146E2,7.335805E2,3.6640134E2,3.5005463E2,6.749589E2,1.6693926E3],"tree_param":{"num_deleted":"0","num_feature":"48","num_nodes":"43","size_leaf_vector":"1"}},{"base_weights":[-0E0,4.0538117E-2,-8.176237E-2,-1.8142419E-1,6.636832E-2,1.1142768E-2,-1.24556854E-1,-3.033399E-1,-6.283018E-2,1.2672639E-1,-1.9597001E-2,-7.789287E-2,1.0234174E-1,-1.6846433E-1,-5.77992E-4,-1.1475476E-3,-3.783542E-1,-3.6735511E-3,-0E0,4.4274196E-1,9.835981E-2,-5.545533E-2,2.626499E-1,1.6564322E-3,-1.20363936E-1,1.5967274E-1,-2.5523277E-5,-4.6739653E-3,-1.5001626E-1,-7.243483E-2,9.050268E-2,-6.334665E-3,-5.159241E-3,1.8749374E-4,-3.9854608E-4,9.237381E-3,5.0569912E-3,6.787148E-2,4.1479257E-1,-8.237721E-2,1.22165665E-1,2.0400368E-1,5.29703E-3,-2.948356E-3,-6.7878045E-2,1.6469058E-3,2.588527E-3,-1.9051278E-1,-1.0532736E-1,-1.6775298E-3,-4.071593E-4,1.7856044E-3,5.9592E-5,7.8273565E-4,7.61445E-3,7.645193E-3,3.2606781E-3,-4.4590828E-4,-2.104074E-3,9.0553565E-4,2.2250281E-3,3.5000513E-3,2.440357E-3,-4.2865204E-4,-1.9909302E-3,-4.247742E-3,-2.4127176E-3,-2.192494E-3,-4.36238E-4],"categories":[],"categories_nodes":[],"categories_segments":[],"categories_sizes":[],"default_left":[0,0,0,0,0,0,0,0,0,0,0,0,0,0,0,0,0,0,0,0,0,0,0,0,0,0,0,0,0,0,0,0,0,0,0,0,0,0,0,0,0,0,0,0,0,0,0,0,0,0,0,0,0,0,0,0,0,0,0,0,0,0,0,0,0,0,0,0,0],"id":11,"left_children":[1,3,5,7,9,11,13,15,17,19,21,23,25,27,29,-1,31,-1,33,35,37,39,41,-1,43,45,-1,-1,47,49,51,-1,-1,-1,-1,-1,-1,53,55,57,59,61,-1,-1,63,-1,-1,65,67,-1,-1,-1,-1,-1,-1,-1,-1,-1,-1,-1,-1,-1,-1,-1,-1,-1,-1,-1,-1],"loss_changes":[1.3197916E2,1.5242561E2,5.314627E1,3.938233E1,1.2378909E2,3.5045986E1,4.8580826E1,2.1719566E1,1.7517895E1,1.2599051E2,1.001515E2,1.7920105E1,1.3605188E1,1.7987946E1,1.7142742E1,0E0,1.375412E0,0E0,7.560213E-1,2.076912E1,1.24601E2,4.2543106E1,5.77417E0,0E0,6.8343334E0,6.503296E-1,0E0,0E0,1.0619431E1,2.3927069E0,2.215599E0,0E0,0E0,0E0,0E0,0E0,0E0,8.2806274E1,1.9995438E1,2.286559E1,1.5964394E0,7.2927666E-1,0E0,0E0,2.7664251E0,0E0,0E0,8.624451E0,8.686661E0,0E0,0E0,0E0,0E0,0E0,0E0,0E0,0E0,0E0,0E0,0E0,0E0,0E0,0E0,0E0,0E0,0E0,0E0,0E0,0E0],"parents":[2147483647,0,0,1,1,2,2,3,3,4,4,5,5,6,6,7,7,8,8,9,9,10,10,11,11,12,12,13,13,14,14,16,16,18,18,19,19,20,20,21,21,22,22,24,24,25,25,28,28,29,29,30,30,37,37,38,38,39,39,40,40,41,41,44,44,47,47,48,48],"right_children":[2,4,6,8,10,12,14,16,18,20,22,24,26,28,30,-1,32,-1,34,36,38,40,42,-1,44,46,-1,-1,48,50,52,-1,-1,-1,-1,-1,-1,54,56,58,60,62,-1,-1,64,-1,-1,66,68,-1,-1,-1,-1,-1,-1,-1,-1,-1,-1,-1,-1,-1,-1,-1,-1,-1,-1,-1,-1],"split_conditions":[5.7E1,2.39E1,5.4E1,1E0,1E0,1E0,7.09E1,2.12E1,1.99E1,2.45E1,2E0,4.25E1,6E1,2.45E1,7.9E1,-1.1475476E-3,3.88E1,-3.6735511E-3,6.34E1,3.87E1,7.46E1,7.03E1,5.35E1,1.6564322E-3,4.91E1,3.87E1,-2.5523277E-5,-4.6739653E-3,1E0,1E0,1E0,-6.334665E-3,-5.159241E-3,1.8749374E-4,-3.9854608E-4,9.237381E-3,5.0569912E-3,8E0,7.55E1,4.34E1,4.37E1,2.85E1,5.29703E-3,-2.948356E-3,5.73E1,1.6469058E-3,2.588527E-3,6.08E1,5.47E1,-1.6775298E-3,-4.071593E-4,1.7856044E-3,5.9592E-5,7.8273565E-4,7.61445E-3,7.645193E-3,3.2606781E-3,-4.4590828E-4,-2.104074E-3,9.0553565E-4,2.2250281E-3,3.5000513E-3,2.440357E-3,-4.2865204E-4,-1.9909302E-3,-4.247742E-3,-2.4127176E-3,-2.192494E-3,-4.36238E-4],"split_indices":[44,4,4,35,46,25,36,4,0,16,15,0,36,0,44,0,0,0,0,4,0,40,0,0,0,0,0,0,42,19,7,0,0,0,0,0,0,47,0,4,0,0,0,0,0,0,0,4,40,0,0,0,0,0,0,0,0,0,0,0,0,0,0,0,0,0,0,0,0],"split_type":[0,0,0,0,0,0,0,0,0,0,0,0,0,0,0,0,0,0,0,0,0,0,0,0,0,0,0,0,0,0,0,0,0,0,0,0,0,0,0,0,0,0,0,0,0,0,0,0,0,0,0,0,0,0,0,0,0,0,0,0,0,0,0,0,0,0,0,0,0],"sum_hessian":[3.9409332E4,2.6321623E4,1.308771E4,2.722993E3,2.3598629E4,4.0907507E3,8.996959E3,1.3211355E3,1.4018574E3,1.3898141E4,9.700489E3,2.0422579E3,2.0484927E3,6.613928E3,2.3830308E3,3.4526392E2,9.7587164E2,3.5410748E2,1.04775E3,1.1290604E3,1.276908E4,8.623435E3,1.0770541E3,3.5410184E2,1.6881561E3,1.3513593E3,6.9713354E2,7.243366E2,5.889592E3,1.3628948E3,1.0201359E3,3.662627E2,6.0960895E2,6.796499E2,3.681001E2,4.105868E2,7.184737E2,1.166242E4,1.1066598E3,7.513331E3,1.1101039E3,6.8770135E2,3.8935266E2,6.4999335E2,1.0381628E3,3.544733E2,9.968859E2,3.0293167E3,2.8602751E3,6.705811E2,6.923137E2,7.244705E2,2.9566537E2,1.12703E4,3.921205E2,7.314338E2,3.75226E2,3.9730776E3,3.5402534E3,3.8597876E2,7.241251E2,3.3137222E2,3.5632916E2,6.9443317E2,3.437296E2,6.9823145E2,2.3310852E3,1.822877E3,1.0373983E3],"tree_param":{"num_deleted":"0","num_feature":"48","num_nodes":"69","size_leaf_vector":"1"}},{"base_weights":[2.0994772E-3,-8.054616E-3,3.475428E-1,-1.371063E-2,7.3147807E-3,4.945524E-1,5.4275042E-5,-3.9770935E-2,1.02873735E-1,5.3473716E-3,9.084229E-3,-1.207267E-1,-1.0221954E-2,2.2036864E-1,-5.119036E-4,-4.6350583E-2,-1.9358537E-1,1.4123558E-2,-1.5246922E-1,3.6531913E-1,1.0038855E-1,-3.9785847E-2,5.208268E-3,-3.3191924E-3,7.149273E-5,-5.961297E-3,-2.377138E-3,-7.821993E-4,9.905202E-4,-1.4701885E-3,-3.5933424E-3,7.525241E-3,4.6933526E-3,2.042581E-3,-3.6015507E-4,-1.01641E-3,2.4241966E-3],"categories":[],"categories_nodes":[],"categories_segments":[],"categories_sizes":[],"default_left":[0,0,0,0,0,0,0,0,0,0,0,0,0,0,0,0,0,0,0,0,0,0,0,0,0,0,0,0,0,0,0,0,0,0,0,0,0],"id":12,"left_children":[1,3,5,7,-1,9,-1,11,13,-1,-1,15,17,19,21,23,25,27,29,31,33,35,-1,-1,-1,-1,-1,-1,-1,-1,-1,-1,-1,-1,-1,-1,-1],"loss_changes":[1.4284152E2,1.0923177E2,5.6365036E1,1.15450516E2,0E0,1.1622284E1,0E0,7.400563E1,8.54722E1,0E0,0E0,4.441095E1,8.063495E1,5.6230988E1,5.1726456E1,3.9398426E1,3.0276154E1,6.7299706E1,1.5944092E1,1.0604889E1,9.06669E0,1.9759682E1,0E0,0E0,0E0,0E0,0E0,0E0,0E0,0E0,0E0,0E0,0E0,0E0,0E0,0E0,0E0],"parents":[2147483647,0,0,1,1,2,2,3,3,5,5,7,7,8,8,11,11,12,12,13,13,14,14,15,15,16,16,17,17,18,18,19,19,20,20,21,21],"right_children":[2,4,6,8,-1,10,-1,12,14,-1,-1,16,18,20,22,24,26,28,30,32,34,36,-1,-1,-1,-1,-1,-1,-1,-1,-1,-1,-1,-1,-1,-1,-1],"split_conditions":[2E0,4E0,1E0,2E0,7.3147807E-3,2.54E1,5.4275042E-5,3.88E1,5.33E1,5.3473716E-3,9.084229E-3,2.75E1,6.35E1,4.51E1,4E0,2.17E1,2.39E1,5.05E1,2E0,2.98E1,1E0,3E0,5.208268E-3,-3.3191924E-3,7.149273E-5,-5.961297E-3,-2.377138E-3,-7.821993E-4,9.905202E-4,-1.4701885E-3,-3.5933424E-3,7.525241E-3,4.6933526E-3,2.042581E-3,-3.6015507E-4,-1.01641E-3,2.4241966E-3],"split_indices":[34,31,1,9,0,4,0,36,40,0,0,36,28,12,9,4,4,24,21,4,1,1,0,0,0,0,0,0,0,0,0,0,0,0,0,0,0],"split_type":[0,0,0,0,0,0,0,0,0,0,0,0,0,0,0,0,0,0,0,0,0,0,0,0,0,0,0,0,0,0,0,0,0,0,0,0,0],"sum_hessian":[3.9229188E4,3.8095883E4,1.1333025E3,3.7676473E4,4.1941214E2,7.834486E2,3.4985385E2,3.0828803E4,6.8476694E3,3.6905154E2,4.143971E2,8.197553E3,2.263125E4,3.227236E3,3.620433E3,4.0913025E3,4.1062505E3,1.9294723E4,3.3365269E3,1.4417314E3,1.7855048E3,3.2662908E3,3.5414236E2,9.477666E2,3.143536E3,5.8557806E2,3.5206726E3,8.429584E3,1.086514E4,2.0844634E3,1.2520636E3,3.7541446E2,1.066317E3,1.4194008E3,3.6610403E2,2.8911394E3,3.751513E2],"tree_param":{"num_deleted":"0","num_feature":"48","num_nodes":"37","size_leaf_vector":"1"}},{"base_weights":[-7.69064E-4,3.821599E-2,-7.950913E-2,7.9850756E-2,-1.1873938E-1,4.9374096E-2,-1.0366017E-1,5.0278446E-3,1.6503312E-1,-1.623033E-1,1.6506694E-1,1.5244216E-1,-5.18434E-2,-1.2724276E-1,1.420029E-2,-5.126905E-2,1.6390736E-1,8.2688496E-2,3.9750487E-1,-3.2938927E-1,-1.1880489E-1,3.1369515E-3,1.5962946E-3,1.6210589E-3,2.502845E-3,-3.0507292E-5,-1.9950331E-3,-1.5780345E-1,7.160553E-3,1.7617824E-3,-4.7337096E-2,-7.1121104E-2,2.1994775E-3,4.9570547E-3,1.07394196E-1,8.934981E-3,5.0331373E-2,3.0112353E-1,4.6487778E-1,-4.183698E-3,-6.285367E-3,-1.8221517E-5,-1.440892E-1,-1.7226927E-1,1.6237048E-3,2.4438547E-3,-4.6175142E-4,-0E0,-1.9974653E-3,-1.301715E-3,3.4628613E-3,8.6299883E-4,2.926174E-3,1.6399033E-5,2.6784923E-3,5.0745513E-3,3.2049592E-3,7.5048427E-3,5.142648E-3,-2.6401735E-3,-4.5985213E-4,-3.2343708E-3,-2.0886871E-3],"categories":[],"categories_nodes":[],"categories_segments":[],"categories_sizes":[],"default_left":[0,0,0,0,0,0,0,0,0,0,0,0,0,0,0,0,0,0,0,0,0,0,0,0,0,0,0,0,0,0,0,0,0,0,0,0,0,0,0,0,0,0,0,0,0,0,0,0,0,0,0,0,0,0,0,0,0,0,0,0,0,0,0],"id":13,"left_children":[1,3,5,7,9,11,13,15,17,19,21,23,25,27,29,31,33,35,37,39,41,-1,-1,-1,-1,-1,-1,43,45,-1,47,49,-1,-1,51,-1,53,55,57,-1,-1,-1,59,61,-1,-1,-1,-1,-1,-1,-1,-1,-1,-1,-1,-1,-1,-1,-1,-1,-1,-1,-1],"loss_changes":[1.2276634E2,1.7398322E2,4.1905624E1,1.3323674E2,7.024188E1,2.3356018E1,3.178994E1,1.02465996E2,1.8717825E2,3.542035E1,1.7520905E0,4.8443222E-1,4.2138963E0,3.9259842E1,1.3378525E1,3.3539543E1,2.813279E1,1.2184619E2,1.6154053E1,4.4495697E0,1.09226E1,0E0,0E0,0E0,0E0,0E0,0E0,3.0772491E1,1.2491704E1,0E0,4.7698183E0,3.6864357E1,0E0,0E0,9.864878E0,0E0,4.319384E1,3.1351624E0,5.5943604E0,0E0,0E0,0E0,1.0786598E1,1.0344742E1,0E0,0E0,0E0,0E0,0E0,0E0,0E0,0E0,0E0,0E0,0E0,0E0,0E0,0E0,0E0,0E0,0E0,0E0,0E0],"parents":[2147483647,0,0,1,1,2,2,3,3,4,4,5,5,6,6,7,7,8,8,9,9,10,10,11,11,12,12,13,13,14,14,15,15,16,16,17,17,18,18,19,19,20,20,27,27,28,28,30,30,31,31,34,34,36,36,37,37,38,38,42,42,43,43],"right_children":[2,4,6,8,10,12,14,16,18,20,22,24,26,28,30,32,34,36,38,40,42,-1,-1,-1,-1,-1,-1,44,46,-1,48,50,-1,-1,52,-1,54,56,58,-1,-1,-1,60,62,-1,-1,-1,-1,-1,-1,-1,-1,-1,-1,-1,-1,-1,-1,-1,-1,-1,-1,-1],"split_conditions":[5.7E1,1E0,4.3E1,5.19E1,6.22E1,1E0,7.85E1,5.45E1,1E0,3.25E1,1E0,1E0,1E0,2E0,5.85E1,2E0,1E0,5.26E1,3.83E1,1E0,3.22E1,3.1369515E-3,1.5962946E-3,1.6210589E-3,2.502845E-3,-3.0507292E-5,-1.9950331E-3,2E0,5.03E1,1.7617824E-3,5.08E1,6.15E1,2.1994775E-3,4.9570547E-3,5.39E1,8.934981E-3,2E0,6.42E1,3E0,-4.183698E-3,-6.285367E-3,-1.8221517E-5,2E0,1E0,1.6237048E-3,2.4438547E-3,-4.6175142E-4,-0E0,-1.9974653E-3,-1.301715E-3,3.4628613E-3,8.6299883E-4,2.926174E-3,1.6399033E-5,2.6784923E-3,5.0745513E-3,3.2049592E-3,7.5048427E-3,5.142648E-3,-2.6401735E-3,-4.5985213E-4,-3.2343708E-3,-2.0886871E-3],"split_indices":[44,38,12,8,32,41,44,28,37,8,1,1,1,37,12,7,21,8,44,6,44,0,0,0,0,0,0,11,8,0,8,12,0,0,12,0,27,8,9,0,0,0,25,27,0,0,0,0,0,0,0,0,0,0,0,0,0,0,0,0,0,0,0],"split_type":[0,0,0,0,0,0,0,0,0,0,0,0,0,0,0,0,0,0,0,0,0,0,0,0,0,0,0,0,0,0,0,0,0,0,0,0,0,0,0,0,0,0,0,0,0,0,0,0,0,0,0,0,0,0,0,0,0,0,0,0,0,0,0],"sum_hessian":[3.954288E4,2.6405998E4,1.3136881E4,2.0895502E4,5.510497E3,2.0403545E3,1.1096526E4,1.1155998E4,9.739504E3,4.7928467E3,7.176503E2,1.0351605E3,1.0051939E3,9.281702E3,1.8148237E3,8.214503E3,2.9414954E3,7.208884E3,2.53062E3,9.649117E2,3.827935E3,3.611903E2,3.5646002E2,3.3728842E2,6.9787213E2,6.6120544E2,3.4398846E2,7.5923726E3,1.6893298E3,7.0842566E2,1.1063981E3,7.488459E3,7.2604333E2,7.230548E2,2.2184407E3,4.1817868E2,6.790705E3,1.0739493E3,1.4566708E3,6.5245953E2,3.1245212E2,7.125979E2,3.1153372E3,7.2188E3,3.7357275E2,3.5620297E2,1.3331268E3,7.4575476E2,3.6064334E2,7.138076E3,3.5038275E2,1.4492567E3,7.6918396E2,4.932916E3,1.8577891E3,7.150688E2,3.5888055E2,1.1006791E3,3.5599164E2,2.4006357E3,7.147015E2,3.0761655E3,4.1426343E3],"tree_param":{"num_deleted":"0","num_feature":"48","num_nodes":"63","size_leaf_vector":"1"}},{"base_weights":[1.1539082E-3,-8.6646E-3,3.4935558E-1,-1.4075406E-2,7.374162E-3,4.8320472E-1,3.9799277E-5,-1.9240487E-2,7.078696E-3,5.203645E-3,8.7894965E-3,-1.84904E-1,-6.2969085E-3,-3.4212336E-1,-1.8919533E-2,7.28115E-2,-4.6338946E-2,-4.2114495E-3,-5.99826E-3,-8.3820877E-4,1.8086002E-4,1.00955685E-5,2.9375711E-3,2.9314694E-3,-8.9448015E-4],"categories":[],"categories_nodes":[],"categories_segments":[],"categories_sizes":[],"default_left":[0,0,0,0,0,0,0,0,0,0,0,0,0,0,0,0,0,0,0,0,0,0,0,0,0],"id":14,"left_children":[1,3,5,7,-1,9,-1,11,-1,-1,-1,13,15,17,19,21,23,-1,-1,-1,-1,-1,-1,-1,-1],"loss_changes":[1.3962346E2,1.0586243E2,4.9595276E1,9.728665E1,0E0,1.0459778E1,0E0,8.100249E1,0E0,0E0,0E0,6.99866E1,1.1103688E2,4.6789246E0,2.2183173E0,1.0326048E2,7.512442E1,0E0,0E0,0E0,0E0,0E0,0E0,0E0,0E0],"parents":[2147483647,0,0,1,1,2,2,3,3,5,5,7,7,11,11,12,12,13,13,14,14,15,15,16,16],"right_children":[2,4,6,8,-1,10,-1,12,-1,-1,-1,14,16,18,20,22,24,-1,-1,-1,-1,-1,-1,-1,-1],"split_conditions":[2E0,8E0,1E0,4E0,7.374162E-3,2.54E1,3.9799277E-5,2.39E1,7.078696E-3,5.203645E-3,8.7894965E-3,5.32E1,4.16E1,2.17E1,2.7E1,3.79E1,2.45E1,-4.2114495E-3,-5.99826E-3,-8.3820877E-4,1.8086002E-4,1.00955685E-5,2.9375711E-3,2.9314694E-3,-8.9448015E-4],"split_indices":[34,47,1,31,0,4,0,4,0,0,0,24,44,4,20,44,16,0,0,0,0,0,0,0,0],"split_type":[0,0,0,0,0,0,0,0,0,0,0,0,0,0,0,0,0,0,0,0,0,0,0,0,0],"sum_hessian":[3.929568E4,3.8204996E4,1.0906798E3,3.7806508E4,3.984887E2,7.7620386E2,3.1447595E2,3.741953E4,3.8697632E2,3.54272E2,4.2193185E2,2.6828203E3,3.473671E4,1.3617733E3,1.3210471E3,1.16314795E4,2.3105232E4,6.996679E2,6.621054E2,6.761956E2,6.4485144E2,7.352328E3,4.279152E3,1.1779039E3,2.1927328E4],"tree_param":{"num_deleted":"0","num_feature":"48","num_nodes":"25","size_leaf_vector":"1"}},{"base_weights":[1.2173055E-3,-8.806385E-3,3.3567992E-1,-3.361546E-2,1.0833272E-1,4.707826E-1,6.332808E-5,-3.9641418E-2,6.965358E-3,2.1886484E-1,3.7562102E-3,8.647636E-3,5.159511E-3,-2.0344037E-1,-2.6586322E-2,1.1705485E-1,3.9819717E-1,-6.717739E-2,2.5690666E-1,-7.289316E-2,-3.69958E-1,1.8974751E-2,-7.6766476E-2,7.6130913E-3,1.7075706E-1,5.2407123E-3,7.259104E-3,-2.8088293E-3,-4.7676533E-2,2.3828037E-3,5.062728E-3,-3.5913251E-3,-2.1859031E-4,-5.967693E-3,-4.500239E-3,-4.0135026E-4,1.8329005E-3,-4.2883417E-5,-1.9152589E-3,-3.573642E-4,8.808402E-4,1.7058813E-3,3.2179456E-3,-4.814534E-4,-1.2291006E-3],"categories":[],"categories_nodes":[],"categories_segments":[],"categories_sizes":[],"default_left":[0,0,0,0,0,0,0,0,0,0,0,0,0,0,0,0,0,0,0,0,0,0,0,0,0,0,0,0,0,0,0,0,0,0,0,0,0,0,0,0,0,0,0,0,0],"id":15,"left_children":[1,3,5,7,9,11,-1,13,-1,15,17,-1,-1,19,21,23,25,27,29,31,33,35,37,39,41,-1,-1,-1,43,-1,-1,-1,-1,-1,-1,-1,-1,-1,-1,-1,-1,-1,-1,-1,-1],"loss_changes":[1.3816446E2,1.1293623E2,5.139711E1,9.799179E1,7.746599E1,1.0645401E1,0E0,6.80276E1,0E0,5.9379974E1,6.641894E1,0E0,0E0,5.0022446E1,6.76704E1,1.1955488E1,4.84523E0,6.7853413E0,5.9543304E0,1.3179099E1,1.5715485E0,7.352126E1,5.2135353E1,2.072723E0,3.3028069E0,0E0,0E0,0E0,1.3457131E0,0E0,0E0,0E0,0E0,0E0,0E0,0E0,0E0,0E0,0E0,0E0,0E0,0E0,0E0,0E0,0E0],"parents":[2147483647,0,0,1,1,2,2,3,3,4,4,5,5,7,7,9,9,10,10,13,13,14,14,15,15,16,16,17,17,18,18,19,19,20,20,21,21,22,22,23,23,24,24,28,28],"right_children":[2,4,6,8,10,12,-1,14,-1,16,18,-1,-1,20,22,24,26,28,30,32,34,36,38,40,42,-1,-1,-1,44,-1,-1,-1,-1,-1,-1,-1,-1,-1,-1,-1,-1,-1,-1,-1,-1],"split_conditions":[2E0,2E0,4.47E1,4E0,5.33E1,3.66E1,6.332808E-5,2.39E1,6.965358E-3,4.32E1,1E0,8.647636E-3,5.159511E-3,2.23E1,5.26E1,4.01E1,6.53E1,4.91E1,6.64E1,1.99E1,4.27E1,4.68E1,1E0,3.6E1,4.05E1,5.2407123E-3,7.259104E-3,-2.8088293E-3,2E0,2.3828037E-3,5.062728E-3,-3.5913251E-3,-2.1859031E-4,-5.967693E-3,-4.500239E-3,-4.0135026E-4,1.8329005E-3,-4.2883417E-5,-1.9152589E-3,-3.573642E-4,8.808402E-4,1.7058813E-3,3.2179456E-3,-4.814534E-4,-1.2291006E-3],"split_indices":[34,9,0,31,40,0,0,4,0,0,22,0,0,12,4,4,0,0,0,0,0,4,43,0,8,0,0,0,23,0,0,0,0,0,0,0,0,0,0,0,0,0,0,0,0],"split_type":[0,0,0,0,0,0,0,0,0,0,0,0,0,0,0,0,0,0,0,0,0,0,0,0,0,0,0,0,0,0,0,0,0,0,0,0,0,0,0,0,0,0,0,0,0],"sum_hessian":[3.9698465E4,3.852977E4,1.1686952E3,3.1831521E4,6.6982495E3,8.192635E2,3.4943164E2,3.1461281E4,3.7023904E2,3.2326238E3,3.4656255E3,4.256568E2,3.9360672E2,2.2930754E3,2.9168207E4,2.0808335E3,1.1517903E3,2.6922356E3,7.7338995E2,1.3030049E3,9.900707E2,1.5235822E4,1.3932384E4,7.1597296E2,1.3648606E3,7.695696E2,3.8222076E2,3.3975818E2,2.3524775E3,3.7673334E2,3.9665662E2,3.1549063E2,9.875142E2,6.585869E2,3.3148376E2,1.0522199E4,4.713623E3,5.711625E3,8.22076E3,3.8288046E2,3.3309247E2,6.406393E2,7.2422125E2,1.7157684E3,6.36709E2],"tree_param":{"num_deleted":"0","num_feature":"48","num_nodes":"45","size_leaf_vector":"1"}},{"base_weights":[8.517361E-4,4.1063383E-2,-7.979105E-2,-9.6163094E-2,8.5100524E-2,5.2997727E-2,-1.0533499E-1,-3.280241E-1,-5.4090332E-2,2.8067207E-2,2.0685464E-1,-4.6603035E-2,1.525227E-1,-4.6364525E-3,-9.0553395E-2,-4.165838E-3,-6.263815E-3,4.442604E-3,-7.556543E-2,2.907586E-1,3.4687612E-3,2.732666E-1,2.4968013E-2,-3.3968616E-5,-1.9541406E-3,1.5853537E-3,2.4941214E-3,-7.377933E-2,-2.3748721E-1,-1.13194734E-1,1.7960104E-1,1.1631501E-1,8.509271E-3,-5.8594197E-2,1.0159435E-1,-0E0,3.540777E-1,-6.8903685E-2,1.6512029E-1,-1.0649519E-1,6.6477455E-2,-1.9486828E-3,-4.2189616E-3,-2.2942864E-3,2.3217764E-4,3.3619008E-3,1.6918537E-3,1.0643725E-4,3.1099503E-3,-4.716392E-4,-2.6192605E-3,3.3684985E-3,3.9561815E-5,6.1793206E-4,-1.1044451E-3,6.3427864E-3,3.9237114E-3,-1.3869256E-5,-2.7962886E-3,3.049392E-3,1.5616182E-3,-1.943151E-3,4.3150102E-4,2.0398973E-3,-4.1630256E-4],"categories":[],"categories_nodes":[],"categories_segments":[],"categories_sizes":[],"default_left":[0,0,0,0,0,0,0,0,0,0,0,0,0,0,0,0,0,0,0,0,0,0,0,0,0,0,0,0,0,0,0,0,0,0,0,0,0,0,0,0,0,0,0,0,0,0,0,0,0,0,0,0,0,0,0,0,0,0,0,0,0,0,0,0,0],"id":16,"left_children":[1,3,5,7,9,11,13,15,17,19,21,23,25,-1,27,-1,-1,-1,29,31,33,35,37,-1,-1,-1,-1,39,41,43,45,47,-1,49,51,53,55,57,59,61,63,-1,-1,-1,-1,-1,-1,-1,-1,-1,-1,-1,-1,-1,-1,-1,-1,-1,-1,-1,-1,-1,-1,-1,-1],"loss_changes":[1.27761314E2,1.592234E2,4.5027344E1,6.257882E1,1.3784702E2,2.2424694E1,3.3688995E1,4.370369E0,4.2426575E1,8.853076E1,7.539313E1,3.9181955E0,4.8584938E-1,0E0,2.574852E1,0E0,0E0,0E0,5.0562523E1,5.526861E1,7.716763E1,1.0061917E2,2.49956E1,0E0,0E0,0E0,0E0,4.3313282E1,4.3776207E0,2.3815754E1,1.7415752E0,6.947274E0,0E0,2.4214603E1,5.8710247E1,4.2190776E0,2.2106384E1,8.213646E0,1.4960537E0,2.4123764E1,1.266495E1,0E0,0E0,0E0,0E0,0E0,0E0,0E0,0E0,0E0,0E0,0E0,0E0,0E0,0E0,0E0,0E0,0E0,0E0,0E0,0E0,0E0,0E0,0E0,0E0],"parents":[2147483647,0,0,1,1,2,2,3,3,4,4,5,5,6,6,7,7,8,8,9,9,10,10,11,11,12,12,14,14,18,18,19,19,20,20,21,21,22,22,27,27,28,28,29,29,30,30,31,31,33,33,34,34,35,35,36,36,37,37,38,38,39,39,40,40],"right_children":[2,4,6,8,10,12,14,16,18,20,22,24,26,-1,28,-1,-1,-1,30,32,34,36,38,-1,-1,-1,-1,40,42,44,46,48,-1,50,52,54,56,58,60,62,64,-1,-1,-1,-1,-1,-1,-1,-1,-1,-1,-1,-1,-1,-1,-1,-1,-1,-1,-1,-1,-1,-1,-1,-1],"split_conditions":[5.7E1,3.76E1,4.3E1,2.48E1,1E0,6.29E1,2.45E1,2.85E1,1.55E1,3.74E1,1E0,6.08E1,4.25E1,-4.6364525E-3,7.42E1,-4.165838E-3,-6.263815E-3,4.442604E-3,1E0,1E0,4.55E1,3.15E1,1E0,-3.3968616E-5,-1.9541406E-3,1.5853537E-3,2.4941214E-3,2E0,1E0,1E0,2.85E1,3.26E1,8.509271E-3,4.2E1,1E0,4.62E1,1E0,1E0,3.92E1,7.85E1,1E0,-1.9486828E-3,-4.2189616E-3,-2.2942864E-3,2.3217764E-4,3.3619008E-3,1.6918537E-3,1.0643725E-4,3.1099503E-3,-4.716392E-4,-2.6192605E-3,3.3684985E-3,3.9561815E-5,6.1793206E-4,-1.1044451E-3,6.3427864E-3,3.9237114E-3,-1.3869256E-5,-2.7962886E-3,3.049392E-3,1.5616182E-3,-1.943151E-3,4.3150102E-4,2.0398973E-3,-4.1630256E-4],"split_indices":[44,8,12,28,37,24,0,8,0,0,11,0,0,0,24,0,0,0,26,7,28,44,33,0,0,0,0,35,5,22,0,0,0,28,43,0,22,1,0,44,1,0,0,0,0,0,0,0,0,0,0,0,0,0,0,0,0,0,0,0,0,0,0,0,0],"split_type":[0,0,0,0,0,0,0,0,0,0,0,0,0,0,0,0,0,0,0,0,0,0,0,0,0,0,0,0,0,0,0,0,0,0,0,0,0,0,0,0,0,0,0,0,0,0,0,0,0,0,0,0,0,0,0,0,0,0,0,0,0,0,0,0,0],"sum_hessian":[3.9086355E4,2.6122932E4,1.2963423E4,6.3185713E3,1.980436E4,2.059647E3,1.0903775E4,9.511562E2,5.367415E3,1.351556E4,6.2888003E3,1.00458765E3,1.0550594E3,7.1469763E2,1.0189078E4,6.4435504E2,3.0680118E2,2.962159E2,5.071199E3,1.1389042E3,1.2376655E4,4.5862417E3,1.7025586E3,6.959046E2,3.0868304E2,3.203553E2,7.3470416E2,9.176961E3,1.01211676E3,4.4370244E3,6.341749E2,7.0955054E2,4.293537E2,7.5505156E3,4.8261396E3,1.0588213E3,3.5274204E3,9.985674E2,7.039912E2,7.4703423E3,1.7066189E3,3.2473157E2,6.8738525E2,3.4234658E3,1.01355853E3,3.356155E2,2.985594E2,3.4743494E2,3.621156E2,6.150283E3,1.4002327E3,2.1319365E3,2.694203E3,7.159059E2,3.4291534E2,2.0009723E3,1.5264481E3,6.5972565E2,3.3884174E2,3.8279037E2,3.212008E2,6.4214956E3,1.0488468E3,1.0134052E3,6.932137E2],"tree_param":{"num_deleted":"0","num_feature":"48","num_nodes":"65","size_leaf_vector":"1"}},{"base_weights":[-1.2703472E-3,-2.4066476E-2,9.5178E-2,-6.694831E-2,5.9147652E-2,4.569616E-1,5.2165326E-2,-9.9767104E-2,2.3194266E-2,1.6497129E-1,-4.22402E-2,8.364664E-3,4.9299863E-3,-5.285599E-2,1.1200304E-1,-1.2887202E-1,1.6466318E-2,1.8080865E-1,-4.9408454E-2,3.618134E-2,3.3717185E-1,-1.2833436E-1,2.0885788E-2,4.432089E-3,-1.16092704E-1,1.76686E-1,-9.696241E-2,-2.7266318E-1,-9.91726E-2,1.3769375E-1,-4.326742E-2,1.4483047E-1,5.0931936E-3,1.5556631E-3,-2.173097E-1,-1.19252294E-1,1.146525E-1,4.1368556E-1,-3.2649562E-4,-5.760603E-2,-2.1575533E-1,3.067863E-3,-2.708132E-4,-2.5159717E-3,-8.588181E-2,1.5042181E-1,5.392284E-3,-2.1528153E-4,-2.0429029E-3,-4.858421E-3,-2.5443705E-3,-6.6256564E-4,-2.306933E-3,3.0772216E-3,1.4032885E-3,3.03469E-7,-2.0705916E-3,8.497784E-4,2.499557E-3,3.6486398E-4,-2.0940122E-3,-2.5240043E-3,-4.4844826E-3,-1.2383271E-3,-2.7832696E-3,1.034864E-3,4.8597855E-3,7.1375994E-3,4.904814E-3,-4.2717173E-4,-1.9126202E-3,-2.9039672E-3,-3.6500767E-3,-8.723913E-4,7.8638166E-4,-1.9244339E-3,-1.0126479E-3,1.3079979E-3,2.5257177E-3],"categories":[],"categories_nodes":[],"categories_segments":[],"categories_sizes":[],"default_left":[0,0,0,0,0,0,0,0,0,0,0,0,0,0,0,0,0,0,0,0,0,0,0,0,0,0,0,0,0,0,0,0,0,0,0,0,0,0,0,0,0,0,0,0,0,0,0,0,0,0,0,0,0,0,0,0,0,0,0,0,0,0,0,0,0,0,0,0,0,0,0,0,0,0,0,0,0,0,0],"id":17,"left_children":[1,3,5,7,9,11,13,15,17,19,21,-1,-1,23,25,27,29,31,33,35,37,39,41,-1,43,45,47,49,51,53,55,57,-1,59,61,63,65,67,-1,69,71,-1,73,-1,75,77,-1,-1,-1,-1,-1,-1,-1,-1,-1,-1,-1,-1,-1,-1,-1,-1,-1,-1,-1,-1,-1,-1,-1,-1,-1,-1,-1,-1,-1,-1,-1,-1,-1],"loss_changes":[8.6596924E1,1.13808044E2,1.1697196E2,6.274829E1,1.16964935E2,9.648193E0,4.3164997E1,5.2968292E1,6.608584E1,1.1691684E2,3.1197157E1,0E0,0E0,5.510524E1,5.963273E1,5.3136017E1,2.4148363E1,1.0627937E1,3.502645E1,3.890699E1,6.432895E1,1.451926E1,1.4913717E1,0E0,3.2403088E0,1.6395721E1,2.9726267E0,1.0584015E1,3.0659508E1,3.1637192E0,9.8670845E0,2.4517899E0,0E0,1.0245409E1,3.7146416E0,2.550088E0,2.0237892E1,9.651001E0,0E0,2.8930583E0,5.960541E-1,0E0,9.539204E0,0E0,1.1555786E0,2.9975052E0,0E0,0E0,0E0,0E0,0E0,0E0,0E0,0E0,0E0,0E0,0E0,0E0,0E0,0E0,0E0,0E0,0E0,0E0,0E0,0E0,0E0,0E0,0E0,0E0,0E0,0E0,0E0,0E0,0E0,0E0,0E0,0E0,0E0],"parents":[2147483647,0,0,1,1,2,2,3,3,4,4,5,5,6,6,7,7,8,8,9,9,10,10,13,13,14,14,15,15,16,16,17,17,18,18,19,19,20,20,21,21,22,22,24,24,25,25,26,26,27,27,28,28,29,29,30,30,31,31,33,33,34,34,35,35,36,36,37,37,39,39,40,40,42,42,44,44,45,45],"right_children":[2,4,6,8,10,12,14,16,18,20,22,-1,-1,24,26,28,30,32,34,36,38,40,42,-1,44,46,48,50,52,54,56,58,-1,60,62,64,66,68,-1,70,72,-1,74,-1,76,78,-1,-1,-1,-1,-1,-1,-1,-1,-1,-1,-1,-1,-1,-1,-1,-1,-1,-1,-1,-1,-1,-1,-1,-1,-1,-1,-1,-1,-1,-1,-1,-1,-1],"split_conditions":[2E0,1E0,3.5E1,6.22E1,1E0,3.66E1,4.72E1,1E0,1E0,5.19E1,1E0,8.364664E-3,4.9299863E-3,1.55E1,6.72E1,3.25E1,3.89E1,5.96E1,4.72E1,5.23E1,7.55E1,1E0,2.85E1,4.432089E-3,4.73E1,2E0,5.63E1,2E0,4.55E1,1E0,5.28E1,1E0,5.0931936E-3,1E0,4.91E1,2E0,2E0,1E0,-3.2649562E-4,1E0,5.81E1,3.067863E-3,5.75E1,-2.5159717E-3,3.58E1,3.88E1,5.392284E-3,-2.1528153E-4,-2.0429029E-3,-4.858421E-3,-2.5443705E-3,-6.6256564E-4,-2.306933E-3,3.0772216E-3,1.4032885E-3,3.03469E-7,-2.0705916E-3,8.497784E-4,2.499557E-3,3.6486398E-4,-2.0940122E-3,-2.5240043E-3,-4.4844826E-3,-1.2383271E-3,-2.7832696E-3,1.034864E-3,4.8597855E-3,7.1375994E-3,4.904814E-3,-4.2717173E-4,-1.9126202E-3,-2.9039672E-3,-3.6500767E-3,-8.723913E-4,7.8638166E-4,-1.9244339E-3,-1.0126479E-3,1.3079979E-3,2.5257177E-3],"split_indices":[27,37,36,32,19,0,32,22,43,8,9,0,0,0,32,8,24,0,28,28,0,35,12,0,12,11,0,5,32,5,36,7,0,6,0,5,9,18,0,5,0,0,36,0,0,0,0,0,0,0,0,0,0,0,0,0,0,0,0,0,0,0,0,0,0,0,0,0,0,0,0,0,0,0,0,0,0,0,0],"split_type":[0,0,0,0,0,0,0,0,0,0,0,0,0,0,0,0,0,0,0,0,0,0,0,0,0,0,0,0,0,0,0,0,0,0,0,0,0,0,0,0,0,0,0,0,0,0,0,0,0,0,0,0,0,0,0,0,0,0,0,0,0,0,0,0,0,0,0,0,0,0,0,0,0,0,0,0,0,0,0],"sum_hessian":[3.9009527E4,3.159456E4,7.4149663E3,2.0889885E4,1.0704676E4,7.7452203E2,6.6404443E3,1.5354891E4,5.534994E3,5.2615835E3,5.4430923E3,4.1240262E2,3.6211942E2,2.3799485E3,4.260496E3,1.2314293E4,3.0405977E3,1.7667994E3,3.7681948E3,3.0275242E3,2.2340593E3,2.3357126E3,3.1073796E3,3.5332263E2,2.0266259E3,3.2718213E3,9.8867456E2,2.0778325E3,1.023646E4,1.0308749E3,2.0097228E3,1.4668414E3,2.9995804E2,2.8686628E3,8.995319E2,9.9413324E2,2.0333909E3,1.8528401E3,3.8121912E2,1.3236562E3,1.0120564E3,3.4501764E2,2.762362E3,6.8725104E2,1.3393749E3,2.8853618E3,3.8645944E2,3.587623E2,6.2991223E2,1.3590985E3,7.1873395E2,5.1340664E3,5.102394E3,3.6324347E2,6.6763135E2,1.3431184E3,6.666044E2,3.343414E2,1.1325E3,2.501512E3,3.6715106E2,6.001061E2,2.9942584E2,6.883615E2,3.0577173E2,1.6887117E3,3.446792E2,1.0501873E3,8.0265283E2,9.8479364E2,3.3886258E2,6.601373E2,3.519191E2,1.3615679E3,1.4007942E3,3.2330447E2,1.0160704E3,6.937452E2,2.1916167E3],"tree_param":{"num_deleted":"0","num_feature":"48","num_nodes":"79","size_leaf_vector":"1"}},{"base_weights":[1.0381864E-3,-8.6312285E-3,3.3315435E-1,-3.244127E-2,1.0137817E-1,4.5412737E-1,3.982639E-5,-3.885697E-2,7.059321E-3,3.207116E-2,3.4329087E-1,8.242692E-3,4.9746605E-3,-8.1798084E-2,4.410264E-3,1.3591722E-1,-4.010433E-2,2.960367E-1,6.9577675E-3,-3.3955905E-1,-6.0621507E-2,7.9000756E-2,-6.819867E-2,9.372434E-2,4.8232456E-3,-6.458659E-2,2.300366E-3,3.0551234E-3,5.074923E-3,-4.1392674E-3,-5.932935E-3,4.367242E-3,-1.0411183E-3,-1.9182939E-4,3.0216638E-3,5.455424E-4,-2.1374514E-3,-3.5647926E-4,1.9321084E-3,-2.762856E-3,-7.040892E-4],"categories":[],"categories_nodes":[],"categories_segments":[],"categories_sizes":[],"default_left":[0,0,0,0,0,0,0,0,0,0,0,0,0,0,0,0,0,0,0,0,0,0,0,0,0,0,0,0,0,0,0,0,0,0,0,0,0,0,0,0,0],"id":18,"left_children":[1,3,5,7,9,11,-1,13,-1,15,17,-1,-1,19,21,23,25,27,-1,29,31,33,35,37,-1,39,-1,-1,-1,-1,-1,-1,-1,-1,-1,-1,-1,-1,-1,-1,-1],"loss_changes":[1.3189734E2,1.0142325E2,4.4221863E1,1.0442928E2,1.1470395E2,9.189697E0,0E0,5.8822033E1,0E0,4.1614483E1,8.702911E0,0E0,0E0,8.694411E1,8.533773E1,1.7873901E1,1.5993241E1,3.9611816E0,0E0,4.014862E0,4.6299747E1,8.82951E1,6.2137653E1,8.554846E0,0E0,6.359518E0,0E0,0E0,0E0,0E0,0E0,0E0,0E0,0E0,0E0,0E0,0E0,0E0,0E0,0E0,0E0],"parents":[2147483647,0,0,1,1,2,2,3,3,4,4,5,5,7,7,9,9,10,10,13,13,14,14,15,15,16,16,17,17,19,19,20,20,21,21,22,22,23,23,25,25],"right_children":[2,4,6,8,10,12,-1,14,-1,16,18,-1,-1,20,22,24,26,28,-1,30,32,34,36,38,-1,40,-1,-1,-1,-1,-1,-1,-1,-1,-1,-1,-1,-1,-1,-1,-1],"split_conditions":[2E0,2E0,4.47E1,8E0,1E0,3.66E1,3.982639E-5,5.32E1,7.059321E-3,4.74E1,7.05E1,8.242692E-3,4.9746605E-3,2.39E1,5.1E1,4.32E1,1E0,3.74E1,6.9577675E-3,2.17E1,1.55E1,5.03E1,5.4E1,3.88E1,4.8232456E-3,4.91E1,2.300366E-3,3.0551234E-3,5.074923E-3,-4.1392674E-3,-5.932935E-3,4.367242E-3,-1.0411183E-3,-1.9182939E-4,3.0216638E-3,5.455424E-4,-2.1374514E-3,-3.5647926E-4,1.9321084E-3,-2.762856E-3,-7.040892E-4],"split_indices":[34,9,0,47,2,0,0,24,0,40,0,0,0,4,44,0,22,0,0,4,0,20,4,4,0,0,0,0,0,0,0,0,0,0,0,0,0,0,0,0,0],"split_type":[0,0,0,0,0,0,0,0,0,0,0,0,0,0,0,0,0,0,0,0,0,0,0,0,0,0,0,0,0,0,0,0,0,0,0,0,0,0,0,0,0],"sum_hessian":[3.950376E4,3.8372484E4,1.1312788E3,3.158294E4,6.789543E3,8.1680396E2,3.1447482E2,3.1195445E4,3.8749408E2,5.294493E3,1.4950498E3,4.3666E2,3.8014398E2,1.5714279E4,1.5481167E4,2.1989858E3,3.0955073E3,1.1048192E3,3.9023065E2,1.1739412E3,1.4540338E4,7.670306E3,7.810861E3,1.8141433E3,3.8484256E2,2.7709912E3,3.2451605E2,3.8258118E2,7.2223804E2,5.894215E2,5.845197E2,3.3621356E2,1.4204124E4,4.357067E3,3.3132393E3,3.2125208E3,4.5983403E3,3.8283264E2,1.4313108E3,3.204304E2,2.4505608E3],"tree_param":{"num_deleted":"0","num_feature":"48","num_nodes":"41","size_leaf_vector":"1"}},{"base_weights":[4.336496E-4,-9.027802E-3,3.1119436E-1,-1.4089414E-2,6.957452E-3,4.4502136E-1,7.35704E-5,-1.8889666E-2,6.6316687E-3,8.104662E-3,4.913121E-3,-5.9737436E-2,2.7552504E-2,-2.7339092E-1,-4.0483426E-2,6.216577E-2,-1.1750841E-1,-5.080741E-3,-3.5611982E-4,-7.29957E-4,4.8178816E-3,6.919992E-4,5.1582647E-3,-1.0754281E-3,-3.3153605E-3],"categories":[],"categories_nodes":[],"categories_segments":[],"categories_sizes":[],"default_left":[0,0,0,0,0,0,0,0,0,0,0,0,0,0,0,0,0,0,0,0,0,0,0,0,0],"id":19,"left_children":[1,3,5,7,-1,9,-1,11,-1,-1,-1,13,15,17,19,21,23,-1,-1,-1,-1,-1,-1,-1,-1],"loss_changes":[1.19509895E2,9.29704E1,4.7063927E1,8.433442E1,0E0,8.651688E0,0E0,7.1239334E1,0E0,0E0,0E0,8.241108E1,8.815315E1,2.5219772E1,5.5230614E1,6.469803E1,1.5939629E1,0E0,0E0,0E0,0E0,0E0,0E0,0E0,0E0],"parents":[2147483647,0,0,1,1,2,2,3,3,5,5,7,7,11,11,12,12,13,13,14,14,15,15,16,16],"right_children":[2,4,6,8,-1,10,-1,12,-1,-1,-1,14,16,18,20,22,24,-1,-1,-1,-1,-1,-1,-1,-1],"split_conditions":[2E0,8E0,4.47E1,4E0,6.957452E-3,3.66E1,7.35704E-5,5.45E1,6.6316687E-3,8.104662E-3,4.913121E-3,2.39E1,7.14E1,4.96E1,5E0,7.11E1,2E0,-5.080741E-3,-3.5611982E-4,-7.29957E-4,4.8178816E-3,6.919992E-4,5.1582647E-3,-1.0754281E-3,-3.3153605E-3],"split_indices":[34,47,0,31,0,0,0,24,0,0,0,4,16,0,27,0,19,0,0,0,0,0,0,0,0],"split_type":[0,0,0,0,0,0,0,0,0,0,0,0,0,0,0,0,0,0,0,0,0,0,0,0,0],"sum_hessian":[3.9042777E4,3.7874527E4,1.1682504E3,3.748429E4,3.902392E2,8.013484E2,3.6690192E2,3.7105258E4,3.790304E2,4.1930865E2,3.8203976E2,1.9798793E4,1.7306465E4,1.6141688E3,1.8184623E4,1.4000758E4,3.3057083E3,1.265191E3,3.489778E2,1.7799611E4,3.8501114E2,1.3260677E4,7.400804E2,2.3225703E3,9.831378E2],"tree_param":{"num_deleted":"0","num_feature":"48","num_nodes":"25","size_leaf_vector":"1"}},{"base_weights":[-1.0831618E-3,3.5966817E-2,-7.6939166E-2,1.000939E-1,-4.8979722E-2,1.0563682E-2,-1.1850439E-1,6.206626E-2,2.7725416E-1,-8.401033E-2,1.7654882E-1,1.1835947E-1,-6.890212E-2,-1.5316649E-1,1.820888E-2,9.234376E-2,-1.8327536E-1,1.1456611E-1,3.88346E-1,-1.3812633E-1,-0E0,1.1971999E-1,4.7688317E-3,1.4141543E-1,3.810273E-5,-1.04361035E-1,2.2789885E-3,-2.5379333E-1,-1.3484669E-1,8.568261E-2,-8.036823E-2,6.421699E-2,2.769395E-1,-1.01986036E-1,-6.262884E-3,2.7889097E-3,-3.4659804E-4,4.709708E-3,6.804746E-3,-3.0587092E-1,-1.02472074E-1,4.5022275E-2,-2.9015846E-3,9.068205E-4,2.1421947E-3,2.4516534E-3,1.678414E-3,-1.7620789E-1,-4.381752E-4,-4.610363E-3,-1.9159229E-3,-1.1947744E-1,-4.060979E-3,1.735934E-3,1.2526313E-4,-2.7789598E-4,-1.9273307E-3,4.704585E-3,6.2863104E-4,6.840862E-3,1.2663957E-3,4.5610326E-5,-2.5386715E-3,-3.5303973E-3,-5.0104014E-3,-2.175823E-3,-3.4377826E-4,2.1490887E-6,2.9047646E-3,-1.9441497E-3,-2.8874255E-3,-2.5061886E-3,-1.193077E-3],"categories":[],"categories_nodes":[],"categories_segments":[],"categories_sizes":[],"default_left":[0,0,0,0,0,0,0,0,0,0,0,0,0,0,0,0,0,0,0,0,0,0,0,0,0,0,0,0,0,0,0,0,0,0,0,0,0,0,0,0,0,0,0,0,0,0,0,0,0,0,0,0,0,0,0,0,0,0,0,0,0,0,0,0,0,0,0,0,0,0,0,0,0],"id":20,"left_children":[1,3,5,7,9,11,13,15,17,19,21,23,25,27,29,31,33,35,37,39,41,43,-1,45,-1,47,-1,49,51,53,55,57,59,61,-1,-1,-1,-1,-1,63,65,67,-1,-1,-1,-1,-1,69,-1,-1,-1,71,-1,-1,-1,-1,-1,-1,-1,-1,-1,-1,-1,-1,-1,-1,-1,-1,-1,-1,-1,-1,-1],"loss_changes":[1.1220396E2,1.45541E2,4.831041E1,1.0249321E2,9.1340546E1,3.7534966E1,4.3125328E1,9.430399E1,4.7540955E1,4.5362907E1,1.2452488E1,4.3060436E0,2.0116041E1,1.3440247E1,1.3224209E1,5.8479424E1,2.6393593E1,1.24633465E1,7.326309E0,3.6459595E1,3.5839523E1,1.3048363E0,0E0,8.8284683E-1,0E0,1.1072449E1,0E0,6.626213E0,1.314492E1,2.248581E0,1.9624028E0,5.497764E1,4.9603584E1,8.7104435E0,0E0,0E0,0E0,0E0,0E0,1.7163162E0,1.6562443E1,2.1348166E1,0E0,0E0,0E0,0E0,0E0,5.825043E-1,0E0,0E0,0E0,1.0378777E1,0E0,0E0,0E0,0E0,0E0,0E0,0E0,0E0,0E0,0E0,0E0,0E0,0E0,0E0,0E0,0E0,0E0,0E0,0E0,0E0,0E0],"parents":[2147483647,0,0,1,1,2,2,3,3,4,4,5,5,6,6,7,7,8,8,9,9,10,10,11,11,12,12,13,13,14,14,15,15,16,16,17,17,18,18,19,19,20,20,21,21,23,23,25,25,27,27,28,28,29,29,30,30,31,31,32,32,33,33,39,39,40,40,41,41,47,47,51,51],"right_children":[2,4,6,8,10,12,14,16,18,20,22,24,26,28,30,32,34,36,38,40,42,44,-1,46,-1,48,-1,50,52,54,56,58,60,62,-1,-1,-1,-1,-1,64,66,68,-1,-1,-1,-1,-1,70,-1,-1,-1,72,-1,-1,-1,-1,-1,-1,-1,-1,-1,-1,-1,-1,-1,-1,-1,-1,-1,-1,-1,-1,-1],"split_conditions":[5.7E1,1E0,5.4E1,5.73E1,7.03E1,5.19E1,7.85E1,2E0,1E0,5.44E1,1E0,2E0,5.23E1,4E1,1E0,1E0,1E0,1E0,1E0,2.39E1,5.15E1,3.36E1,4.7688317E-3,2E0,3.810273E-5,1E0,2.2789885E-3,1E0,7.42E1,1E0,1E0,2.14E1,5.03E1,2.64E1,-6.262884E-3,2.7889097E-3,-3.4659804E-4,4.709708E-3,6.804746E-3,1E0,4.33E1,4.19E1,-2.9015846E-3,9.068205E-4,2.1421947E-3,2.4516534E-3,1.678414E-3,4.13E1,-4.381752E-4,-4.610363E-3,-1.9159229E-3,5.53E1,-4.060979E-3,1.735934E-3,1.2526313E-4,-2.7789598E-4,-1.9273307E-3,4.704585E-3,6.2863104E-4,6.840862E-3,1.2663957E-3,4.5610326E-5,-2.5386715E-3,-3.5303973E-3,-5.0104014E-3,-2.175823E-3,-3.4377826E-4,2.1490887E-6,2.9047646E-3,-1.9441497E-3,-2.8874255E-3,-2.5061886E-3,-1.193077E-3],"split_indices":[44,46,4,4,40,8,44,47,35,24,3,5,4,32,39,7,1,3,7,4,4,12,0,21,0,39,0,1,24,1,1,32,4,4,0,0,0,0,0,3,44,4,0,0,0,0,0,4,0,0,0,28,0,0,0,0,0,0,0,0,0,0,0,0,0,0,0,0,0,0,0,0,0],"split_type":[0,0,0,0,0,0,0,0,0,0,0,0,0,0,0,0,0,0,0,0,0,0,0,0,0,0,0,0,0,0,0,0,0,0,0,0,0,0,0,0,0,0,0,0,0,0,0,0,0,0,0,0,0,0,0,0,0,0,0,0,0,0,0,0,0,0,0,0,0,0,0,0,0],"sum_hessian":[3.9450895E4,2.6461193E4,1.2989699E4,1.5111806E4,1.1349388E4,4.1447183E3,8.844981E3,1.246562E4,2.6461855E3,9.843264E3,1.5061241E3,1.7853337E3,2.3593843E3,7.0850903E3,1.7598914E3,1.1114935E4,1.3506859E3,1.0928314E3,1.5533541E3,5.9899136E3,3.85335E3,1.0999099E3,4.0621414E2,1.4527548E3,3.32579E2,2.0526636E3,3.067208E2,1.0472085E3,6.037882E3,1.0749594E3,6.84932E2,9.669961E3,1.4449738E3,1.0190137E3,3.316723E2,7.443221E2,3.4850928E2,7.5875635E2,7.945978E2,1.0240752E3,4.9658384E3,3.1276428E3,7.257072E2,3.6796454E2,7.319454E2,7.3785657E2,7.148982E2,1.01497864E3,1.0376848E3,7.0814343E2,3.390651E2,5.4576416E3,5.8024E2,7.2838934E2,3.4657E2,3.4516565E2,3.397664E2,7.7759985E2,8.89236E3,7.358658E2,7.09108E2,3.682726E2,6.507411E2,3.411686E2,6.8290656E2,3.1988452E3,1.7669932E3,2.427886E3,6.997567E2,3.408056E2,6.741731E2,2.4418135E3,3.0158284E3],"tree_param":{"num_deleted":"0","num_feature":"48","num_nodes":"73","size_leaf_vector":"1"}},{"base_weights":[-1.7857202E-4,-9.768369E-3,3.201731E-1,-3.2520615E-2,9.705474E-2,4.462542E-1,4.2037213E-5,-3.869142E-2,6.454681E-3,1.7791332E-1,-1.7665632E-2,7.892008E-3,4.758562E-3,-4.5000304E-2,2.2316606E-1,8.6838566E-2,3.2575625E-1,1.6584564E-3,-6.405866E-2,-1.8594266E-1,-3.395092E-2,5.1555047E-3,1.5354078E-3,2.3615576E-1,-2.115437E-2,2.8496867E-1,6.7392024E-3,-2.7193527E-3,-4.075437E-2,-1.6352817E-3,-5.882782E-3,-2.3807004E-6,-1.3805454E-3,4.9795085E-3,2.7477115E-3,-7.540108E-4,8.611315E-4,2.9619574E-3,4.8023425E-3,-4.263751E-4,-1.083898E-3],"categories":[],"categories_nodes":[],"categories_segments":[],"categories_sizes":[],"default_left":[0,0,0,0,0,0,0,0,0,0,0,0,0,0,0,0,0,0,0,0,0,0,0,0,0,0,0,0,0,0,0,0,0,0,0,0,0,0,0,0,0],"id":21,"left_children":[1,3,5,7,9,11,-1,13,-1,15,17,-1,-1,19,21,23,25,-1,27,29,31,-1,-1,33,35,37,-1,-1,39,-1,-1,-1,-1,-1,-1,-1,-1,-1,-1,-1,-1],"loss_changes":[1.2272833E2,9.384761E1,4.423758E1,9.2479904E1,6.3738224E1,7.74823E0,0E0,5.2907482E1,0E0,5.334607E1,1.7602037E1,0E0,0E0,4.8073154E1,1.0339722E1,4.2487926E1,7.709793E0,0E0,6.0167103E0,3.5177444E1,5.5498657E1,0E0,0E0,5.4938087E0,4.045402E0,3.1655579E0,0E0,0E0,7.676127E-1,0E0,0E0,0E0,0E0,0E0,0E0,0E0,0E0,0E0,0E0,0E0,0E0],"parents":[2147483647,0,0,1,1,2,2,3,3,4,4,5,5,7,7,9,9,10,10,13,13,14,14,15,15,16,16,18,18,19,19,20,20,23,23,24,24,25,25,28,28],"right_children":[2,4,6,8,10,12,-1,14,-1,16,18,-1,-1,20,22,24,26,-1,28,30,32,-1,-1,34,36,38,-1,-1,40,-1,-1,-1,-1,-1,-1,-1,-1,-1,-1,-1,-1],"split_conditions":[2E0,2E0,4.47E1,4E0,5.18E1,3.66E1,4.2037213E-5,3E0,6.454681E-3,1E0,3.87E1,7.892008E-3,4.758562E-3,2.39E1,5.08E1,1E0,7.05E1,1.6584564E-3,4.91E1,1E0,5.7E1,5.1555047E-3,1.5354078E-3,4.29E1,1E0,3.92E1,6.7392024E-3,-2.7193527E-3,6.67E1,-1.6352817E-3,-5.882782E-3,-2.3807004E-6,-1.3805454E-3,4.9795085E-3,2.7477115E-3,-7.540108E-4,8.611315E-4,2.9619574E-3,4.8023425E-3,-4.263751E-4,-1.083898E-3],"split_indices":[34,9,0,31,44,0,0,11,0,37,0,0,0,4,0,30,0,0,0,31,44,0,0,4,6,0,0,0,4,0,0,0,0,0,0,0,0,0,0,0,0],"split_type":[0,0,0,0,0,0,0,0,0,0,0,0,0,0,0,0,0,0,0,0,0,0,0,0,0,0,0,0,0,0,0,0,0,0,0,0,0,0,0,0,0],"sum_hessian":[3.9379E4,3.825054E4,1.1284608E3,3.1573256E4,6.677284E3,7.9605676E2,3.3240405E2,3.116888E4,4.0437634E2,3.9419238E3,2.73536E3,4.6818478E2,3.27872E2,3.0455055E4,7.138255E2,2.4611836E3,1.4807404E3,6.983431E2,2.0370171E3,2.1799517E3,2.8275104E4,3.365757E2,3.772498E2,1.0518912E3,1.4092924E3,1.1447898E3,3.3595044E2,3.0163495E2,1.7353821E3,1.6045311E3,5.754207E2,1.7916035E4,1.0359066E4,3.4135205E2,7.105391E2,1.0754086E3,3.3388385E2,3.6727222E2,7.7751764E2,1.3605895E3,3.7479257E2],"tree_param":{"num_deleted":"0","num_feature":"48","num_nodes":"41","size_leaf_vector":"1"}},{"base_weights":[1.1856497E-3,3.842767E-2,-7.473414E-2,7.913936E-2,-1.1808015E-1,-1.0692016E-1,2.3269255E-2,6.6597434E-3,1.5984294E-1,-1.606921E-1,1.531322E-1,9.933753E-2,-1.3308461E-1,5.8106992E-2,-3.642302E-3,-4.5273937E-2,1.5965663E-1,7.9916656E-2,3.6154482E-1,-3.2535827E-1,-1.1601663E-1,2.9201014E-3,1.5216438E-3,2.4228585E-3,-2.8554848E-4,-1.7724034E-1,-6.2481727E-2,1.9970685E-3,8.294971E-3,-9.687654E-2,6.991656E-2,4.58192E-3,1.038124E-1,7.763244E-3,4.9838725E-2,6.7370106E-3,2.8970763E-1,-4.090961E-3,-6.2483083E-3,-6.942677E-2,-2.957233E-3,-4.579057E-3,-1.5928966E-1,-1.1946835E-1,1.9669218E-2,1.5506082E-3,-1.4336879E-2,-1.21035E-3,-5.349581E-3,-1.9427805E-4,2.0055717E-3,8.491245E-4,2.784086E-3,2.6666068E-3,5.921554E-5,4.7351974E-3,2.9651907E-3,-2.458414E-3,-4.894476E-4,-1.6215264E-3,-3.1058628E-3,-1.1595985E-3,-2.075982E-3,1.5819116E-3,-1.1906201E-4,-4.0845203E-4,1.3476207E-4],"categories":[],"categories_nodes":[],"categories_segments":[],"categories_sizes":[],"default_left":[0,0,0,0,0,0,0,0,0,0,0,0,0,0,0,0,0,0,0,0,0,0,0,0,0,0,0,0,0,0,0,0,0,0,0,0,0,0,0,0,0,0,0,0,0,0,0,0,0,0,0,0,0,0,0,0,0,0,0,0,0,0,0,0,0,0,0],"id":22,"left_children":[1,3,5,7,9,11,13,15,17,19,21,23,25,27,-1,29,31,33,35,37,39,-1,-1,-1,-1,41,43,-1,45,47,49,-1,51,-1,53,-1,55,-1,-1,57,-1,-1,59,61,63,-1,65,-1,-1,-1,-1,-1,-1,-1,-1,-1,-1,-1,-1,-1,-1,-1,-1,-1,-1,-1,-1],"loss_changes":[1.1315499E2,1.7134406E2,4.2037292E1,1.23997116E2,6.53604E1,5.452848E1,3.131235E1,9.15402E1,1.6169986E2,3.5527763E1,1.4863014E0,9.491455E0,2.7142456E1,1.0672681E1,0E0,5.091184E1,2.3654747E1,9.632125E1,1.7551025E1,4.8294754E0,1.4337017E1,0E0,0E0,0E0,0E0,1.2732391E1,1.7244818E1,0E0,5.2770796E0,2.5645908E1,1.4805832E1,0E0,8.235123E0,0E0,3.9827232E1,0E0,3.3214264E0,0E0,0E0,8.714422E0,0E0,0E0,1.145916E1,1.4960289E0,4.643998E0,0E0,7.181201E-1,0E0,0E0,0E0,0E0,0E0,0E0,0E0,0E0,0E0,0E0,0E0,0E0,0E0,0E0,0E0,0E0,0E0,0E0,0E0,0E0],"parents":[2147483647,0,0,1,1,2,2,3,3,4,4,5,5,6,6,7,7,8,8,9,9,10,10,11,11,12,12,13,13,15,15,16,16,17,17,18,18,19,19,20,20,25,25,26,26,28,28,29,29,30,30,32,32,34,34,36,36,39,39,42,42,43,43,44,44,46,46],"right_children":[2,4,6,8,10,12,14,16,18,20,22,24,26,28,-1,30,32,34,36,38,40,-1,-1,-1,-1,42,44,-1,46,48,50,-1,52,-1,54,-1,56,-1,-1,58,-1,-1,60,62,64,-1,66,-1,-1,-1,-1,-1,-1,-1,-1,-1,-1,-1,-1,-1,-1,-1,-1,-1,-1,-1,-1],"split_conditions":[5.7E1,1E0,2E0,5.19E1,6.22E1,4.38E1,3E0,5.45E1,1E0,3.25E1,3.92E1,6.35E1,1E0,6.11E1,-3.642302E-3,5.44E1,2.45E1,3.66E1,5.46E1,1E0,2E0,2.9201014E-3,1.5216438E-3,2.4228585E-3,-2.8554848E-4,2.45E1,1E0,1.9970685E-3,2.95E1,5.78E1,4.54E1,4.58192E-3,4.52E1,7.763244E-3,1E0,6.7370106E-3,7.05E1,-4.090961E-3,-6.2483083E-3,3.47E1,-2.957233E-3,-4.579057E-3,1E0,5.81E1,4.25E1,1.5506082E-3,1E0,-1.21035E-3,-5.349581E-3,-1.9427805E-4,2.0055717E-3,8.491245E-4,2.784086E-3,2.6666068E-3,5.921554E-5,4.7351974E-3,2.9651907E-3,-2.458414E-3,-4.894476E-4,-1.6215264E-3,-3.1058628E-3,-1.1595985E-3,-2.075982E-3,1.5819116E-3,-1.1906201E-4,-4.0845203E-4,1.3476207E-4],"split_indices":[44,38,47,8,32,28,7,28,37,8,0,0,7,28,0,24,16,0,16,6,45,0,0,0,0,0,37,0,0,32,20,0,16,0,43,0,0,0,0,8,0,0,23,0,0,0,7,0,0,0,0,0,0,0,0,0,0,0,0,0,0,0,0,0,0,0,0],"split_type":[0,0,0,0,0,0,0,0,0,0,0,0,0,0,0,0,0,0,0,0,0,0,0,0,0,0,0,0,0,0,0,0,0,0,0,0,0,0,0,0,0,0,0,0,0,0,0,0,0,0,0,0,0,0,0,0,0,0,0,0,0,0,0,0,0,0,0],"sum_hessian":[3.9686926E4,2.667031E4,1.3016617E4,2.1190549E4,5.479762E3,9.836926E3,3.179691E3,1.1197315E4,9.993233E3,4.751989E3,7.27773E2,1.0855444E3,8.751382E3,2.8284907E3,3.512003E2,8.33581E3,2.8615063E3,7.1759E3,2.8173333E3,9.88894E2,3.763095E3,3.4994357E2,3.7782944E2,7.400095E2,3.455349E2,5.3396094E3,3.4117725E3,1.0894808E3,1.7390098E3,5.786956E3,2.5488533E3,7.6806683E2,2.0934395E3,4.504445E2,6.725455E3,1.2406813E3,1.576652E3,6.612257E2,3.2766833E2,2.4278328E3,1.3352622E3,6.222066E2,4.717403E3,2.0500789E3,1.3616935E3,3.7661163E2,1.3623982E3,5.464019E3,3.2293713E2,1.0731132E3,1.4757401E3,1.364897E3,7.285424E2,1.7487128E3,4.976742E3,1.1907616E3,3.8589035E2,6.4328516E2,1.7845476E3,2.318644E3,2.3987588E3,7.131284E2,1.3369506E3,3.7530423E2,9.863892E2,1.0162629E3,3.4613525E2],"tree_param":{"num_deleted":"0","num_feature":"48","num_nodes":"67","size_leaf_vector":"1"}},{"base_weights":[-7.0100307E-4,-1.0031464E-2,3.0452263E-1,-3.3409778E-2,9.6810065E-2,4.290086E-1,5.4450244E-5,-1.21783875E-1,-2.5645476E-3,3.066778E-2,3.245699E-1,7.6457867E-3,4.6568112E-3,-4.7754E-2,-1.938707E-1,5.75089E-2,-8.371185E-2,4.5853504E-3,7.7252286E-3,2.9440692E-3,3.6375478E-1,-2.1712641E-1,5.123819E-3,-5.8881985E-3,-1.5371896E-1,-2.1438153E-2,1.3491023E-1,3.143444E-2,-1.3030353E-1,-3.284915E-2,1.5786116E-1,4.8478916E-3,6.562987E-3,-1.0459365E-3,-4.082237E-3,6.5079104E-4,-1.0163822E-3,4.4844048E-5,-2.61897E-3,8.4969366E-4,-7.882035E-4,-8.223507E-4,2.9961793E-3,-1.551276E-3,1.7126062E-3,-2.4070998E-3,5.4421125E-4,6.821478E-4,-9.5504243E-4,1.5265532E-3,2.688163E-3],"categories":[],"categories_nodes":[],"categories_segments":[],"categories_sizes":[],"default_left":[0,0,0,0,0,0,0,0,0,0,0,0,0,0,0,0,0,0,0,0,0,0,0,0,0,0,0,0,0,0,0,0,0,0,0,0,0,0,0,0,0,0,0,0,0,0,0,0,0,0,0],"id":23,"left_children":[1,3,5,7,9,11,-1,13,15,17,19,-1,-1,21,23,25,27,-1,29,-1,31,33,35,-1,37,39,41,43,45,47,49,-1,-1,-1,-1,-1,-1,-1,-1,-1,-1,-1,-1,-1,-1,-1,-1,-1,-1,-1,-1],"loss_changes":[1.1410896E2,9.6622116E1,4.239E1,8.611534E1,1.0388214E2,7.313614E0,0E0,4.323017E1,1.1550792E2,3.4777107E1,7.154175E0,0E0,0E0,3.8932995E1,3.3118164E1,8.344777E1,5.4833252E1,0E0,3.2482937E1,0E0,3.429245E0,7.4327774E0,9.427693E0,0E0,1.2112701E1,1.6843918E1,8.516708E1,3.3577446E1,3.6881927E1,1.0125488E1,1.08144E0,0E0,0E0,0E0,0E0,0E0,0E0,0E0,0E0,0E0,0E0,0E0,0E0,0E0,0E0,0E0,0E0,0E0,0E0,0E0,0E0],"parents":[2147483647,0,0,1,1,2,2,3,3,4,4,5,5,7,7,8,8,9,9,10,10,13,13,14,14,15,15,16,16,18,18,20,20,21,21,22,22,24,24,25,25,26,26,27,27,28,28,29,29,30,30],"right_children":[2,4,6,8,10,12,-1,14,16,18,20,-1,-1,22,24,26,28,-1,30,-1,32,34,36,-1,38,40,42,44,46,48,50,-1,-1,-1,-1,-1,-1,-1,-1,-1,-1,-1,-1,-1,-1,-1,-1,-1,-1,-1,-1],"split_conditions":[2E0,2E0,4.47E1,3.88E1,1E0,3.66E1,5.4450244E-5,2.75E1,5.7E1,2.1E1,3.74E1,7.6457867E-3,4.6568112E-3,2.17E1,2.39E1,4.74E1,5.4E1,4.5853504E-3,2E0,2.9440692E-3,7.05E1,1E0,3.94E1,-5.8881985E-3,2.64E1,3.22E1,3.67E1,1E0,7.43E1,4.32E1,2.95E1,4.8478916E-3,6.562987E-3,-1.0459365E-3,-4.082237E-3,6.5079104E-4,-1.0163822E-3,4.4844048E-5,-2.61897E-3,8.4969366E-4,-7.882035E-4,-8.223507E-4,2.9961793E-3,-1.551276E-3,1.7126062E-3,-2.4070998E-3,5.4421125E-4,6.821478E-4,-9.5504243E-4,1.5265532E-3,2.688163E-3],"split_indices":[34,9,0,36,2,0,0,36,44,16,0,0,0,4,4,4,4,0,27,0,0,1,20,0,4,44,32,27,36,0,0,0,0,0,0,0,0,0,0,0,0,0,0,0,0,0,0,0,0,0,0],"split_type":[0,0,0,0,0,0,0,0,0,0,0,0,0,0,0,0,0,0,0,0,0,0,0,0,0,0,0,0,0,0,0,0,0,0,0,0,0,0,0,0,0,0,0,0,0,0,0,0,0,0,0],"sum_hessian":[3.948099E4,3.8326715E4,1.1542709E3,3.1484898E4,6.8418184E3,8.044251E2,3.498457E2,8.1032827E3,2.3381615E4,5.319968E3,1.5218505E3,4.5395496E2,3.5047015E2,4.0328022E3,4.0704807E3,1.34001455E4,9.98147E3,3.924634E2,4.9275044E3,3.866758E2,1.1351747E3,9.812432E2,3.0515588E3,6.6345685E2,3.4070237E3,6.6022104E3,6.7979346E3,2.8445312E3,7.1369385E3,3.8535554E3,1.073949E3,7.746363E2,3.6053833E2,2.9059222E2,6.90651E2,2.0465562E3,1.00500275E3,3.6831027E2,3.0387136E3,1.8330294E3,4.769181E3,1.7066274E3,5.091307E3,1.0579456E3,1.7865856E3,6.074724E3,1.0622145E3,1.0405109E3,2.8130444E3,3.5923434E2,7.1471466E2],"tree_param":{"num_deleted":"0","num_feature":"48","num_nodes":"51","size_leaf_vector":"1"}},{"base_weights":[-2.2251524E-3,3.4850944E-2,-7.762934E-2,9.216272E-2,-4.4226516E-2,7.431417E-3,-1.18640065E-1,3.7718722E-1,6.779677E-2,-7.472318E-2,2.3099883E-1,1.14203766E-1,-6.740951E-2,-1.6057862E-1,-2.4138202E-3,7.521974E-3,4.481926E-3,-1.4796852E-1,1.0325042E-1,-9.9753894E-2,1.1755828E-1,1.8301919E-1,4.5278054E-3,1.3779037E-1,7.195834E-5,-1.0568045E-1,2.2565795E-3,-4.5702816E-3,-1.4264406E-1,-6.695017E-2,8.2569115E-2,-9.8477334E-2,-6.207208E-3,3.7666988E-2,2.3153952E-1,-2.7678259E-2,-1.5384525E-1,8.933623E-4,2.091489E-3,3.2156932E-3,2.1788587E-3,1.6315726E-3,2.3955852E-3,-1.742874E-1,-4.2578334E-4,-1.6963965E-1,-4.9799725E-2,-1.5690863E-3,-3.569168E-4,1.6849306E-3,1.1822484E-4,8.988856E-4,-2.1225591E-3,7.962567E-5,3.5393096E-3,1.1514184E-3,4.766519E-3,-2.0277414E-3,-4.373168E-5,-4.5515937E-3,-1.8027399E-3,-2.8573049E-3,-1.916595E-3,-3.7598026E-3,-1.9768965E-3,-3.3234744E-4,-1.8418721E-3],"categories":[],"categories_nodes":[],"categories_segments":[],"categories_sizes":[],"default_left":[0,0,0,0,0,0,0,0,0,0,0,0,0,0,0,0,0,0,0,0,0,0,0,0,0,0,0,0,0,0,0,0,0,0,0,0,0,0,0,0,0,0,0,0,0,0,0,0,0,0,0,0,0,0,0,0,0,0,0,0,0,0,0,0,0,0,0],"id":24,"left_children":[1,3,5,7,9,11,13,15,17,19,21,23,25,27,29,-1,-1,31,33,35,37,39,-1,41,-1,43,-1,-1,45,47,49,51,-1,53,55,57,59,-1,-1,-1,-1,-1,-1,61,-1,63,65,-1,-1,-1,-1,-1,-1,-1,-1,-1,-1,-1,-1,-1,-1,-1,-1,-1,-1,-1,-1],"loss_changes":[1.11281166E2,1.2056108E2,4.642447E1,1.0753049E2,9.439316E1,3.5491955E1,4.260739E1,1.164946E1,1.0957717E2,4.920279E1,3.7191696E0,4.1016846E0,2.19878E1,1.719992E1,1.4400167E1,0E0,0E0,2.6927803E1,1.0245328E2,3.4296425E1,1.2233353E0,7.472992E-1,0E0,8.3548546E-1,0E0,1.1060785E1,0E0,0E0,1.4111816E1,2.206911E0,1.963213E0,1.2827936E1,0E0,5.2472336E1,5.3851883E1,1.0572502E1,2.5770279E1,0E0,0E0,0E0,0E0,0E0,0E0,6.2166977E-1,0E0,1.3752563E1,2.9270287E0,0E0,0E0,0E0,0E0,0E0,0E0,0E0,0E0,0E0,0E0,0E0,0E0,0E0,0E0,0E0,0E0,0E0,0E0,0E0,0E0],"parents":[2147483647,0,0,1,1,2,2,3,3,4,4,5,5,6,6,7,7,8,8,9,9,10,10,11,11,12,12,13,13,14,14,17,17,18,18,19,19,20,20,21,21,23,23,25,25,28,28,29,29,30,30,31,31,33,33,34,34,35,35,36,36,43,43,45,45,46,46],"right_children":[2,4,6,8,10,12,14,16,18,20,22,24,26,28,30,-1,-1,32,34,36,38,40,-1,42,-1,44,-1,-1,46,48,50,52,-1,54,56,58,60,-1,-1,-1,-1,-1,-1,62,-1,64,66,-1,-1,-1,-1,-1,-1,-1,-1,-1,-1,-1,-1,-1,-1,-1,-1,-1,-1,-1,-1],"split_conditions":[5.7E1,1E0,5.4E1,2.45E1,2E0,5.19E1,7.09E1,3.87E1,3.93E1,7.03E1,5.35E1,2E0,5.23E1,2.45E1,7.9E1,7.521974E-3,4.481926E-3,1E0,1E0,4.48E1,4.37E1,2.85E1,4.5278054E-3,4.25E1,7.195834E-5,1E0,2.2565795E-3,-4.5702816E-3,1E0,1E0,1E0,2.66E1,-6.207208E-3,5.99E1,4.67E1,3.47E1,2.39E1,8.933623E-4,2.091489E-3,3.2156932E-3,2.1788587E-3,1.6315726E-3,2.3955852E-3,4.91E1,-4.2578334E-4,1E0,1E0,-1.5690863E-3,-3.569168E-4,1.6849306E-3,1.1822484E-4,8.988856E-4,-2.1225591E-3,7.962567E-5,3.5393096E-3,1.1514184E-3,4.766519E-3,-2.0277414E-3,-4.373168E-5,-4.5515937E-3,-1.8027399E-3,-2.8573049E-3,-1.916595E-3,-3.7598026E-3,-1.9768965E-3,-3.3234744E-4,-1.8418721E-3],"split_indices":[44,46,4,16,15,8,36,4,16,40,0,5,4,0,44,0,0,1,37,32,0,0,0,0,0,39,0,0,18,3,1,16,0,20,8,8,4,0,0,0,0,0,0,0,0,13,7,0,0,0,0,0,0,0,0,0,0,0,0,0,0,0,0,0,0,0,0],"split_type":[0,0,0,0,0,0,0,0,0,0,0,0,0,0,0,0,0,0,0,0,0,0,0,0,0,0,0,0,0,0,0,0,0,0,0,0,0,0,0,0,0,0,0,0,0,0,0,0,0,0,0,0,0,0,0,0,0,0,0,0,0,0,0,0,0,0,0],"sum_hessian":[3.9331656E4,2.6322943E4,1.3008713E4,1.5298409E4,1.1024533E4,4.1923066E3,8.816406E3,1.1875206E3,1.4110889E4,9.941814E3,1.0827188E3,1.7549198E3,2.4373867E3,6.4467783E3,2.3696277E3,4.3565637E2,7.518642E2,1.9710698E3,1.2139819E4,8.820118E3,1.121696E3,6.883665E2,3.9435226E2,1.4058898E3,3.490301E2,2.092851E3,3.445356E2,6.8270667E2,5.764072E3,1.3803969E3,9.892309E2,1.6781842E3,2.9288556E2,8.0597925E3,4.0800266E3,3.8217122E3,4.9984062E3,3.6855902E2,7.531371E2,3.0364035E2,3.847262E2,7.0041125E2,7.054786E2,1.0740817E3,1.0187695E3,4.4232725E3,1.3407994E3,6.760681E2,7.0432874E2,6.601791E2,3.2905185E2,3.3237115E2,1.3458131E3,6.9497725E3,1.11002E3,1.475692E3,2.6043345E3,6.7793085E2,3.1437815E3,8.95285E2,4.103121E3,7.187149E2,3.553668E2,1.3734113E3,3.0498613E3,1.0222614E3,3.18538E2],"tree_param":{"num_deleted":"0","num_feature":"48","num_nodes":"67","size_leaf_vector":"1"}},{"base_weights":[-2.1769446E-3,3.4113787E-2,-7.395143E-2,7.4713625E-2,-1.1978314E-1,1.4527045E-2,-1.1755123E-1,8.086581E-3,1.5144718E-1,-3.2061103E-1,-7.367455E-2,-7.4237116E-2,9.783261E-2,-1.5002914E-1,1.3544105E-2,-3.7462287E-2,1.6360737E-1,1.2087023E-1,7.086606E-3,-4.0173843E-3,-6.2259594E-3,1.4084034E-2,-1.7885225E-1,1.5162743E-3,-1.11702785E-1,2.7669014E-2,2.4077084E-3,-4.554417E-3,-1.3362235E-1,8.421034E-2,-7.701956E-2,-6.545129E-2,4.6492115E-2,2.8586516E-1,-1.5342576E-2,6.630029E-2,2.4677572E-1,-4.299666E-2,1.5442184E-1,-2.943194E-3,-1.104972E-3,-1.729987E-1,-4.0072246E-4,1.4996254E-3,-8.736726E-6,-1.15207136E-1,-2.7490443E-1,1.0467371E-4,1.675404E-3,-2.8426107E-4,-1.8783272E-3,6.144473E-4,-1.4131878E-3,1.1774944E-3,-1.9800165E-3,2.6279073E-3,5.818782E-3,6.984433E-5,-4.8580626E-4,2.0237148E-3,-3.0676852E-4,4.734993E-3,8.5533503E-4,-1.9094978E-3,-2.4760858E-4,2.8713937E-3,1.4245053E-3,-2.833046E-3,-1.8832063E-3,-2.4229768E-3,-1.2193116E-3,-4.4718045E-3,-3.568906E-3],"categories":[],"categories_nodes":[],"categories_segments":[],"categories_sizes":[],"default_left":[0,0,0,0,0,0,0,0,0,0,0,0,0,0,0,0,0,0,0,0,0,0,0,0,0,0,0,0,0,0,0,0,0,0,0,0,0,0,0,0,0,0,0,0,0,0,0,0,0,0,0,0,0,0,0,0,0,0,0,0,0,0,0,0,0,0,0,0,0,0,0,0,0],"id":25,"left_children":[1,3,5,7,9,11,13,15,17,19,21,23,25,27,29,31,33,35,-1,-1,-1,37,39,-1,41,43,-1,-1,45,47,49,51,53,55,57,59,61,63,65,-1,-1,67,-1,-1,-1,69,71,-1,-1,-1,-1,-1,-1,-1,-1,-1,-1,-1,-1,-1,-1,-1,-1,-1,-1,-1,-1,-1,-1,-1,-1,-1,-1],"loss_changes":[1.03754974E2,1.6439752E2,5.2253845E1,1.0572306E2,5.0944214E1,3.3796898E1,3.9129135E1,8.119175E1,9.513899E1,5.0410614E0,4.290901E1,1.5054238E1,9.89822E0,1.8688568E1,1.2665873E1,2.0959E1,5.829016E1,6.047815E1,0E0,0E0,0E0,2.1542345E1,3.2159882E0,0E0,8.901817E0,3.4812179E0,0E0,0E0,1.7538673E1,1.8810711E0,1.9921217E0,2.0651468E1,1.3303402E1,1.7058907E1,7.0006514E-1,3.7869354E1,3.3398254E1,4.0204964E0,1.4361725E0,0E0,0E0,5.38599E-1,0E0,0E0,0E0,9.144676E0,4.6866608E-1,0E0,0E0,0E0,0E0,0E0,0E0,0E0,0E0,0E0,0E0,0E0,0E0,0E0,0E0,0E0,0E0,0E0,0E0,0E0,0E0,0E0,0E0,0E0,0E0,0E0,0E0],"parents":[2147483647,0,0,1,1,2,2,3,3,4,4,5,5,6,6,7,7,8,8,9,9,10,10,11,11,12,12,13,13,14,14,15,15,16,16,17,17,21,21,22,22,24,24,25,25,28,28,29,29,30,30,31,31,32,32,33,33,34,34,35,35,36,36,37,37,38,38,41,41,45,45,46,46],"right_children":[2,4,6,8,10,12,14,16,18,20,22,24,26,28,30,32,34,36,-1,-1,-1,38,40,-1,42,44,-1,-1,46,48,50,52,54,56,58,60,62,64,66,-1,-1,68,-1,-1,-1,70,72,-1,-1,-1,-1,-1,-1,-1,-1,-1,-1,-1,-1,-1,-1,-1,-1,-1,-1,-1,-1,-1,-1,-1,-1,-1,-1],"split_conditions":[5.7E1,1E0,5.4E1,4.45E1,2.33E1,1E0,7.85E1,6.34E1,2E0,2.17E1,4.34E1,4.25E1,1E0,2.45E1,1E0,1E0,1E0,1E0,7.086606E-3,-4.0173843E-3,-6.2259594E-3,4.25E1,2E0,1.5162743E-3,1E0,3.87E1,2.4077084E-3,-4.554417E-3,7.42E1,1E0,3.01E1,4.23E1,4.85E1,1E0,7.09E1,4.66E1,1E0,3.08E1,3.92E1,-2.943194E-3,-1.104972E-3,4.91E1,-4.0072246E-4,1.4996254E-3,-8.736726E-6,5.53E1,6.96E1,1.0467371E-4,1.675404E-3,-2.8426107E-4,-1.8783272E-3,6.144473E-4,-1.4131878E-3,1.1774944E-3,-1.9800165E-3,2.6279073E-3,5.818782E-3,6.984433E-5,-4.8580626E-4,2.0237148E-3,-3.0676852E-4,4.734993E-3,8.5533503E-4,-1.9094978E-3,-2.4760858E-4,2.8713937E-3,1.4245053E-3,-2.833046E-3,-1.8832063E-3,-2.4229768E-3,-1.2193116E-3,-4.4718045E-3,-3.568906E-3],"split_indices":[44,38,4,12,4,25,44,0,17,4,4,0,27,0,39,22,46,3,0,0,0,4,9,0,39,0,0,0,24,9,0,0,4,2,0,44,17,4,0,0,0,0,0,0,0,28,0,0,0,0,0,0,0,0,0,0,0,0,0,0,0,0,0,0,0,0,0,0,0,0,0,0,0],"split_type":[0,0,0,0,0,0,0,0,0,0,0,0,0,0,0,0,0,0,0,0,0,0,0,0,0,0,0,0,0,0,0,0,0,0,0,0,0,0,0,0,0,0,0,0,0,0,0,0,0,0,0,0,0,0,0,0,0,0,0,0,0,0,0,0,0,0,0,0,0,0,0,0,0],"sum_hessian":[3.9348047E4,2.6088166E4,1.325988E4,2.0668559E4,5.419608E3,4.3395264E3,8.920354E3,1.1098284E4,9.570274E3,9.906029E2,4.429005E3,2.0719263E3,2.2676003E3,7.1796445E3,1.7407084E3,8.55988E3,2.538405E3,8.751852E3,8.1842285E2,6.6889044E2,3.2171246E2,2.388994E3,2.0400109E3,3.4123773E2,1.7306885E3,1.1062805E3,1.1613197E3,6.6345966E2,6.516185E3,1.0088158E3,7.318925E2,6.4644995E3,2.0953801E3,1.5243319E3,1.01407324E3,6.1343438E3,2.6175078E3,1.6734172E3,7.155768E2,1.7136145E3,3.2639633E2,9.709087E2,7.597798E2,3.603171E2,7.4596344E2,5.7976978E3,7.184873E2,3.117702E2,6.970456E2,3.7896927E2,3.5292328E2,1.3339004E3,5.130599E3,1.8016831E3,2.9369684E2,7.5324E2,7.7109186E2,3.311727E2,6.829006E2,3.460846E3,2.673498E3,1.9040055E3,7.135023E2,3.5491107E2,1.3185061E3,3.894031E2,3.2617368E2,6.50002E2,3.2090668E2,2.3984697E3,3.399228E3,3.584873E2,3.6E2],"tree_param":{"num_deleted":"0","num_feature":"48","num_nodes":"73","size_leaf_vector":"1"}},{"base_weights":[-4.741509E-4,-1.0001406E-2,3.0053538E-1,-4.240533E-2,5.2737527E-2,4.0202317E-1,3.1945354E-5,-1.3233818E-2,-1.4353381E-1,1.6039145E-1,-3.554491E-2,4.560042E-3,7.305203E-3,-3.1325758E-2,1.9865559E-1,-8.9893654E-2,-2.723126E-1,6.0216994E-3,3.0451283E-1,1.379072E-2,-1.2301272E-1,-5.379118E-2,8.357655E-2,2.1494816E-3,4.9935784E-3,2.4524607E-2,-1.432298E-1,-3.6216307E-1,-2.1238144E-1,-3.891013E-2,4.4206628E-3,6.4298986E-3,2.1898615E-1,-8.235182E-2,7.5143114E-2,-3.102144E-3,-7.079223E-2,-3.1487274E-4,-2.3559812E-3,3.0294736E-3,-4.7781717E-4,9.182398E-4,-9.73784E-4,-8.340628E-4,-2.5423279E-3,-6.2056044E-3,-4.423365E-3,-3.5708363E-3,-2.9048328E-3,-1.4667389E-3,4.889114E-4,4.378751E-3,2.5001706E-3,-2.008798E-3,-6.423602E-4,3.0623804E-4,1.8842756E-3,-1.965281E-3,-3.8276095E-4],"categories":[],"categories_nodes":[],"categories_segments":[],"categories_sizes":[],"default_left":[0,0,0,0,0,0,0,0,0,0,0,0,0,0,0,0,0,0,0,0,0,0,0,0,0,0,0,0,0,0,0,0,0,0,0,0,0,0,0,0,0,0,0,0,0,0,0,0,0,0,0,0,0,0,0,0,0,0,0],"id":26,"left_children":[1,3,5,7,9,11,-1,13,15,17,19,-1,-1,21,23,25,27,29,31,33,35,37,39,-1,-1,41,43,45,47,49,-1,-1,51,53,55,-1,57,-1,-1,-1,-1,-1,-1,-1,-1,-1,-1,-1,-1,-1,-1,-1,-1,-1,-1,-1,-1,-1,-1],"loss_changes":[1.14495926E2,7.837851E1,3.5088554E1,7.4746185E1,1.2508213E2,7.055069E0,0E0,7.651159E1,3.908156E1,1.3027313E2,3.2143738E1,0E0,0E0,4.761196E1,1.1649021E1,2.5707085E1,8.800308E0,4.142554E1,3.1929688E1,2.79254E1,1.1447048E1,5.1664963E1,4.2180832E1,0E0,0E0,5.0512643E0,5.9563446E0,1.9116745E0,4.7101974E-1,1.1516947E1,0E0,0E0,6.933838E0,3.5518198E0,7.622463E0,0E0,4.514106E0,0E0,0E0,0E0,0E0,0E0,0E0,0E0,0E0,0E0,0E0,0E0,0E0,0E0,0E0,0E0,0E0,0E0,0E0,0E0,0E0,0E0,0E0],"parents":[2147483647,0,0,1,1,2,2,3,3,4,4,5,5,7,7,8,8,9,9,10,10,13,13,14,14,15,15,16,16,17,17,18,18,19,19,20,20,21,21,22,22,25,25,26,26,27,27,28,28,29,29,32,32,33,33,34,34,36,36],"right_children":[2,4,6,8,10,12,-1,14,16,18,20,-1,-1,22,24,26,28,30,32,34,36,38,40,-1,-1,42,44,46,48,50,-1,-1,52,54,56,-1,58,-1,-1,-1,-1,-1,-1,-1,-1,-1,-1,-1,-1,-1,-1,-1,-1,-1,-1,-1,-1,-1,-1],"split_conditions":[2E0,1E0,1E0,2E0,5.28E1,1E0,3.1945354E-5,3E0,1E0,4.3E1,1E0,4.560042E-3,7.305203E-3,6.97E1,1E0,4.25E1,1E0,1E0,5.46E1,3.6E1,5.93E1,5.7E1,1E0,2.1494816E-3,4.9935784E-3,1E0,3.65E1,2E0,1E0,5.23E1,4.4206628E-3,6.4298986E-3,3.23E1,2.95E1,2E0,-3.102144E-3,2E0,-3.1487274E-4,-2.3559812E-3,3.0294736E-3,-4.7781717E-4,9.182398E-4,-9.73784E-4,-8.340628E-4,-2.5423279E-3,-6.2056044E-3,-4.423365E-3,-3.5708363E-3,-2.9048328E-3,-1.4667389E-3,4.889114E-4,4.378751E-3,2.5001706E-3,-2.008798E-3,-6.423602E-4,3.0623804E-4,1.8842756E-3,-1.965281E-3,-3.8276095E-4],"split_indices":[34,37,1,45,44,7,0,27,3,40,1,0,0,32,11,40,25,3,16,16,32,44,43,0,0,1,32,3,5,28,0,0,28,8,33,0,37,0,0,0,0,0,0,0,0,0,0,0,0,0,0,0,0,0,0,0,0,0,0],"split_type":[0,0,0,0,0,0,0,0,0,0,0,0,0,0,0,0,0,0,0,0,0,0,0,0,0,0,0,0,0,0,0,0,0,0,0,0,0,0,0,0,0,0,0,0,0,0,0,0,0,0,0,0,0,0,0,0,0,0,0],"sum_hessian":[3.934804E4,3.8157883E4,1.190158E3,2.521477E4,1.2943113E4,8.753512E2,3.148067E2,1.9608947E4,5.605822E3,5.8568887E3,7.0862246E3,4.332839E2,4.420673E2,1.8088896E4,1.5200507E3,3.986042E3,1.6197797E3,2.8451536E3,3.0117354E3,4.494698E3,2.5915261E3,1.5167441E4,2.9214546E3,1.101886E3,4.1816467E2,1.2376957E3,2.7483462E3,6.1271246E2,1.00706714E3,2.4472356E3,3.9791785E2,1.2064913E3,1.8052439E3,1.7190364E3,2.775662E3,9.591114E2,1.6324147E3,1.1540689E4,3.6267527E3,1.4647694E3,1.4566852E3,9.179219E2,3.197738E2,6.735046E2,2.0748418E3,3.0449115E2,3.082213E2,3.1382294E2,6.9324426E2,1.3814034E3,1.0658322E3,7.165525E2,1.0886914E3,6.921068E2,1.0269296E3,1.3772101E3,1.398452E3,6.538076E2,9.78607E2],"tree_param":{"num_deleted":"0","num_feature":"48","num_nodes":"59","size_leaf_vector":"1"}},{"base_weights":[5.0183426E-4,3.76094E-2,-7.462329E-2,7.6815374E-2,-1.130933E-1,5.8711586E-3,-1.1354569E-1,7.8215385E-3,1.5119813E-1,-2.913879E-1,-5.7479527E-2,1.1393046E-1,-6.658584E-2,-1.4753129E-1,1.4806284E-2,-2.5013208E-2,1.6922162E-1,4.4468608E-1,1.2242059E-1,-2.4494842E-1,-6.21058E-3,1.7173765E-2,-1.7271012E-1,1.3386741E-1,3.1318054E-5,-1.0120794E-1,2.1699965E-3,-4.5310594E-3,-1.3107891E-1,8.083489E-2,-7.6041326E-2,4.153528E-3,-3.7465006E-2,9.3890834E-5,2.0545235E-1,7.188276E-3,6.033548E-3,2.338972E-1,7.864769E-2,-3.215336E-3,-4.3600006E-3,-3.9805982E-2,1.5052083E-1,-2.9026358E-3,-1.0959702E-3,1.6006591E-3,2.3269304E-3,-1.7090909E-1,-4.226749E-4,-1.1406655E-1,-4.0923166E-3,1.6438683E-3,1.5612037E-4,-2.776283E-4,-1.8568964E-3,-1.021779E-3,1.2457496E-3,2.5148825E-3,4.3778373E-3,5.2231187E-3,8.507372E-4,3.0850426E-3,2.0521018E-4,-1.8743555E-3,-2.522656E-4,2.8252194E-3,1.4131105E-3,-2.8150578E-3,-1.892347E-3,-2.4862334E-3,-1.2790299E-3],"categories":[],"categories_nodes":[],"categories_segments":[],"categories_sizes":[],"default_left":[0,0,0,0,0,0,0,0,0,0,0,0,0,0,0,0,0,0,0,0,0,0,0,0,0,0,0,0,0,0,0,0,0,0,0,0,0,0,0,0,0,0,0,0,0,0,0,0,0,0,0,0,0,0,0,0,0,0,0,0,0,0,0,0,0,0,0,0,0,0,0],"id":27,"left_children":[1,3,5,7,9,11,13,15,17,19,21,23,25,27,29,31,33,35,37,39,-1,41,43,45,-1,47,-1,-1,49,51,53,-1,55,-1,57,-1,-1,59,61,-1,-1,63,65,-1,-1,-1,-1,67,-1,69,-1,-1,-1,-1,-1,-1,-1,-1,-1,-1,-1,-1,-1,-1,-1,-1,-1,-1,-1,-1,-1],"loss_changes":[1.1081718E2,1.5750755E2,4.1679268E1,1.0779752E2,5.4442047E1,3.481577E1,3.9526115E1,6.0516747E1,8.632306E1,7.4733047E0,3.7906445E1,3.355116E0,1.9729078E1,1.8362091E1,1.2318469E1,3.571326E1,1.0428162E1,1.0485382E0,4.5154953E1,1.342205E0,0E0,2.1287767E1,2.994053E0,7.647152E-1,0E0,1.0946821E1,0E0,0E0,1.5845108E1,1.9686937E0,1.9501672E0,0E0,3.3131306E1,0E0,5.12175E0,0E0,0E0,5.1270996E1,5.491967E1,0E0,0E0,3.6832232E0,1.5310192E0,0E0,0E0,0E0,0E0,6.251068E-1,0E0,8.571785E0,0E0,0E0,0E0,0E0,0E0,0E0,0E0,0E0,0E0,0E0,0E0,0E0,0E0,0E0,0E0,0E0,0E0,0E0,0E0,0E0,0E0],"parents":[2147483647,0,0,1,1,2,2,3,3,4,4,5,5,6,6,7,7,8,8,9,9,10,10,11,11,12,12,13,13,14,14,15,15,16,16,17,17,18,18,19,19,21,21,22,22,23,23,25,25,28,28,29,29,30,30,32,32,34,34,37,37,38,38,41,41,42,42,47,47,49,49],"right_children":[2,4,6,8,10,12,14,16,18,20,22,24,26,28,30,32,34,36,38,40,-1,42,44,46,-1,48,-1,-1,50,52,54,-1,56,-1,58,-1,-1,60,62,-1,-1,64,66,-1,-1,-1,-1,68,-1,70,-1,-1,-1,-1,-1,-1,-1,-1,-1,-1,-1,-1,-1,-1,-1,-1,-1,-1,-1,-1,-1],"split_conditions":[5.7E1,1E0,5.4E1,5.19E1,3.38E1,5.19E1,7.85E1,5.61E1,4.12E1,1E0,4.34E1,2E0,5.23E1,2.45E1,1E0,1.55E1,4.34E1,3.66E1,1E0,4.19E1,-6.21058E-3,4.25E1,4.66E1,4.25E1,3.1318054E-5,1E0,2.1699965E-3,-4.5310594E-3,7.42E1,1E0,3.01E1,4.153528E-3,1E0,9.3890834E-5,7.46E1,7.188276E-3,6.033548E-3,1E0,3.09E1,-3.215336E-3,-4.3600006E-3,3.08E1,3.92E1,-2.9026358E-3,-1.0959702E-3,1.6006591E-3,2.3269304E-3,4.91E1,-4.226749E-4,1E0,-4.0923166E-3,1.6438683E-3,1.5612037E-4,-2.776283E-4,-1.8568964E-3,-1.021779E-3,1.2457496E-3,2.5148825E-3,4.3778373E-3,5.2231187E-3,8.507372E-4,3.0850426E-3,2.0521018E-4,-1.8743555E-3,-2.522656E-4,2.8252194E-3,1.4131105E-3,-2.8150578E-3,-1.892347E-3,-2.4862334E-3,-1.2790299E-3],"split_indices":[44,38,4,8,8,8,44,20,16,6,4,5,4,0,39,0,4,0,43,0,0,4,20,0,0,11,0,0,24,7,0,0,10,0,4,0,0,31,20,0,0,4,0,0,0,0,0,0,0,43,0,0,0,0,0,0,0,0,0,0,0,0,0,0,0,0,0,0,0,0,0],"split_type":[0,0,0,0,0,0,0,0,0,0,0,0,0,0,0,0,0,0,0,0,0,0,0,0,0,0,0,0,0,0,0,0,0,0,0,0,0,0,0,0,0,0,0,0,0,0,0,0,0,0,0,0,0,0,0,0,0,0,0,0,0,0,0,0,0,0,0,0,0,0,0],"sum_hessian":[3.9415625E4,2.6428496E4,1.2987128E4,2.0999145E4,5.429352E3,4.1913965E3,8.795732E3,1.0929654E4,1.006949E4,1.2684926E3,4.16086E3,1.709843E3,2.4815535E3,6.9850156E3,1.8107166E3,9.056993E3,1.8726613E3,8.823761E2,9.187114E3,9.507547E2,3.1773782E2,2.4991926E3,1.6616671E3,1.4130579E3,2.9678513E2,2.1526301E3,3.289232E2,6.4277014E2,6.342245E3,1.0805289E3,7.301877E2,3.4241943E2,8.714573E3,3.6591214E2,1.5067491E3,4.2304306E2,4.59333E2,2.5568938E3,6.63022E3,6.3431537E2,3.1643933E2,1.7252091E3,7.739835E2,1.3357339E3,3.259332E2,7.210422E2,6.920157E2,1.0660002E3,1.0866299E3,5.694137E3,6.481083E2,7.17615E2,3.629139E2,3.786183E2,3.515694E2,6.9839688E3,1.7306046E3,1.0870842E3,4.1966492E2,1.5393201E3,1.0175737E3,2.2206155E3,4.409605E3,3.2039655E2,1.4048125E3,4.101432E2,3.6384033E2,6.9599603E2,3.7000427E2,1.9849756E3,3.7091614E3],"tree_param":{"num_deleted":"0","num_feature":"48","num_nodes":"71","size_leaf_vector":"1"}},{"base_weights":[-0E0,-8.952021E-3,2.971282E-1,-3.2762002E-2,1.00428E-1,4.0032864E-1,3.934161E-5,-3.9361265E-2,5.952558E-3,1.5290698E-1,-2.2643242E-2,4.440011E-3,7.101939E-3,-4.4417582E-2,6.2475665E-3,2.2017881E-1,-1.6408876E-2,-6.599356E-2,2.1924367E-3,-1.19244136E-1,-1.7477283E-2,6.1231054E-2,2.899976E-1,8.4367226E-4,-4.751586E-2,-3.92035E-2,-2.6270503E-3,-6.717049E-4,-2.895387E-3,3.4798792E-4,-1.5328426E-3,1.5659552E-3,-3.0761628E-4,2.9096925E-3,5.022077E-3,-1.0890131E-3,-4.130799E-4,-3.723158E-4,-1.0019745E-3],"categories":[],"categories_nodes":[],"categories_segments":[],"categories_sizes":[],"default_left":[0,0,0,0,0,0,0,0,0,0,0,0,0,0,0,0,0,0,0,0,0,0,0,0,0,0,0,0,0,0,0,0,0,0,0,0,0,0,0],"id":28,"left_children":[1,3,5,7,9,11,-1,13,-1,15,17,-1,-1,19,-1,21,23,25,-1,27,29,31,33,-1,35,37,-1,-1,-1,-1,-1,-1,-1,-1,-1,-1,-1,-1,-1],"loss_changes":[1.0883471E2,1.0012011E2,3.440561E1,9.094711E1,4.5149643E1,6.143402E0,0E0,7.341441E1,0E0,5.6267952E1,1.6099201E1,0E0,0E0,6.1789337E1,0E0,3.7709473E1,3.8528757E0,5.1090274E0,0E0,4.3999336E1,7.881468E1,4.827389E0,9.784164E0,0E0,5.155759E-1,5.921154E-1,0E0,0E0,0E0,0E0,0E0,0E0,0E0,0E0,0E0,0E0,0E0,0E0,0E0],"parents":[2147483647,0,0,1,1,2,2,3,3,4,4,5,5,7,7,9,9,10,10,13,13,15,15,16,16,17,17,19,19,20,20,21,21,22,22,24,24,25,25],"right_children":[2,4,6,8,10,12,-1,14,-1,16,18,-1,-1,20,-1,22,24,26,-1,28,30,32,34,-1,36,38,-1,-1,-1,-1,-1,-1,-1,-1,-1,-1,-1,-1,-1],"split_conditions":[2E0,2E0,1E0,4E0,5.85E1,2.54E1,3.934161E-5,8E0,5.952558E-3,6.41E1,3E0,4.440011E-3,7.101939E-3,3.88E1,6.2475665E-3,4.05E1,6.53E1,6.95E1,2.1924367E-3,2.75E1,5.98E1,1E0,4.16E1,8.4367226E-4,1E0,6.67E1,-2.6270503E-3,-6.717049E-4,-2.895387E-3,3.4798792E-4,-1.5328426E-3,1.5659552E-3,-3.0761628E-4,2.9096925E-3,5.022077E-3,-1.0890131E-3,-4.130799E-4,-3.723158E-4,-1.0019745E-3],"split_indices":[34,9,1,31,12,4,0,47,0,8,1,0,0,36,0,8,8,32,0,36,4,1,24,0,1,4,0,0,0,0,0,0,0,0,0,0,0,0,0],"split_type":[0,0,0,0,0,0,0,0,0,0,0,0,0,0,0,0,0,0,0,0,0,0,0,0,0,0,0,0,0,0,0,0,0,0,0,0,0,0,0],"sum_hessian":[3.9256734E4,3.809422E4,1.1625138E3,3.1322346E4,6.7718755E3,8.480186E2,3.144952E2,3.0860232E4,4.6211282E2,4.775803E3,1.9960724E3,3.770715E2,4.7094708E2,3.0533018E4,3.272143E2,3.4387603E3,1.3370428E3,1.6118888E3,3.841836E2,8.0328354E3,2.2500184E4,1.0719276E3,2.3668325E3,3.5267938E2,9.8436346E2,1.3315773E3,2.8031155E2,4.0233977E3,4.0094375E3,1.515719E4,7.3429927E3,7.4212646E2,3.298012E2,7.8344617E2,1.5833864E3,3.2557617E2,6.587873E2,9.941195E2,3.3745776E2],"tree_param":{"num_deleted":"0","num_feature":"48","num_nodes":"39","size_leaf_vector":"1"}},{"base_weights":[4.7281975E-4,-8.105686E-3,2.7915716E-1,-1.2914333E-2,5.864854E-3,3.8647437E-1,6.287215E-5,-1.7253384E-2,