{"learner":{"attributes":{"scikit_learn":"{\"_estimator_type\": \"classifier\"}"},"feature_names":[],"feature_types":[],"gradient_booster":{"model":{"cats":{"enc":[],"feature_segments":[],"sorted_idx":[]},"gbtree_model_param":{"num_parallel_tree":"1","num_trees":"300"},"iteration_indptr":[0,1,2,3,4,5,6,7,8,9,10,11,12,13,14,15,16,17,18,19,20,21,22,23,24,25,26,27,28,29,30,31,32,33,34,35,36,37,38,39,40,41,42,43,44,45,46,47,48,49,50,51,52,53,54,55,56,57,58,59,60,61,62,63,64,65,66,67,68,69,70,71,72,73,74,75,76,77,78,79,80,81,82,83,84,85,86,87,88,89,90,91,92,93,94,95,96,97,98,99,100,101,102,103,104,105,106,107,108,109,110,111,112,113,114,115,116,117,118,119,120,121,122,123,124,125,126,127,128,129,130,131,132,133,134,135,136,137,138,139,140,141,142,143,144,145,146,147,148,149,150,151,152,153,154,155,156,157,158,159,160,161,162,163,164,165,166,167,168,169,170,171,172,173,174,175,176,177,178,179,180,181,182,183,184,185,186,187,188,189,190,191,192,193,194,195,196,197,198,199,200,201,202,203,204,205,206,207,208,209,210,211,212,213,214,215,216,217,218,219,220,221,222,223,224,225,226,227,228,229,230,231,232,233,234,235,236,237,238,239,240,241,242,243,244,245,246,247,248,249,250,251,252,253,254,255,256,257,258,259,260,261,262,263,264,265,266,267,268,269,270,271,272,273,274,275,276,277,278,279,280,281,282,283,284,285,286,287,288,289,290,291,292,293,294,295,296,297,298,299,300],"tree_info":[0,0,0,0,0,0,0,0,0,0,0,0,0,0,0,0,0,0,0,0,0,0,0,0,0,0,0,0,0,0,0,0,0,0,0,0,0,0,0,0,0,0,0,0,0,0,0,0,0,0,0,0,0,0,0,0,0,0,0,0,0,0,0,0,0,0,0,0,0,0,0,0,0,0,0,0,0,0,0,0,0,0,0,0,0,0,0,0,0,0,0,0,0,0,0,0,0,0,0,0,0,0,0,0,0,0,0,0,0,0,0,0,0,0,0,0,0,0,0,0,0,0,0,0,0,0,0,0,0,0,0,0,0,0,0,0,0,0,0,0,0,0,0,0,0,0,0,0,0,0,0,0,0,0,0,0,0,0,0,0,0,0,0,0,0,0,0,0,0,0,0,0,0,0,0,0,0,0,0,0,0,0,0,0,0,0,0,0,0,0,0,0,0,0,0,0,0,0,0,0,0,0,0,0,0,0,0,0,0,0,0,0,0,0,0,0,0,0,0,0,0,0,0,0,0,0,0,0,0,0,0,0,0,0,0,0,0,0,0,0,0,0,0,0,0,0,0,0,0,0,0,0,0,0,0,0,0,0,0,0,0,0,0,0,0,0,0,0,0,0,0,0,0,0,0,0,0,0,0,0,0,0,0,0,0,0,0,0,0,0,0,0,0,0,0,0,0,0,0,0],"trees":[{"base_weights":[4.0758606E-3,-4.886742E-1,7.9756045E-1,-1.7657604E0,-1.4068925E-1,1.930952E0,2.205593E-1,-5.7986204E-2,1.02541335E-1,-2.2074488E-1,6.3357025E-1,1.9910338E0,-3.2896344E-2,1.1378136E-1,1.2601173E0,-1.9968167E-1,2.6879586E-2,-3.0563775E-1,6.8454124E-2,8.3421886E-1,1.6428268E-1,5.174299E-1,2.0275764E0,5.2659845E-1,2.059594E-2,7.1310317E-3,1.349729E0,-1.4662623E-2,1.4017829E-2,-8.107422E-3,-4.8400044E-2,4.5898773E-2,-4.356765E-4,1.9315148E-2,4.3638468E-2,-1.1178958E-2,1.6654724E-2,-5.728822E-3,3.6651503E-2,3.153462E-2,6.1458807E-2,-2.6381329E-2,1.9777529E-2,2.4299046E-3,-1.5641844E-2,4.267797E-2,8.397953E-3],"categories":[],"categories_nodes":[],"categories_segments":[],"categories_sizes":[],"default_left":[0,0,0,0,0,0,0,0,0,0,0,0,0,0,0,0,0,0,0,0,0,0,0,0,0,0,0,0,0,0,0,0,0,0,0,0,0,0,0,0,0,0,0,0,0,0,0],"id":0,"left_children":[1,3,5,7,9,11,13,-1,15,17,19,21,-1,23,25,27,-1,29,31,33,35,37,39,41,43,-1,45,-1,-1,-1,-1,-1,-1,-1,-1,-1,-1,-1,-1,-1,-1,-1,-1,-1,-1,-1,-1],"loss_changes":[7.41625E2,5.1853735E2,4.7385876E2,7.9180115E1,5.698785E1,4.715796E1,5.2793823E1,0E0,5.618654E0,2.0652905E1,7.4548645E0,1.0631653E1,0E0,1.6627441E1,2.9591904E0,3.2732368E0,0E0,2.8586258E1,2.371115E1,5.006523E0,6.117182E0,4.4877644E0,1.1074829E0,1.5377724E1,1.1630031E1,0E0,1.8856506E0,0E0,0E0,0E0,0E0,0E0,0E0,0E0,0E0,0E0,0E0,0E0,0E0,0E0,0E0,0E0,0E0,0E0,0E0,0E0,0E0],"parents":[2147483647,0,0,1,1,2,2,3,3,4,4,5,5,6,6,8,8,9,9,10,10,11,11,13,13,14,14,15,15,17,17,18,18,19,19,20,20,21,21,22,22,23,23,24,24,26,26],"right_children":[2,4,6,8,10,12,14,-1,16,18,20,22,-1,24,26,28,-1,30,32,34,36,38,40,42,44,-1,46,-1,-1,-1,-1,-1,-1,-1,-1,-1,-1,-1,-1,-1,-1,-1,-1,-1,-1,-1,-1],"split_conditions":[3E0,4E-1,2E0,3E0,4.278331E2,2.3570225E0,3.9381873E2,-5.7986204E-2,8.0812144E-1,3.2E0,1.6709316E3,2.25E0,-3.2896344E-2,1.2757617E3,-8E-1,3.25E0,2.6879586E-2,1.0396885E0,2.773598E-1,1.9846439E3,4.2E2,1.28E0,2E0,1E-1,2.0202207E3,7.1310317E-3,8.3E1,-1.4662623E-2,1.4017829E-2,-8.107422E-3,-4.8400044E-2,4.5898773E-2,-4.356765E-4,1.9315148E-2,4.3638468E-2,-1.1178958E-2,1.6654724E-2,-5.728822E-3,3.6651503E-2,3.153462E-2,6.1458807E-2,-2.6381329E-2,1.9777529E-2,2.4299046E-3,-1.5641844E-2,4.267797E-2,8.397953E-3],"split_indices":[28,22,34,34,41,22,2,0,48,25,1,25,0,1,13,25,0,59,52,0,42,45,30,15,1,0,34,0,0,0,0,0,0,0,0,0,0,0,0,0,0,0,0,0,0,0,0],"split_type":[0,0,0,0,0,0,0,0,0,0,0,0,0,0,0,0,0,0,0,0,0,0,0,0,0,0,0,0,0,0,0,0,0,0,0,0,0,0,0,0,0,0,0,0,0,0,0],"sum_hessian":[1.894398E3,1.1685118E3,7.2588617E2,2.490394E2,9.194724E2,2.4379382E2,4.8209232E2,2.288065E2,2.023289E1,8.3454425E2,8.492818E1,2.3954742E2,4.246409E0,4.3862906E2,4.3463245E1,1.4737537E1,5.4953527E0,6.464533E2,1.8809094E2,5.8200783E1,2.6727398E1,6.494508E0,2.3305292E2,7.893325E1,3.596958E2,4.246409E0,3.9216835E1,1.09907055E1,3.7468314E0,6.3096643E2,1.5486903E1,9.491973E0,1.7859897E2,4.67105E1,1.1490283E1,1.0740917E1,1.5986481E1,3.247254E0,3.247254E0,6.494508E0,2.2655841E2,5.9949303E0,7.293832E1,3.2522498E2,3.4470848E1,3.596958E1,3.247254E0],"tree_param":{"num_deleted":"0","num_feature":"62","num_nodes":"47","size_leaf_vector":"1"}},{"base_weights":[-2.1372465E-2,-4.8875192E-1,7.36942E-1,-1.7273289E0,-1.49989E-1,1.855974E0,1.9192831E-1,-5.64034E-2,3.129883E-2,-2.0563805E-1,7.8862154E-1,1.9313976E0,-3.5159022E-1,7.586919E-2,1.2571672E0,-1.4285582E-1,2.4371956E-2,-2.7708638E-1,2.4800539E-1,9.61356E-1,-1.445742E-1,1.9607693E0,3.4292066E-3,-4.305697E-2,2.4558226E-2,-0E0,7.358417E-1,7.479756E-1,1.5298636E0,3.944846E-3,-3.0357627E-2,-7.5598937E-3,-4.431667E-2,4.260715E-3,3.9362233E-2,1.989483E-2,4.2810254E-2,9.917272E-3,-2.254461E-2,1.993321E-2,5.9320617E-2,-3.960873E-3,7.3597687E-3,-2.5643515E-3,2.6473314E-2,4.3013454E-3,4.685837E-2,2.835473E-2,5.2360956E-2],"categories":[],"categories_nodes":[],"categories_segments":[],"categories_sizes":[],"default_left":[0,0,0,0,0,0,0,0,0,0,0,0,0,0,0,0,0,0,0,0,0,0,0,0,0,0,0,0,0,0,0,0,0,0,0,0,0,0,0,0,0,0,0,0,0,0,0,0,0],"id":1,"left_children":[1,3,5,7,9,11,13,-1,15,17,19,21,23,25,27,29,-1,31,33,35,37,39,-1,-1,-1,41,43,45,47,-1,-1,-1,-1,-1,-1,-1,-1,-1,-1,-1,-1,-1,-1,-1,-1,-1,-1,-1,-1],"loss_changes":[6.767877E2,4.947537E2,4.4254932E2,6.908191E1,4.8424274E1,4.1093933E1,5.9928787E1,0E0,3.3048735E0,2.8567944E1,8.886295E0,1.10401E1,1.2248302E1,2.1927774E1,4.346031E0,4.7416444E0,0E0,2.1667995E1,1.2524062E1,4.150795E0,2.9092333E0,2.2346802E0,0E0,0E0,0E0,1.3034599E1,5.9186096E0,8.395318E0,7.2164917E-1,0E0,0E0,0E0,0E0,0E0,0E0,0E0,0E0,0E0,0E0,0E0,0E0,0E0,0E0,0E0,0E0,0E0,0E0,0E0,0E0],"parents":[2147483647,0,0,1,1,2,2,3,3,4,4,5,5,6,6,8,8,9,9,10,10,11,11,12,12,13,13,14,14,15,15,17,17,18,18,19,19,20,20,21,21,25,25,26,26,27,27,28,28],"right_children":[2,4,6,8,10,12,14,-1,16,18,20,22,24,26,28,30,-1,32,34,36,38,40,-1,-1,-1,42,44,46,48,-1,-1,-1,-1,-1,-1,-1,-1,-1,-1,-1,-1,-1,-1,-1,-1,-1,-1,-1,-1],"split_conditions":[3E0,4E-1,2E0,1E0,4.2916794E2,2E0,3.9381873E2,-5.64034E-2,4.743924E-1,3.5E0,1.118034E0,1.356466E0,2.6666668E-1,4.75E0,4.678998E2,7.322478E-1,2.4371956E-2,1.2069091E0,1.87E2,4.8972E2,4.17E2,2.2E0,3.4292066E-3,-4.305697E-2,2.4558226E-2,1.0050752E2,4.330127E-1,7.5E-1,4E0,3.944846E-3,-3.0357627E-2,-7.5598937E-3,-4.431667E-2,4.260715E-3,3.9362233E-2,1.989483E-2,4.2810254E-2,9.917272E-3,-2.254461E-2,1.993321E-2,5.9320617E-2,-3.960873E-3,7.3597687E-3,-2.5643515E-3,2.6473314E-2,4.3013454E-3,4.685837E-2,2.835473E-2,5.2360956E-2],"split_indices":[28,22,34,34,2,22,2,0,55,25,20,20,29,28,2,56,0,59,6,42,42,25,0,0,0,2,18,15,34,0,0,0,0,0,0,0,0,0,0,0,0,0,0,0,0,0,0,0,0],"split_type":[0,0,0,0,0,0,0,0,0,0,0,0,0,0,0,0,0,0,0,0,0,0,0,0,0,0,0,0,0,0,0,0,0,0,0,0,0,0,0,0,0,0,0,0,0,0,0,0,0],"sum_hessian":[1.9078949E3,1.1810076E3,7.2688727E2,2.5244592E2,9.2856165E2,2.369842E2,4.8990308E2,2.3246524E2,1.9980675E1,8.7782983E2,5.0731827E1,2.2949489E2,7.4893208E0,4.4316077E2,4.6742317E1,1.648267E1,3.498004E0,7.596735E2,1.1815631E2,4.3234703E1,7.4971223E0,2.254957E2,3.999191E0,3.9927201E0,3.4966006E0,3.9894174E2,4.4219017E1,1.8247028E1,2.8495289E1,1.2735599E1,3.7470725E0,7.457104E2,1.3963135E1,1.0891201E2,9.244297E0,2.8488886E1,1.4745818E1,3.9983234E0,3.4987988E0,3.747985E0,2.2174771E2,2.5853616E2,1.4040556E2,6.2440186E0,3.7975E1,1.1497432E1,6.749596E0,9.749269E0,1.874602E1],"tree_param":{"num_deleted":"0","num_feature":"62","num_nodes":"49","size_leaf_vector":"1"}},{"base_weights":[-2.7726726E-3,-4.6191993E-1,7.2878355E-1,-1.6871284E0,-1.3047636E-1,2.2616443E-1,1.8114974E0,5.364818E-2,-5.422623E-2,-2.1767808E-1,6.435332E-1,1.0675934E-1,1.25603E0,1.8771881E0,8.113312E-1,6.437497E-1,-4.1212523E-1,-3.2369292E-1,1.3033709E-1,8.2133543E-1,2.0687097E-1,2.3648497E-2,7.654596E-1,5.022994E-2,9.818854E-1,1.5960481E-2,5.7173874E-2,-3.0262401E-2,1.4646584E0,3.761577E-2,-0E0,-2.8253602E-2,4.5835027E-3,-1.0136614E-2,4.5863952E-2,5.528151E-3,-4.5003038E-2,1.8883443E-2,4.352435E-2,-4.870701E-3,2.0395977E-2,1.2896267E-4,4.3740597E-2,2.7709331E-2,-1.7557776E-2,1.5414747E-2,4.7593873E-2,1.6490653E-2,5.0914902E-2],"categories":[],"categories_nodes":[],"categories_segments":[],"categories_sizes":[],"default_left":[0,0,0,0,0,0,0,0,0,0,0,0,0,0,0,0,0,0,0,0,0,0,0,0,0,0,0,0,0,0,0,0,0,0,0,0,0,0,0,0,0,0,0,0,0,0,0,0,0],"id":2,"left_children":[1,3,5,7,9,11,13,15,-1,17,19,21,23,25,27,29,31,33,35,37,39,41,43,-1,45,-1,-1,-1,47,-1,-1,-1,-1,-1,-1,-1,-1,-1,-1,-1,-1,-1,-1,-1,-1,-1,-1,-1,-1],"loss_changes":[6.369163E2,4.7223212E2,3.9633627E2,5.2913208E1,6.194651E1,6.0749912E1,1.2327881E1,4.980412E0,0E0,3.0656803E1,6.5141487E0,2.4231485E1,2.9322433E0,6.071472E0,2.1307034E1,3.6546865E0,3.3773394E0,1.662899E1,1.6568537E1,5.8658676E0,5.429901E0,1.0404209E1,1.1335058E1,0E0,7.8248405E0,0E0,0E0,0E0,6.539364E-1,0E0,0E0,0E0,0E0,0E0,0E0,0E0,0E0,0E0,0E0,0E0,0E0,0E0,0E0,0E0,0E0,0E0,0E0,0E0,0E0],"parents":[2147483647,0,0,1,1,2,2,3,3,4,4,5,5,6,6,7,7,9,9,10,10,11,11,12,12,13,13,14,14,15,15,16,16,17,17,18,18,19,19,20,20,21,21,22,22,24,24,28,28],"right_children":[2,4,6,8,10,12,14,16,-1,18,20,22,24,26,28,30,32,34,36,38,40,42,44,-1,46,-1,-1,-1,48,-1,-1,-1,-1,-1,-1,-1,-1,-1,-1,-1,-1,-1,-1,-1,-1,-1,-1,-1,-1],"split_conditions":[3E0,4E-1,-1.3977541E0,1E0,4.2174158E2,3.9381873E2,1E0,-8.61E1,-5.422623E-2,1.8854813E2,1.6709316E3,4.75E0,5E-1,1E0,1.04E0,1.9613304E3,1.339053E2,2.0404363E0,8.636806E-1,1.63187E3,7.295927E-1,4.69145E-1,1.463E3,5.022994E-2,5.673579E2,1.5960481E-2,5.7173874E-2,-3.0262401E-2,1.1081E2,3.761577E-2,-0E0,-2.8253602E-2,4.5835027E-3,-1.0136614E-2,4.5863952E-2,5.528151E-3,-4.5003038E-2,1.8883443E-2,4.352435E-2,-4.870701E-3,2.0395977E-2,1.2896267E-4,4.3740597E-2,2.7709331E-2,-1.7557776E-2,1.5414747E-2,4.7593873E-2,1.6490653E-2,5.0914902E-2],"split_indices":[28,22,48,30,41,2,22,5,0,2,1,28,18,30,45,1,2,55,56,3,32,55,3,0,41,0,0,0,42,0,0,0,0,0,0,0,0,0,0,0,0,0,0,0,0,0,0,0,0],"split_type":[0,0,0,0,0,0,0,0,0,0,0,0,0,0,0,0,0,0,0,0,0,0,0,0,0,0,0,0,0,0,0,0,0,0,0,0,0,0,0,0,0,0,0,0,0,0,0,0,0],"sum_hessian":[1.8945889E3,1.1646627E3,7.299262E2,2.4678877E2,9.178739E2,4.9964905E2,2.3027715E2,1.5733616E1,2.3105516E2,8.261614E2,9.1712524E1,4.4916135E2,5.0487686E1,2.1479283E2,1.548432E1,7.2454824E0,8.488133E0,6.344096E2,1.9175175E2,6.3734715E1,2.7977808E1,4.004322E2,4.872916E1,1.7244287E1,3.3243397E1,5.2449265E0,2.095479E2,3.7441933E0,1.1740127E1,3.4980896E0,3.747393E0,4.493217E0,3.994916E0,6.3066486E2,3.744788E0,1.8676718E2,4.984579E0,5.098645E1,1.2748265E1,1.5487592E1,1.2490216E1,3.9643582E2,3.9963574E0,4.4235073E1,4.4940853E0,2.0245981E1,1.2997417E1,3.4962263E0,8.2439E0],"tree_param":{"num_deleted":"0","num_feature":"62","num_nodes":"49","size_leaf_vector":"1"}},{"base_weights":[-1.2444765E-2,-7.835147E-1,3.9517915E-1,-1.7237428E0,-1.6685267E-1,1.6165777E0,5.5176876E-2,-5.3440187E-2,7.406011E-2,-2.3655279E-1,5.756927E-1,5.630967E-2,7.0579875E-1,-5.041179E-2,7.8013927E-1,2.5767362E-2,-2.5329972E-2,-2.7560678E-1,4.9214256E-1,3.7320066E-2,3.0935538E-1,-7.478873E-1,1.0523748E0,-1.5015125E-1,2.9507712E-1,6.106289E-1,4.45788E-2,-8.864247E-3,2.9380124E-2,-2.7595356E-3,3.372467E-2,2.5313876E-3,3.4122597E-2,-4.4463146E-2,1.2539615E-2,-2.2982996E-2,3.6724076E-2,-6.785583E-3,7.596501E-3,2.6026915E-3,1.7909316E-2,1.04000075E-2,2.7448751E-2],"categories":[],"categories_nodes":[],"categories_segments":[],"categories_sizes":[],"default_left":[0,0,0,0,0,0,0,0,0,0,0,0,0,0,0,0,0,0,0,0,0,0,0,0,0,0,0,0,0,0,0,0,0,0,0,0,0,0,0,0,0,0,0],"id":3,"left_children":[1,3,5,7,9,11,13,-1,15,17,19,-1,21,23,25,-1,-1,27,29,-1,31,33,35,37,39,41,-1,-1,-1,-1,-1,-1,-1,-1,-1,-1,-1,-1,-1,-1,-1,-1,-1],"loss_changes":[5.950237E2,3.784806E2,5.13035E2,2.7801086E1,2.051004E1,6.1218628E1,7.461609E1,0E0,7.0248904E0,1.0391809E1,4.8435364E0,0E0,3.2111702E1,2.9143705E1,1.2869904E1,0E0,0E0,8.598362E0,7.3509226E0,0E0,4.1347847E0,1.1610456E1,1.6988483E1,2.0246365E1,1.1484247E1,7.2607956E0,0E0,0E0,0E0,0E0,0E0,0E0,0E0,0E0,0E0,0E0,0E0,0E0,0E0,0E0,0E0,0E0,0E0],"parents":[2147483647,0,0,1,1,2,2,3,3,4,4,5,5,6,6,8,8,9,9,10,10,12,12,13,13,14,14,17,17,18,18,20,20,21,21,22,22,23,23,24,24,25,25],"right_children":[2,4,6,8,10,12,14,-1,16,18,20,-1,22,24,26,-1,-1,28,30,-1,32,34,36,38,40,42,-1,-1,-1,-1,-1,-1,-1,-1,-1,-1,-1,-1,-1,-1,-1,-1,-1],"split_conditions":[2.2E0,1E0,2E0,1E0,4.322932E2,4E-1,4.2174158E2,-5.3440187E-2,8.347664E-1,2.6666667E0,-9.6E1,5.630967E-2,-1.7276199E0,1.9598563E2,5.7912946E2,2.5767362E-2,-2.5329972E-2,8.164966E-1,2.2589574E2,3.7320066E-2,1.50037E3,1.1969427E0,2.5E-1,2.2E0,2E0,7.295927E-1,4.45788E-2,-8.864247E-3,2.9380124E-2,-2.7595356E-3,3.372467E-2,2.5313876E-3,3.4122597E-2,-4.4463146E-2,1.2539615E-2,-2.2982996E-2,3.6724076E-2,-6.785583E-3,7.596501E-3,2.6026915E-3,1.7909316E-2,1.04000075E-2,2.7448751E-2],"split_indices":[28,34,34,22,41,22,41,0,59,9,8,0,53,2,2,0,0,40,2,0,4,54,10,10,12,32,0,0,0,0,0,0,0,0,0,0,0,0,0,0,0,0,0],"split_type":[0,0,0,0,0,0,0,0,0,0,0,0,0,0,0,0,0,0,0,0,0,0,0,0,0,0,0,0,0,0,0,0,0,0,0,0,0,0,0,0,0,0,0],"sum_hessian":[1.8905289E3,6.539009E2,1.236628E3,2.5796857E2,3.9593228E2,2.6814368E2,9.684844E2,2.5023886E2,7.729711E0,3.6319522E2,3.2737064E1,2.0727069E2,6.0872982E1,8.4557025E2,1.22914085E2,4.4963536E0,3.2333572E0,3.4596155E2,1.723367E1,7.7477794E0,2.4989285E1,1.1218259E1,4.9654724E1,6.577085E2,1.8786177E2,1.01186584E2,2.1727499E1,3.4171454E2,4.247006E0,8.98904E0,8.244629E0,2.0991774E1,3.99751E0,6.9801097E0,4.2381487E0,3.7354414E0,4.591928E1,5.5480634E2,1.0290217E2,1.1290042E2,7.496135E1,5.6212456E1,4.497413E1],"tree_param":{"num_deleted":"0","num_feature":"62","num_nodes":"43","size_leaf_vector":"1"}},{"base_weights":[-1.627224E-2,-1.4868374E-1,9.915498E-1,-1.5070314E0,-1.917E-2,1.6751083E0,4.8999116E-1,-5.2322593E-2,-1.4079164E-1,-1.0790021E-1,8.0580926E-1,1.7588025E0,2.6577027E-3,3.140349E-1,1.3819643E0,-2.9421013E-2,2.3774318E-1,-1.945859E-1,6.646965E-1,-6.3651216E-1,1.3281075E0,1.3702647E-2,5.3928144E-2,6.0311204E-1,2.5784137E-2,4.512433E-2,1.3300731E-2,2.3244763E-2,-9.488685E-3,-4.6100784E-3,-5.122701E-2,3.2332014E-2,1.3310674E-2,5.0945327E-2,-4.7781818E-2,-4.4243675E-2,4.5209907E-2,-0E0,2.5616849E-2,-1.3688216E-2,7.549001E-3],"categories":[],"categories_nodes":[],"categories_segments":[],"categories_sizes":[],"default_left":[0,0,0,0,0,0,0,0,0,0,0,0,0,0,0,0,0,0,0,0,0,0,0,0,0,0,0,0,0,0,0,0,0,0,0,0,0,0,0,0,0],"id":4,"left_children":[1,3,5,7,9,11,13,-1,15,17,19,21,-1,23,25,-1,27,29,31,33,35,-1,-1,37,39,-1,-1,-1,-1,-1,-1,-1,-1,-1,-1,-1,-1,-1,-1,-1,-1],"loss_changes":[2.5318141E2,2.9476898E2,7.360831E1,4.606314E1,1.1211181E2,1.11866455E1,1.8944353E1,0E0,7.9078374E0,9.281945E1,1.1317171E2,2.4672546E0,0E0,8.786056E0,7.0700455E-1,0E0,5.3034396E0,7.612038E1,1.1506008E1,9.181704E1,5.724762E1,0E0,0E0,8.333229E0,6.1844373E0,0E0,0E0,0E0,0E0,0E0,0E0,0E0,0E0,0E0,0E0,0E0,0E0,0E0,0E0,0E0,0E0],"parents":[2147483647,0,0,1,1,2,2,3,3,4,4,5,5,6,6,8,8,9,9,10,10,11,11,13,13,14,14,16,16,17,17,18,18,19,19,20,20,23,23,24,24],"right_children":[2,4,6,8,10,12,14,-1,16,18,20,22,-1,24,26,-1,28,30,32,34,36,-1,-1,38,40,-1,-1,-1,-1,-1,-1,-1,-1,-1,-1,-1,-1,-1,-1,-1,-1],"split_conditions":[2.6E0,2E-1,2E0,1E0,9.0399575E-1,2E0,4.2582428E2,-5.2322593E-2,3.4755253E1,4.278331E2,5E-1,2.75E0,2.6577027E-3,1.31549E3,1.3E3,-2.9421013E-2,3.9E1,1.1467402E0,7.0710677E-1,1.6513035E0,-2.3798888E2,1.3702647E-2,5.3928144E-2,1.264911E0,1.43316E3,4.512433E-2,1.3300731E-2,2.3244763E-2,-9.488685E-3,-4.6100784E-3,-5.122701E-2,3.2332014E-2,1.3310674E-2,5.0945327E-2,-4.7781818E-2,-4.4243675E-2,4.5209907E-2,-0E0,2.5616849E-2,-1.3688216E-2,7.549001E-3],"split_indices":[9,10,34,34,48,19,2,0,2,41,9,9,0,4,4,0,43,56,20,48,2,0,0,22,4,0,0,0,0,0,0,0,0,0,0,0,0,0,0,0,0],"split_type":[0,0,0,0,0,0,0,0,0,0,0,0,0,0,0,0,0,0,0,0,0,0,0,0,0,0,0,0,0,0,0,0,0,0,0,0,0,0,0,0,0],"sum_hessian":[1.8982932E3,1.6790427E3,2.1925044E2,1.4489359E2,1.5341492E3,9.13778E1,1.2787264E2,1.2292283E2,2.1970766E1,1.3865001E3,1.47649E2,8.639635E1,4.9814477E0,1.0840134E2,1.9471312E1,6.741826E0,1.5228941E1,1.2478824E3,1.3861766E2,3.894016E1,1.0870885E2,3.2426643E0,8.315369E1,5.271165E1,5.5689686E1,1.6224152E1,3.2471585E0,7.988652E0,7.2402883E0,1.2164181E3,3.1464407E1,4.6177814E1,9.243984E1,1.0937177E1,2.8002983E1,5.9195967E0,1.02789246E2,1.5487642E1,3.7224007E1,1.6735312E1,3.8954372E1],"tree_param":{"num_deleted":"0","num_feature":"62","num_nodes":"41","size_leaf_vector":"1"}},{"base_weights":[3.8688201E-3,-7.4429286E-1,3.938678E-1,-1.6530957E0,-1.4640483E-1,1.5754027E0,7.5559594E-2,-5.1801786E-2,-6.007033E-1,-2.8529868E-1,5.6994957E-1,5.3998105E-2,7.0247436E-1,8.379317E-3,6.767261E-1,3.598941E-2,-1.2802066E0,-3.762611E-1,1.1769573E-1,9.8858523E-1,2.1903728E-1,-2.925394E-1,1.1382E0,-9.4018176E-2,3.2469258E-1,5.346509E-1,4.345355E-2,-4.8620332E-2,-1.6686006E-3,-1.3055784E-2,3.7898934E-3,-4.149497E-3,1.9632991E-2,1.2940345E-2,3.6323998E-2,-1.7444024E-2,1.3054541E-2,-2.2457236E-2,3.610932E-2,-1.01382155E-2,4.009876E-2,-5.408521E-3,3.5271223E-3,1.0623672E-2,-2.0952644E-2,-1.910943E-3,1.9418834E-2],"categories":[],"categories_nodes":[],"categories_segments":[],"categories_sizes":[],"default_left":[0,0,0,0,0,0,0,0,0,0,0,0,0,0,0,0,0,0,0,0,0,0,0,0,0,0,0,0,0,0,0,0,0,0,0,0,0,0,0,0,0,0,0,0,0,0,0],"id":5,"left_children":[1,3,5,7,9,11,13,-1,15,17,19,-1,21,23,25,-1,27,29,31,33,35,37,39,41,43,45,-1,-1,-1,-1,-1,-1,-1,-1,-1,-1,-1,-1,-1,-1,-1,-1,-1,-1,-1,-1,-1],"loss_changes":[5.55887E2,3.5344522E2,4.7035907E2,1.783197E1,3.93267E1,4.9536987E1,3.9577427E1,0E0,2.4676075E1,1.2349104E1,8.567705E0,0E0,2.5221197E1,2.9004389E1,9.045872E0,0E0,5.073105E0,8.272488E0,8.718867E0,2.1493912E0,6.528859E0,1.2703724E1,1.2608128E1,1.2330686E1,6.678652E0,6.0896835E0,0E0,0E0,0E0,0E0,0E0,0E0,0E0,0E0,0E0,0E0,0E0,0E0,0E0,0E0,0E0,0E0,0E0,0E0,0E0,0E0,0E0],"parents":[2147483647,0,0,1,1,2,2,3,3,4,4,5,5,6,6,8,8,9,9,10,10,12,12,13,13,14,14,16,16,17,17,18,18,19,19,20,20,21,21,22,22,23,23,24,24,25,25],"right_children":[2,4,6,8,10,12,14,-1,16,18,20,-1,22,24,26,-1,28,30,32,34,36,38,40,42,44,46,-1,-1,-1,-1,-1,-1,-1,-1,-1,-1,-1,-1,-1,-1,-1,-1,-1,-1,-1,-1,-1],"split_conditions":[2.2E0,1E0,1E0,8E-1,2.4818E2,4E-1,9E1,-5.1801786E-2,2E-1,1.6666666E0,1.4203438E3,5.3998105E-2,8.4E-1,3.6E0,5.7668E2,3.598941E-2,1.25E0,1.9240471E3,6.7E1,1.25E0,1.43316E3,2.8356E2,5E-1,1.31E2,2.0955166E3,8.164966E-1,4.345355E-2,-4.8620332E-2,-1.6686006E-3,-1.3055784E-2,3.7898934E-3,-4.149497E-3,1.9632991E-2,1.2940345E-2,3.6323998E-2,-1.7444024E-2,1.3054541E-2,-2.2457236E-2,3.610932E-2,-1.01382155E-2,4.009876E-2,-5.408521E-3,3.5271223E-3,1.0623672E-2,-2.0952644E-2,-1.910943E-3,1.9418834E-2],"split_indices":[25,34,34,19,5,19,43,0,27,45,1,0,45,25,5,0,12,0,5,12,3,5,11,5,1,22,0,0,0,0,0,0,0,0,0,0,0,0,0,0,0,0,0,0,0,0,0],"split_type":[0,0,0,0,0,0,0,0,0,0,0,0,0,0,0,0,0,0,0,0,0,0,0,0,0,0,0,0,0,0,0,0,0,0,0,0,0,0,0,0,0,0,0,0,0,0,0],"sum_hessian":[1.9037389E3,6.515793E2,1.2521595E3,2.5752878E2,3.940505E2,2.6457138E2,9.875882E2,2.396461E2,1.7882671E1,3.3114462E2,6.2905865E1,2.091414E2,5.542998E1,8.899788E2,9.760936E1,4.488648E0,1.3394024E1,2.7123053E2,5.9914112E1,2.7206577E1,3.5699287E1,1.6631578E1,3.87984E1,6.716675E2,2.1831134E2,8.44101E1,1.319926E1,9.907654E0,3.4863696E0,2.4377538E2,2.7455143E1,4.0437183E1,1.947693E1,9.236274E0,1.7970304E1,6.7377925E0,2.8961494E1,1.3385541E1,3.246038E0,4.215461E0,3.4582943E1,4.7892032E2,1.9274718E2,2.1331784E2,4.9934893E0,1.2738811E1,7.167129E1],"tree_param":{"num_deleted":"0","num_feature":"62","num_nodes":"47","size_leaf_vector":"1"}},{"base_weights":[1.8295482E-2,-4.0769714E-1,6.6740155E-1,-8.572318E-2,-1.5334632E0,1.9657344E-1,1.6384507E0,-1.7516132E-1,7.247437E-1,-5.0436966E-2,-5.7409215E-1,2.6976722E-3,5.048504E-1,-1.6072141E-2,1.6900781E0,-2.9797193E-1,2.2330435E-2,4.8293918E-1,1.0483083E0,-8.508153E-2,-1.0199417E0,-1.4987855E-1,2.406819E-1,1.9925295E-1,8.0666393E-1,8.028129E-1,1.7350826E0,-7.979319E-3,-4.204655E-2,-3.1821697E-3,6.2168106E-3,2.6750408E-2,5.226427E-3,3.7618905E-2,1.8989787E-2,-1.2583715E-2,2.646505E-2,-0E0,-3.817673E-2,-7.571751E-4,-1.6147655E-2,1.8717587E-2,1.7645253E-3,-0E0,1.679474E-2,2.6774226E-2,-7.2091323E-4,-4.3577137E-3,4.3349348E-2,5.2746065E-2,1.3433069E-2],"categories":[],"categories_nodes":[],"categories_segments":[],"categories_sizes":[],"default_left":[0,0,0,0,0,0,0,0,0,0,0,0,0,0,0,0,0,0,0,0,0,0,0,0,0,0,0,0,0,0,0,0,0,0,0,0,0,0,0,0,0,0,0,0,0,0,0,0,0,0,0],"id":6,"left_children":[1,3,5,7,9,11,13,15,17,-1,19,21,23,-1,25,27,29,31,33,35,37,39,41,43,45,47,49,-1,-1,-1,-1,-1,-1,-1,-1,-1,-1,-1,-1,-1,-1,-1,-1,-1,-1,-1,-1,-1,-1,-1,-1],"loss_changes":[5.237075E2,4.1328088E2,3.4198914E2,6.436789E1,3.387976E1,3.005094E1,2.8944885E1,1.9619047E1,5.6207123E0,0E0,7.174218E0,1.14574375E1,1.7300797E1,0E0,6.899414E0,1.6331478E1,7.3666515E0,6.019478E0,1.3324394E0,6.192344E0,4.432337E0,8.91358E0,8.268273E0,6.879011E0,7.358734E0,9.356763E0,4.850647E0,0E0,0E0,0E0,0E0,0E0,0E0,0E0,0E0,0E0,0E0,0E0,0E0,0E0,0E0,0E0,0E0,0E0,0E0,0E0,0E0,0E0,0E0,0E0,0E0],"parents":[2147483647,0,0,1,1,2,2,3,3,4,4,5,5,6,6,7,7,8,8,10,10,11,11,12,12,14,14,15,15,16,16,17,17,18,18,19,19,20,20,21,21,22,22,23,23,24,24,25,25,26,26],"right_children":[2,4,6,8,10,12,14,16,18,-1,20,22,24,-1,26,28,30,32,34,36,38,40,42,44,46,48,50,-1,-1,-1,-1,-1,-1,-1,-1,-1,-1,-1,-1,-1,-1,-1,-1,-1,-1,-1,-1,-1,-1,-1,-1],"split_conditions":[3E0,5E0,3.7267798E-1,4.2174158E2,4E-1,3.8E0,1.25E0,2.8E0,7.9616714E-1,-5.0436966E-2,1.8729915E3,2.5E-1,2.052659E2,-1.6072141E-2,2E0,8.1681967E-1,6.501E1,2.5E-1,1.4696939E0,2.105E2,7.9616714E-1,6.666667E-1,8E-1,3.3333333E0,1.521E3,-1.08E2,2E0,-7.979319E-3,-4.204655E-2,-3.1821697E-3,6.2168106E-3,2.6750408E-2,5.226427E-3,3.7618905E-2,1.8989787E-2,-1.2583715E-2,2.646505E-2,-0E0,-3.817673E-2,-7.571751E-4,-1.6147655E-2,1.8717587E-2,1.7645253E-3,-0E0,1.679474E-2,2.6774226E-2,-7.2091323E-4,-4.3577137E-3,4.3349348E-2,5.2746065E-2,1.3433069E-2],"split_indices":[25,30,40,41,20,25,28,28,32,0,1,23,41,0,30,59,5,16,19,5,32,14,18,28,4,5,19,0,0,0,0,0,0,0,0,0,0,0,0,0,0,0,0,0,0,0,0,0,0,0,0],"split_type":[0,0,0,0,0,0,0,0,0,0,0,0,0,0,0,0,0,0,0,0,0,0,0,0,0,0,0,0,0,0,0,0,0,0,0,0,0,0,0,0,0,0,0,0,0,0,0,0,0,0,0],"sum_hessian":[1.8915076E3,1.1417839E3,7.497236E2,8.890361E2,2.5274786E2,5.060667E2,2.4365689E2,8.0193976E2,8.709634E1,2.1791022E2,3.483765E1,3.122948E2,1.9377191E2,5.209443E0,2.3844743E2,4.957066E2,3.0623312E2,5.2156708E1,3.4939625E1,1.7717388E1,1.7120262E1,1.8923918E2,1.230556E2,9.793048E1,9.584143E1,1.2956567E1,2.2549088E2,4.833865E2,1.2320102E1,1.7938206E2,1.2685107E2,2.0933565E1,3.1223145E1,2.121246E1,1.3727165E1,1.3970942E1,3.7464461E0,3.7430499E0,1.3377212E1,1.4504361E2,4.4195576E1,3.7935406E1,8.512019E1,6.444867E1,3.348181E1,8.7346146E1,8.495283E0,5.2301493E0,7.7264175E0,2.207717E2,4.719171E0],"tree_param":{"num_deleted":"0","num_feature":"62","num_nodes":"51","size_leaf_vector":"1"}},{"base_weights":[2.2246407E-3,-6.990839E-1,3.6353806E-1,-1.5057223E0,-2.04499E-1,1.5800956E0,9.197541E-2,-4.7717076E-2,-3.1823248E-1,-3.9937264E-1,4.772019E-1,3.735856E-2,1.6577235E0,1.520848E-2,7.0246917E-1,2.4706373E-1,-3.4925297E-2,-4.7070082E-2,-3.4234807E-1,1.2559573E-1,7.6766455E-1,1.8030457E-2,-2.7456427E-1,5.0267376E-2,1.8573672E-2,-3.195411E-2,1.3588033E0,5.2640665E-1,1.2518046E0,-1.2353463E-2,2.211621E-2,-1.5922954E-2,-4.814221E-3,-1.2432303E-2,1.2300219E-2,-2.446345E-3,2.576038E-2,7.4127485E-4,-1.769282E-2,-3.875815E-3,7.990441E-3,-0E0,4.8776444E-2,-1.217974E-2,1.7344551E-2,1.1748773E-2,4.003762E-2],"categories":[],"categories_nodes":[],"categories_segments":[],"categories_sizes":[],"default_left":[0,0,0,0,0,0,0,0,0,0,0,0,0,0,0,0,0,0,0,0,0,0,0,0,0,0,0,0,0,0,0,0,0,0,0,0,0,0,0,0,0,0,0,0,0,0,0],"id":7,"left_children":[1,3,5,7,9,11,13,-1,15,17,19,21,23,25,27,29,-1,-1,31,33,35,-1,37,-1,-1,39,41,43,45,-1,-1,-1,-1,-1,-1,-1,-1,-1,-1,-1,-1,-1,-1,-1,-1,-1,-1],"loss_changes":[4.7912955E2,2.5523795E2,4.1159763E2,2.3097412E1,5.328304E1,2.6335571E1,4.754296E1,0E0,9.304732E0,1.9326824E1,8.525843E0,2.478581E0,1.8259277E0,5.8364216E1,9.424038E0,4.082678E0,0E0,0E0,9.826538E0,6.6406035E0,4.1417313E0,0E0,1.0506808E0,0E0,0E0,2.5481735E1,1.1773666E1,4.5822487E0,4.741516E-1,0E0,0E0,0E0,0E0,0E0,0E0,0E0,0E0,0E0,0E0,0E0,0E0,0E0,0E0,0E0,0E0,0E0,0E0],"parents":[2147483647,0,0,1,1,2,2,3,3,4,4,5,5,6,6,8,8,9,9,10,10,11,11,12,12,13,13,14,14,15,15,18,18,19,19,20,20,22,22,25,25,26,26,27,27,28,28],"right_children":[2,4,6,8,10,12,14,-1,16,18,20,22,24,26,28,30,-1,-1,32,34,36,-1,38,-1,-1,40,42,44,46,-1,-1,-1,-1,-1,-1,-1,-1,-1,-1,-1,-1,-1,-1,-1,-1,-1,-1],"split_conditions":[2.2E0,4E-1,4E-1,2.2E0,2.1497354E2,2.8E0,4.4759946E2,-4.7717076E-2,-8.9646083E-1,1E-1,2.55E2,8.257E1,8.164966E-1,9.0399575E-1,1.72E2,-6.77E0,-3.4925297E-2,-4.7070082E-2,1.2020881E2,2.2E0,1.2E0,1.8030457E-2,6E-1,5.0267376E-2,1.8573672E-2,3.5E0,-8.885992E-1,1.25E0,1.08827E3,-1.2353463E-2,2.211621E-2,-1.5922954E-2,-4.814221E-3,-1.2432303E-2,1.2300219E-2,-2.446345E-3,2.576038E-2,7.4127485E-4,-1.769282E-2,-3.875815E-3,7.990441E-3,-0E0,4.8776444E-2,-1.217974E-2,1.7344551E-2,1.1748773E-2,4.003762E-2],"split_indices":[25,19,19,28,2,28,41,0,60,36,42,42,20,48,7,5,0,0,41,28,25,0,12,0,0,25,55,28,3,0,0,0,0,0,0,0,0,0,0,0,0,0,0,0,0,0,0],"split_type":[0,0,0,0,0,0,0,0,0,0,0,0,0,0,0,0,0,0,0,0,0,0,0,0,0,0,0,0,0,0,0,0,0,0,0,0,0,0,0,0,0,0,0,0,0,0,0],"sum_hessian":[1.8895206E3,6.416877E2,1.247833E3,2.4273921E2,3.9894846E2,2.2649803E2,1.02133496E3,2.2584213E2,1.6897089E1,3.1114963E2,8.779881E1,1.1230518E1,2.1526752E2,9.0888995E2,1.1244504E2,1.019874E1,6.698349E0,1.28244705E1,2.9832516E2,4.114564E1,4.665317E1,4.2417192E0,6.988799E0,2.1055296E2,4.7145543E0,8.786518E2,3.0238173E1,8.732556E1,2.5119478E1,3.9836807E0,6.2150598E0,1.4423436E2,1.5409079E2,1.3430453E1,2.7715189E1,3.994366E0,4.2658806E1,3.243986E0,3.7448134E0,6.643363E2,2.1431548E2,4.9660335E0,2.5272139E1,3.7234635E0,8.36021E1,3.2385929E0,2.1880886E1],"tree_param":{"num_deleted":"0","num_feature":"62","num_nodes":"47","size_leaf_vector":"1"}},{"base_weights":[4.3856413E-3,-3.9078945E-1,6.3755155E-1,-1.4679972E0,-1.13479815E-1,1.5955943E0,1.6744931E-1,-4.8539333E-2,9.83642E-2,-1.9123378E-1,5.868655E-1,1.6451235E0,-2.560652E-2,6.648415E-2,9.766653E-1,-1.23538315E-1,2.568212E-2,-3.2695642E-1,1.4344001E-2,7.594909E-1,2.9134893E-1,4.975898E-2,1.18086925E-2,5.1208323E-1,-2.8481124E-2,4.483655E-2,7.008809E-1,-2.0926133E-2,4.4756383E-3,-1.0694022E-2,2.1736339E-2,-2.8757716E-2,1.3246386E-3,8.527093E-3,2.8546704E-2,-1.7418814E-3,2.225334E-2,-2.270209E-2,1.9070601E-2,-9.619356E-3,2.0734107E-3,9.831223E-3,3.8385477E-2],"categories":[],"categories_nodes":[],"categories_segments":[],"categories_sizes":[],"default_left":[0,0,0,0,0,0,0,0,0,0,0,0,0,0,0,0,0,0,0,0,0,0,0,0,0,0,0,0,0,0,0,0,0,0,0,0,0,0,0,0,0,0,0],"id":8,"left_children":[1,3,5,7,9,11,13,-1,15,17,19,21,-1,23,25,27,-1,29,31,33,35,-1,-1,37,39,-1,41,-1,-1,-1,-1,-1,-1,-1,-1,-1,-1,-1,-1,-1,-1,-1,-1],"loss_changes":[4.734639E2,3.4684518E2,3.264823E2,5.6810913E1,5.041527E1,3.0790405E1,3.940431E1,0E0,4.0771055E0,2.3489977E1,3.9606304E0,2.2905884E0,0E0,1.873997E1,5.5207176E0,3.0313435E0,0E0,1.5748905E1,9.213966E0,4.2743607E0,6.163598E0,0E0,0E0,1.2608259E1,1.0415184E1,0E0,6.882324E0,0E0,0E0,0E0,0E0,0E0,0E0,0E0,0E0,0E0,0E0,0E0,0E0,0E0,0E0,0E0,0E0],"parents":[2147483647,0,0,1,1,2,2,3,3,4,4,5,5,6,6,8,8,9,9,10,10,11,11,13,13,14,14,15,15,17,17,18,18,19,19,20,20,23,23,24,24,26,26],"right_children":[2,4,6,8,10,12,14,-1,16,18,20,22,-1,24,26,28,-1,30,32,34,36,-1,-1,38,40,-1,42,-1,-1,-1,-1,-1,-1,-1,-1,-1,-1,-1,-1,-1,-1,-1,-1],"split_conditions":[3E0,4E-1,2E0,1E0,4.2174158E2,2.3570225E0,3.7343948E2,-4.8539333E-2,8.940016E-1,1.8282738E2,1.6E0,5E-2,-2.560652E-2,1.2757617E3,7.0710677E-1,1.1042376E2,2.568212E-2,6.315706E-1,4E-1,6.925686E-1,1.62E2,4.975898E-2,1.18086925E-2,1E-1,3.2E0,4.483655E-2,5.673579E2,-2.0926133E-2,4.4756383E-3,-1.0694022E-2,2.1736339E-2,-2.8757716E-2,1.3246386E-3,8.527093E-3,2.8546704E-2,-1.7418814E-3,2.225334E-2,-2.270209E-2,1.9070601E-2,-9.619356E-3,2.0734107E-3,9.831223E-3,3.8385477E-2],"split_indices":[28,22,34,34,41,22,2,0,54,41,10,44,0,1,18,41,0,55,19,32,6,0,0,15,28,0,41,0,0,0,0,0,0,0,0,0,0,0,0,0,0,0,0],"split_type":[0,0,0,0,0,0,0,0,0,0,0,0,0,0,0,0,0,0,0,0,0,0,0,0,0,0,0,0,0,0,0,0,0,0,0,0,0,0,0,0,0,0,0],"sum_hessian":[1.8897666E3,1.1633088E3,7.2645776E2,2.3691542E2,9.2639343E2,2.379898E2,4.8846796E2,2.1647409E2,2.044134E1,8.351176E2,9.1275826E1,2.3379422E2,4.195591E0,4.3579434E2,5.267363E1,1.5947897E1,4.493442E0,5.0413138E2,3.3098624E2,5.5559086E1,3.571674E1,2.305804E2,3.2138126E0,7.6712814E1,3.590815E2,1.6137419E1,3.6536213E1,5.225539E0,1.0722357E1,4.9147433E2,1.2657021E1,8.415024E0,3.2257123E2,1.7453846E1,3.810524E1,1.9979258E1,1.5737483E1,5.995906E0,7.071691E1,9.0623825E1,2.684577E2,2.3689089E1,1.2847124E1],"tree_param":{"num_deleted":"0","num_feature":"62","num_nodes":"43","size_leaf_vector":"1"}},{"base_weights":[1.5960068E-4,-3.9520675E-1,6.3898194E-1,-1.423381E0,-1.2630926E-1,1.5531982E0,1.9283487E-1,-4.757632E-2,2.367467E-1,-2.4287921E-1,2.2207388E-1,1.6063794E0,-2.6696201E-2,9.788248E-2,1.030464E0,-0E0,3.3446647E-2,-3.2860702E-1,1.4277352E-1,1.4184159E-1,4.340923E-2,7.249663E-1,4.930313E-2,-6.4349405E-2,3.063678E-1,1.0933157E0,3.3221126E-3,8.4078945E-3,-2.0103414E-2,-8.941482E-3,-4.3752294E-2,2.1627814E-2,3.9261248E-4,5.3877076E-3,-3.62693E-2,4.0140256E-2,-5.5416E-3,-8.110857E-3,8.027751E-3,4.0134788E-3,1.7960733E-2,1.8936757E-2,3.9056994E-2],"categories":[],"categories_nodes":[],"categories_segments":[],"categories_sizes":[],"default_left":[0,0,0,0,0,0,0,0,0,0,0,0,0,0,0,0,0,0,0,0,0,0,0,0,0,0,0,0,0,0,0,0,0,0,0,0,0,0,0,0,0,0,0],"id":9,"left_children":[1,3,5,7,9,11,13,-1,15,17,19,21,-1,23,25,27,-1,29,31,33,-1,35,-1,37,39,41,-1,-1,-1,-1,-1,-1,-1,-1,-1,-1,-1,-1,-1,-1,-1,-1,-1],"loss_changes":[4.7321896E2,3.1880438E2,2.9110165E2,6.560092E1,3.7356518E1,3.225531E1,3.775645E1,0E0,4.978911E0,2.293901E1,2.1571674E1,5.139038E0,0E0,1.4871739E1,2.0830727E0,3.7029371E0,0E0,1.8212341E1,8.999784E0,1.0769863E1,0E0,7.3018656E0,0E0,1.6787766E1,9.24618E0,2.5313644E0,0E0,0E0,0E0,0E0,0E0,0E0,0E0,0E0,0E0,0E0,0E0,0E0,0E0,0E0,0E0,0E0,0E0],"parents":[2147483647,0,0,1,1,2,2,3,3,4,4,5,5,6,6,8,8,9,9,10,10,11,11,13,13,14,14,15,15,17,17,18,18,19,19,21,21,23,23,24,24,25,25],"right_children":[2,4,6,8,10,12,14,-1,16,18,20,22,-1,24,26,28,-1,30,32,34,-1,36,-1,38,40,42,-1,-1,-1,-1,-1,-1,-1,-1,-1,-1,-1,-1,-1,-1,-1,-1,-1],"split_conditions":[3E0,4E-1,2E0,3E0,1.9810884E2,2.3570225E0,3.9381873E2,-4.757632E-2,8.940016E-1,3.25E0,5.62E2,3E0,-2.6696201E-2,4.0763454E1,8.3E1,5E-1,3.3446647E-2,1.0336254E0,1.0198039E0,8.636806E-1,4.340923E-2,1.0198039E0,4.930313E-2,1.6666666E0,3.6666667E0,4E0,3.3221126E-3,8.4078945E-3,-2.0103414E-2,-8.941482E-3,-4.3752294E-2,2.1627814E-2,3.9261248E-4,5.3877076E-3,-3.62693E-2,4.0140256E-2,-5.5416E-3,-8.110857E-3,8.027751E-3,4.0134788E-3,1.7960733E-2,1.8936757E-2,3.9056994E-2],"split_indices":[28,22,34,34,2,22,2,0,54,25,42,25,0,2,34,23,0,59,19,56,0,22,0,10,28,34,0,0,0,0,0,0,0,0,0,0,0,0,0,0,0,0,0],"split_type":[0,0,0,0,0,0,0,0,0,0,0,0,0,0,0,0,0,0,0,0,0,0,0,0,0,0,0,0,0,0,0,0,0,0,0,0,0,0,0,0,0,0,0],"sum_hessian":[1.8711411E3,1.1555632E3,7.1557794E2,2.3828564E2,9.172776E2,2.3350084E2,4.8207712E2,2.1735631E2,2.0929337E1,6.8860614E2,2.2867145E2,2.2906172E2,4.439118E0,4.345329E2,4.754422E1,1.6934849E1,3.9944885E0,5.6455426E2,1.240519E2,2.1604431E2,1.262714E1,1.0616177E1,2.1844554E2,2.4341429E2,1.9111859E2,4.381747E1,3.7267504E0,1.1954759E1,4.980089E0,5.513483E2,1.3205884E1,2.118644E1,1.0286546E2,2.1137463E2,4.6696763E0,6.389233E0,4.2269435E0,1.5124127E2,9.217302E1,1.221628E2,6.895579E1,1.5625216E1,2.8192255E1],"tree_param":{"num_deleted":"0","num_feature":"62","num_nodes":"43","size_leaf_vector":"1"}},{"base_weights":[-4.08646E-3,-3.7145585E-1,5.855866E-1,-1.4201503E0,-1.0107137E-1,1.9711995E-1,1.507979E0,-0E0,-1.4733585E0,-1.8663515E-1,6.540898E-1,9.069199E-2,1.0980673E0,-8.330805E-3,1.5477785E0,-1.4391895E-2,2.359908E-2,-4.5210704E-2,-1.6376133E-4,-2.698737E-1,1.2105509E-1,5.0600475E-1,1.1330544E0,1.6999945E-2,6.771885E-1,1.1999358E0,6.013697E-1,7.770927E-1,1.5787373E0,-1.4802955E-2,-4.5252154E-3,2.5307024E-3,4.1679777E-2,1.0953702E-2,3.9751925E-2,1.4434425E-2,4.0521037E-2,-5.1257825E-3,4.3945005E-3,-1.9334577E-2,2.3791127E-2,3.808901E-2,1.5354368E-2,-8.124588E-3,3.158528E-2,3.4335165E-3,3.8332522E-2,2.080651E-2,4.7857866E-2],"categories":[],"categories_nodes":[],"categories_segments":[],"categories_sizes":[],"default_left":[0,0,0,0,0,0,0,0,0,0,0,0,0,0,0,0,0,0,0,0,0,0,0,0,0,0,0,0,0,0,0,0,0,0,0,0,0,0,0,0,0,0,0,0,0,0,0,0,0],"id":10,"left_children":[1,3,5,7,9,11,13,15,17,19,21,23,25,-1,27,-1,-1,-1,-1,29,31,33,35,37,39,41,43,45,47,-1,-1,-1,-1,-1,-1,-1,-1,-1,-1,-1,-1,-1,-1,-1,-1,-1,-1,-1,-1],"loss_changes":[4.0539682E2,3.262751E2,2.5613123E2,1.8526062E1,5.9256203E1,4.7898376E1,1.6149261E1,3.9956026E0,1.0495361E1,2.127935E1,5.213131E0,1.9298712E1,1.0570679E0,0E0,2.559204E0,0E0,0E0,0E0,0E0,1.6959969E1,7.3110266E0,7.1806736E0,1.3273907E0,9.884609E0,8.238815E0,4.7867966E-1,5.3431168E0,2.6834998E0,6.5167236E-1,0E0,0E0,0E0,0E0,0E0,0E0,0E0,0E0,0E0,0E0,0E0,0E0,0E0,0E0,0E0,0E0,0E0,0E0,0E0,0E0],"parents":[2147483647,0,0,1,1,2,2,3,3,4,4,5,5,6,6,7,7,8,8,9,9,10,10,11,11,12,12,14,14,19,19,20,20,21,21,22,22,23,23,24,24,25,25,26,26,27,27,28,28],"right_children":[2,4,6,8,10,12,14,16,18,20,22,24,26,-1,28,-1,-1,-1,-1,30,32,34,36,38,40,42,44,46,48,-1,-1,-1,-1,-1,-1,-1,-1,-1,-1,-1,-1,-1,-1,-1,-1,-1,-1,-1,-1],"split_conditions":[3E0,4E-1,-1.3977541E0,7.295927E-1,4.2174158E2,3.9381873E2,1.2E0,1.7243728E3,3.4E0,1.9810884E2,1.356466E0,4.75E0,2.4979992E0,-8.330805E-3,-9.9148566E-1,-1.4391895E-2,2.359908E-2,-4.5210704E-2,-1.6376133E-4,2.2E0,1.142024E0,6.9930005E2,6.925686E-1,2.5E0,1.3633819E1,-4.4E1,2.6532998E0,4.3E1,2.25E0,-1.4802955E-2,-4.5252154E-3,2.5307024E-3,4.1679777E-2,1.0953702E-2,3.9751925E-2,1.4434425E-2,4.0521037E-2,-5.1257825E-3,4.3945005E-3,-1.9334577E-2,2.3791127E-2,3.808901E-2,1.5354368E-2,-8.124588E-3,3.158528E-2,3.4335165E-3,3.8332522E-2,2.080651E-2,4.7857866E-2],"split_indices":[28,22,48,32,41,2,25,0,25,2,21,28,22,0,55,0,0,0,0,25,47,41,32,25,41,8,22,7,25,0,0,0,0,0,0,0,0,0,0,0,0,0,0,0,0,0,0,0,0],"split_type":[0,0,0,0,0,0,0,0,0,0,0,0,0,0,0,0,0,0,0,0,0,0,0,0,0,0,0,0,0,0,0,0,0,0,0,0,0,0,0,0,0,0,0,0,0,0,0,0,0],"sum_hessian":[1.8698878E3,1.152865E3,7.170228E2,2.3506328E2,9.1780164E2,5.057721E2,2.1125075E2,8.208033E0,2.2685524E2,8.256644E2,9.2137215E1,4.538186E2,5.1953476E1,4.2015243E0,2.0704922E2,4.972101E0,3.2359319E0,2.2141014E2,5.4451003E0,6.512355E2,1.7442894E2,7.2746124E1,1.9391088E1,4.0483362E2,4.898498E1,4.1101444E1,1.0852034E1,9.627777E0,1.9742145E2,2.2371912E2,4.275164E2,1.7094333E2,3.4856195E0,6.3824337E1,8.921786E0,6.2321672E0,1.315892E1,1.634758E2,2.4135783E2,3.2321076E0,4.5752876E1,3.589415E1,5.2072926E0,3.4601378E0,7.3918962E0,5.1021504E0,4.5256267E0,4.95995E0,1.9246149E2],"tree_param":{"num_deleted":"0","num_feature":"62","num_nodes":"49","size_leaf_vector":"1"}},{"base_weights":[-4.4594533E-3,-3.6889932E-1,5.56502E-1,-1.3385674E0,-7.4994184E-2,1.4848824E0,1.3226964E-1,-1.4605945E0,4.5763502E-1,-1.60335E-1,6.9189197E-1,4.7693532E-2,4.37452E-1,4.0664338E-2,5.883107E-1,-1.5191419E0,-4.2380565E-1,-3.0842027E-2,9.066485E-1,-2.447977E-1,1.284319E-1,-0E0,7.717789E-1,-5.897888E-1,1.0456494E0,-1.18317075E-1,2.1783201E-1,7.368501E-1,-0E0,-4.648016E-2,-1.8696858E-2,2.5292667E-2,-3.7078794E-2,3.9746635E-2,-0E0,-9.0283165E-3,4.021709E-3,8.250224E-3,-7.5566596E-3,-1.0701603E-2,1.30629875E-2,3.020703E-2,1.3497632E-2,-3.722862E-2,9.811836E-3,1.4073921E-3,4.2647474E-2,-5.7628155E-3,1.4555391E-2,9.843549E-3,-4.553945E-3,1.5915975E-2,3.466954E-2,-8.0341995E-3,1.8178845E-2],"categories":[],"categories_nodes":[],"categories_segments":[],"categories_sizes":[],"default_left":[0,0,0,0,0,0,0,0,0,0,0,0,0,0,0,0,0,0,0,0,0,0,0,0,0,0,0,0,0,0,0,0,0,0,0,0,0,0,0,0,0,0,0,0,0,0,0,0,0,0,0,0,0,0,0],"id":11,"left_children":[1,3,5,7,9,11,13,15,17,19,21,-1,23,25,27,29,31,-1,33,35,37,39,41,43,45,47,49,51,53,-1,-1,-1,-1,-1,-1,-1,-1,-1,-1,-1,-1,-1,-1,-1,-1,-1,-1,-1,-1,-1,-1,-1,-1,-1,-1],"loss_changes":[3.8088162E2,3.2128204E2,2.8782727E2,5.8688995E1,5.67022E1,2.351239E1,2.0750648E1,1.3330994E1,1.2341915E1,1.9190828E1,5.076931E0,0E0,1.5032936E1,1.1971929E1,7.069027E0,4.230652E0,1.6676912E1,0E0,5.8187647E0,1.30484085E1,9.922527E0,1.5976061E0,4.7304497E0,6.104126E0,4.8049107E0,9.82061E0,8.356018E0,4.265465E0,3.2242055E0,0E0,0E0,0E0,0E0,0E0,0E0,0E0,0E0,0E0,0E0,0E0,0E0,0E0,0E0,0E0,0E0,0E0,0E0,0E0,0E0,0E0,0E0,0E0,0E0,0E0,0E0],"parents":[2147483647,0,0,1,1,2,2,3,3,4,4,5,5,6,6,7,7,8,8,9,9,10,10,12,12,13,13,14,14,15,15,16,16,18,18,19,19,20,20,21,21,22,22,23,23,24,24,25,25,26,26,27,27,28,28],"right_children":[2,4,6,8,10,12,14,16,18,20,22,-1,24,26,28,30,32,-1,34,36,38,40,42,44,46,48,50,52,54,-1,-1,-1,-1,-1,-1,-1,-1,-1,-1,-1,-1,-1,-1,-1,-1,-1,-1,-1,-1,-1,-1,-1,-1,-1,-1],"split_conditions":[3E0,1E0,2E0,1.12E0,4.2174158E2,1E0,4.0948166E2,2.2E0,-7.593113E-1,1.9146898E2,2.5E-1,4.7693532E-2,1E0,3.5E0,1.47602E3,9.4280905E-1,3.073438E-1,-3.0842027E-2,3.643996E-1,1.52E2,8E-1,1.25E-1,8.164966E-1,1.92E0,-5.242703E-1,1.8708287E0,7.1E1,5.883521E2,4E0,-4.648016E-2,-1.8696858E-2,2.5292667E-2,-3.7078794E-2,3.9746635E-2,-0E0,-9.0283165E-3,4.021709E-3,8.250224E-3,-7.5566596E-3,-1.0701603E-2,1.30629875E-2,3.020703E-2,1.3497632E-2,-3.722862E-2,9.811836E-3,1.4073921E-3,4.2647474E-2,-5.7628155E-3,1.4555391E-2,9.843549E-3,-4.553945E-3,1.5915975E-2,3.466954E-2,-8.0341995E-3,1.8178845E-2],"split_indices":[25,34,34,45,41,19,41,25,48,2,9,0,22,25,4,19,50,0,59,6,15,15,17,45,49,17,34,41,25,0,0,0,0,0,0,0,0,0,0,0,0,0,0,0,0,0,0,0,0,0,0,0,0,0,0],"split_type":[0,0,0,0,0,0,0,0,0,0,0,0,0,0,0,0,0,0,0,0,0,0,0,0,0,0,0,0,0,0,0,0,0,0,0,0,0,0,0,0,0,0,0,0,0,0,0,0,0,0,0,0,0,0,0],"sum_hessian":[1.8615333E3,1.1291755E3,7.323578E2,2.6142197E2,8.6775354E2,2.285423E2,5.038155E2,2.4522736E2,1.6194605E1,7.821563E2,8.559721E1,2.068325E2,2.1709803E1,4.2136182E2,8.245369E1,2.3122275E2,1.4004613E1,3.2007499E0,1.2993854E1,6.0661005E2,1.7554625E2,8.476091E0,7.7121124E1,7.7791104E0,1.3930693E1,2.2076675E2,2.0059505E2,6.521838E1,1.7235302E1,2.2243802E2,8.78473E0,5.215352E0,8.789261E0,8.868171E0,4.125683E0,5.296426E2,7.696749E1,1.2786042E2,4.7685833E1,5.233583E0,3.242508E0,4.243778E1,3.4683342E1,4.6607795E0,3.118331E0,4.480972E0,9.44972E0,1.9806389E2,2.2702873E1,1.5562604E2,4.4969013E1,4.601186E1,1.9206526E1,1.1992204E1,5.243099E0],"tree_param":{"num_deleted":"0","num_feature":"62","num_nodes":"55","size_leaf_vector":"1"}},{"base_weights":[-9.87617E-3,-3.697203E-1,5.656956E-1,-1.15808055E-1,-1.3218246E0,1.4501451E0,1.4693391E-1,-1.973047E-1,3.50528E-1,-1.4420844E0,4.285396E-2,9.6039005E-2,1.5363226E0,2.6762463E-2,7.263114E-1,-1.2949244E0,-1.7096388E-1,2.5273976E-1,3.680166E-2,-4.519086E-2,-3.5591057E-1,4.0894806E-2,-2.8376994E-1,6.888478E-1,-2.5884263E-2,4.6902884E-2,-2.1135262E-3,-7.834778E-2,3.8461438E-1,5.012938E-1,1.0805014E0,-0E0,-4.77263E-2,-5.7654674E-3,3.252857E-2,5.785157E-3,3.664638E-2,3.121463E-3,-2.2169093E-2,-1.9067049E-2,8.745304E-3,-7.254145E-3,4.1382603E-2,2.0466144E-3,-8.087419E-3,4.0980973E-3,2.4146747E-2,2.1252308E-2,2.9969844E-3,1.8497482E-2,3.8080007E-2],"categories":[],"categories_nodes":[],"categories_segments":[],"categories_sizes":[],"default_left":[0,0,0,0,0,0,0,0,0,0,0,0,0,0,0,0,0,0,0,0,0,0,0,0,0,0,0,0,0,0,0,0,0,0,0,0,0,0,0,0,0,0,0,0,0,0,0,0,0,0,0],"id":12,"left_children":[1,3,5,7,9,11,13,15,17,19,21,23,25,27,29,31,33,35,-1,-1,37,-1,39,41,-1,-1,-1,43,45,47,49,-1,-1,-1,-1,-1,-1,-1,-1,-1,-1,-1,-1,-1,-1,-1,-1,-1,-1,-1,-1],"loss_changes":[3.8611838E2,2.766362E2,2.6447757E2,3.4491096E1,4.0341003E1,2.5856903E1,3.357921E1,2.1431131E1,1.04730835E1,1.4032135E1,9.622874E0,9.127864E0,1.0250122E1,1.5450858E1,5.2883415E0,6.9411793E0,1.9943401E1,6.1810656E0,0E0,0E0,2.887034E0,0E0,3.7351773E0,7.4899073E0,0E0,0E0,0E0,8.906004E0,9.155207E0,3.9752216E0,9.501953E-1,0E0,0E0,0E0,0E0,0E0,0E0,0E0,0E0,0E0,0E0,0E0,0E0,0E0,0E0,0E0,0E0,0E0,0E0,0E0,0E0],"parents":[2147483647,0,0,1,1,2,2,3,3,4,4,5,5,6,6,7,7,8,8,9,9,10,10,11,11,12,12,13,13,14,14,15,15,16,16,17,17,20,20,22,22,23,23,27,27,28,28,29,29,30,30],"right_children":[2,4,6,8,10,12,14,16,18,20,22,24,26,28,30,32,34,36,-1,-1,38,-1,40,42,-1,-1,-1,44,46,48,50,-1,-1,-1,-1,-1,-1,-1,-1,-1,-1,-1,-1,-1,-1,-1,-1,-1,-1,-1,-1],"split_conditions":[3E0,5E0,2E0,2.6529E2,2.6666667E0,3E0,2.9739062E2,-7.494383E-1,5.7668E2,7.0710677E-1,2.8593194E-1,2E-1,1.47902E0,1.57E2,4.678998E2,1.25E-1,6.315706E-1,3.2E0,3.680166E-2,-4.519086E-2,1.492E3,4.0894806E-2,2.5E0,1.4E0,-2.5884263E-2,4.6902884E-2,-2.1135262E-3,3E0,1E0,-4.7E1,4E0,-0E0,-4.77263E-2,-5.7654674E-3,3.252857E-2,5.785157E-3,3.664638E-2,3.121463E-3,-2.2169093E-2,-1.9067049E-2,8.745304E-3,-7.254145E-3,4.1382603E-2,2.0466144E-3,-8.087419E-3,4.0980973E-3,2.4146747E-2,2.1252308E-2,2.9969844E-3,1.8497482E-2,3.8080007E-2],"split_indices":[28,30,34,5,25,25,2,59,5,20,59,26,20,6,2,15,55,9,0,0,4,0,28,45,0,0,0,8,35,8,34,0,0,0,0,0,0,0,0,0,0,0,0,0,0,0,0,0,0,0,0],"split_type":[0,0,0,0,0,0,0,0,0,0,0,0,0,0,0,0,0,0,0,0,0,0,0,0,0,0,0,0,0,0,0,0,0,0,0,0,0,0,0,0,0,0,0,0,0,0,0,0,0,0,0],"sum_hessian":[1.8627238E3,1.1469092E3,7.1581464E2,9.067413E2,2.4016785E2,2.2883809E2,4.8697653E2,7.732565E2,1.334848E2,2.2100208E2,1.9165762E1,1.4165898E1,2.1467218E2,4.0490286E2,8.207366E1,1.6548292E1,7.567082E2,1.2175532E2,1.17294855E1,2.078545E2,1.3147575E1,3.475229E0,1.5690533E1,9.250075E0,4.915823E0,2.1144322E2,3.2289636E0,3.1249805E2,9.240482E1,5.2528927E1,2.9544731E1,3.1791637E0,1.3369128E1,7.453542E2,1.1354029E1,1.1628083E2,5.4744864E0,5.7119865E0,7.435589E0,1.0210747E1,5.4797864E0,3.9085348E0,5.341541E0,1.7579251E2,1.3670554E2,5.969358E1,3.2711243E1,3.3323647E1,1.9205282E1,1.0546768E1,1.8997963E1],"tree_param":{"num_deleted":"0","num_feature":"62","num_nodes":"51","size_leaf_vector":"1"}},{"base_weights":[5.24448E-4,-3.5208666E-1,5.703049E-1,-1.2591449E0,-8.1688784E-2,1.4321038E0,1.6751888E-1,-1.4502794E0,3.3190215E-1,-1.5504663E-1,4.799294E-1,1.465876E0,-8.403338E-3,8.038396E-2,9.4574726E-1,-1.4717332E0,-0E0,-5.795872E-1,1.021718E0,-2.5775206E-1,-9.072947E-4,2.6619276E-1,7.707276E-1,8.768882E-1,4.574109E-2,-5.7178013E-2,2.9635984E-1,6.899534E-1,1.2990884E0,-1.3584458E-2,-4.4843927E-2,-3.760229E-2,1.5789843E-3,-1.2196333E-2,4.259338E-2,-1.0043795E-2,3.6001506E-3,-3.6838786E-3,6.719867E-3,5.760663E-4,2.7943222E-2,3.4897134E-2,1.3810143E-2,3.5340386E-3,3.6916785E-2,-9.417217E-3,5.3426954E-3,4.508161E-3,2.2859672E-2,3.262293E-2,9.044986E-3,4.429997E-2,6.455294E-3],"categories":[],"categories_nodes":[],"categories_segments":[],"categories_sizes":[],"default_left":[0,0,0,0,0,0,0,0,0,0,0,0,0,0,0,0,0,0,0,0,0,0,0,0,0,0,0,0,0,0,0,0,0,0,0,0,0,0,0,0,0,0,0,0,0,0,0,0,0,0,0,0,0],"id":13,"left_children":[1,3,5,7,9,11,13,15,17,19,21,23,-1,25,27,29,-1,31,33,35,37,39,41,43,-1,45,47,49,51,-1,-1,-1,-1,-1,-1,-1,-1,-1,-1,-1,-1,-1,-1,-1,-1,-1,-1,-1,-1,-1,-1,-1,-1],"loss_changes":[3.74607E2,2.815017E2,2.4649542E2,8.126413E1,3.650036E1,1.4107086E1,3.2468952E1,7.3373413E0,1.8937517E1,1.2329882E1,5.6195927E0,5.177368E0,0E0,1.3211541E1,2.4852104E0,3.8141174E0,0E0,6.095071E0,1.0795614E1,1.3836601E1,8.6850395E0,9.585665E0,3.7349777E0,5.448429E0,0E0,1.6327503E1,1.1184661E1,3.7701035E0,2.3737335E0,0E0,0E0,0E0,0E0,0E0,0E0,0E0,0E0,0E0,0E0,0E0,0E0,0E0,0E0,0E0,0E0,0E0,0E0,0E0,0E0,0E0,0E0,0E0,0E0],"parents":[2147483647,0,0,1,1,2,2,3,3,4,4,5,5,6,6,7,7,8,8,9,9,10,10,11,11,13,13,14,14,15,15,17,17,18,18,19,19,20,20,21,21,22,22,23,23,25,25,26,26,27,27,28,28],"right_children":[2,4,6,8,10,12,14,16,18,20,22,24,-1,26,28,30,-1,32,34,36,38,40,42,44,-1,46,48,50,52,-1,-1,-1,-1,-1,-1,-1,-1,-1,-1,-1,-1,-1,-1,-1,-1,-1,-1,-1,-1,-1,-1,-1,-1],"split_conditions":[3E0,1E0,2E0,2.2E0,4.0948166E2,1.5E0,3.9381873E2,2.5E0,1E0,1.8282738E2,7.295927E-1,4E0,-8.403338E-3,1.6E0,5.673579E2,2E0,-0E0,7.020804E-1,1.0563E3,1.849189E3,1.118034E0,1.8777826E3,1.16E3,-1.1783269E-1,4.574109E-2,2.6484303E1,9.3726045E-1,3.17E2,1E0,-1.3584458E-2,-4.4843927E-2,-3.760229E-2,1.5789843E-3,-1.2196333E-2,4.259338E-2,-1.0043795E-2,3.6001506E-3,-3.6838786E-3,6.719867E-3,5.760663E-4,2.7943222E-2,3.4897134E-2,1.3810143E-2,3.5340386E-3,3.6916785E-2,-9.417217E-3,5.3426954E-3,4.508161E-3,2.2859672E-2,3.262293E-2,9.044986E-3,4.429997E-2,6.455294E-3],"split_indices":[28,34,34,28,41,20,2,9,10,41,32,30,0,10,41,30,0,47,3,1,17,0,4,59,0,2,32,42,33,0,0,0,0,0,0,0,0,0,0,0,0,0,0,0,0,0,0,0,0,0,0,0,0],"split_type":[0,0,0,0,0,0,0,0,0,0,0,0,0,0,0,0,0,0,0,0,0,0,0,0,0,0,0,0,0,0,0,0,0,0,0,0,0,0,0,0,0,0,0,0,0,0,0,0,0,0,0,0,0],"sum_hessian":[1.8620004E3,1.1498903E3,7.121101E2,2.6280313E2,8.870871E2,2.2560657E2,4.8650354E2,2.3497769E2,2.7825438E1,7.8603094E2,1.0105613E2,2.2167017E2,3.9364004E0,4.3908664E2,4.7416893E1,2.3153554E2,3.4421632E0,1.1743332E1,1.6082108E1,4.6936783E2,3.1666315E2,6.0340595E1,4.0715538E1,2.2345753E1,1.9932442E2,2.6727243E2,1.7181421E2,3.0038713E1,1.737818E1,6.0616107E0,2.2547392E2,5.591839E0,6.1514926E0,3.2268E0,1.2855307E1,3.9105252E2,7.83153E1,2.0710008E2,1.0956306E2,4.530165E1,1.5038946E1,1.6054676E1,2.4660862E1,7.9752493E0,1.4370504E1,1.2866331E2,1.3860912E2,1.3260645E2,3.9207767E1,1.33213625E1,1.6717352E1,1.422419E1,3.153991E0],"tree_param":{"num_deleted":"0","num_feature":"62","num_nodes":"53","size_leaf_vector":"1"}},{"base_weights":[-0E0,-3.3879682E-1,5.246514E-1,-8.742212E-2,-1.3215305E0,1.4189267E0,1.2778799E-1,-1.6573471E-1,6.4972275E-1,-1.4505492E0,-2.2152723E-1,4.5418017E-2,4.466718E-1,5.84608E-1,3.5659052E-2,-3.129054E-1,-3.972477E-2,3.6705092E-1,9.842493E-1,-4.39258E-2,-1.0033941E-2,2.6633632E-1,-8.1571776E-1,-4.336524E-1,3.700708E-2,3.0769452E-1,9.4851696E-1,-8.930465E-2,3.498354E-1,-7.6944297E-3,-2.9656937E-2,3.0097604E-2,-2.0179132E-3,-6.69014E-4,1.9075468E-2,3.2405365E-2,-0E0,2.4522224E-2,-9.83117E-3,-2.1361536E-3,-3.0423373E-2,-3.461825E-2,1.4204646E-2,1.3257297E-2,-2.1616885E-2,8.328732E-3,3.442464E-2,-5.112124E-3,1.15849525E-2,3.0743105E-3,1.9421447E-2],"categories":[],"categories_nodes":[],"categories_segments":[],"categories_sizes":[],"default_left":[0,0,0,0,0,0,0,0,0,0,0,0,0,0,0,0,0,0,0,0,0,0,0,0,0,0,0,0,0,0,0,0,0,0,0,0,0,0,0,0,0,0,0,0,0,0,0,0,0,0,0],"id":14,"left_children":[1,3,5,7,9,11,13,15,17,19,21,-1,23,25,27,29,31,33,35,-1,-1,37,39,41,-1,43,45,47,49,-1,-1,-1,-1,-1,-1,-1,-1,-1,-1,-1,-1,-1,-1,-1,-1,-1,-1,-1,-1,-1,-1],"loss_changes":[3.315679E2,2.7916156E2,2.588181E2,5.2051033E1,3.153833E1,1.9080505E1,2.1067963E1,1.4991911E1,7.1336517E0,1.7419128E0,7.962712E0,0E0,1.6085907E1,7.5807877E0,1.6851063E1,1.3443684E1,1.2351536E1,5.4739485E0,3.8206024E0,0E0,0E0,5.241025E0,1.2060385E0,7.919179E0,0E0,7.1022387E0,3.6665993E0,1.1672061E1,8.560764E0,0E0,0E0,0E0,0E0,0E0,0E0,0E0,0E0,0E0,0E0,0E0,0E0,0E0,0E0,0E0,0E0,0E0,0E0,0E0,0E0,0E0,0E0],"parents":[2147483647,0,0,1,1,2,2,3,3,4,4,5,5,6,6,7,7,8,8,9,9,10,10,12,12,13,13,14,14,15,15,16,16,17,17,18,18,21,21,22,22,23,23,25,25,26,26,27,27,28,28],"right_children":[2,4,6,8,10,12,14,16,18,20,22,-1,24,26,28,30,32,34,36,-1,-1,38,40,42,-1,44,46,48,50,-1,-1,-1,-1,-1,-1,-1,-1,-1,-1,-1,-1,-1,-1,-1,-1,-1,-1,-1,-1,-1,-1],"split_conditions":[3E0,5E0,2E0,4.2174158E2,1E0,1.118034E0,-5.3E1,1.339053E2,1.47902E0,1.3E1,3E0,4.5418017E-2,1.6666666E0,2E0,4E0,-6.731665E-1,-1.4236008E0,5E0,1.25E0,-4.39258E-2,-1.0033941E-2,1.5E0,1.2247449E0,-1.8396518E-1,3.700708E-2,3E0,1.5E0,1.8708287E0,7.9616714E-1,-7.6944297E-3,-2.9656937E-2,3.0097604E-2,-2.0179132E-3,-6.69014E-4,1.9075468E-2,3.2405365E-2,-0E0,2.4522224E-2,-9.83117E-3,-2.1361536E-3,-3.0423373E-2,-3.461825E-2,1.4204646E-2,1.3257297E-2,-2.1616885E-2,8.328732E-3,3.442464E-2,-5.112124E-3,1.15849525E-2,3.0743105E-3,1.9421447E-2],"split_indices":[25,30,34,41,22,19,8,41,22,34,8,0,12,12,25,46,50,34,13,0,0,11,22,51,0,30,9,17,32,0,0,0,0,0,0,0,0,0,0,0,0,0,0,0,0,0,0,0,0,0,0],"split_type":[0,0,0,0,0,0,0,0,0,0,0,0,0,0,0,0,0,0,0,0,0,0,0,0,0,0,0,0,0,0,0,0,0,0,0,0,0,0,0,0,0,0,0,0,0,0,0,0,0,0,0],"sum_hessian":[1.8633207E3,1.1323707E3,7.3094995E2,9.0299115E2,2.2937953E2,2.2349669E2,5.0745328E2,8.175861E2,8.540503E1,2.0460796E2,2.4771576E1,2.0262508E2,2.0871607E1,8.335685E1,4.2409644E2,3.7461322E2,4.4297293E2,4.823705E1,3.7167976E1,2.0138614E2,3.2218256E0,1.3443774E1,1.1327803E1,9.762984E0,1.1108622E1,4.9164795E1,3.419205E1,3.0278708E2,1.2130934E2,3.4769666E2,2.6916584E1,1.001695E1,4.3295596E2,1.9315554E1,2.8921495E1,3.3964157E1,3.203819E0,7.215707E0,6.2280674E0,3.1996522E0,8.12815E0,5.597537E0,4.1654477E0,4.44229E1,4.7418957E0,8.943729E0,2.5248322E1,2.601135E2,4.2673603E1,6.7892914E1,5.3416424E1],"tree_param":{"num_deleted":"0","num_feature":"62","num_nodes":"51","size_leaf_vector":"1"}},{"base_weights":[-7.884717E-4,-3.4406146E-1,5.3164124E-1,-1.2391112E0,-8.3312005E-2,1.4149005E0,1.4658833E-1,-1.3888361E0,1.3865499E-1,-1.2661259E-1,7.312627E-1,1.4430594E0,-2.5126624E-3,7.153177E-2,7.6143354E-1,-8.405343E-2,-1.4428188E0,-4.622116E-1,1.0439901E0,-1.9176131E-1,8.7762766E-2,2.74555E-1,9.6218646E-1,1.4720274E0,6.701944E-3,-3.5553567E-2,3.8097122E-1,8.4335685E-1,-8.403367E-3,-2.1127276E-2,2.1667508E-2,-4.3852173E-2,-1.7578585E-2,-3.1675015E-2,2.2371775E-2,3.9888427E-2,4.844267E-3,1.4503332E-2,-6.7582424E-3,4.043786E-3,-2.0695526E-2,-2.3498466E-2,2.025207E-2,9.7716795E-3,3.6761686E-2,1.4788577E-2,4.455765E-2,-2.0059147E-3,3.463865E-2,2.1518895E-2,4.610597E-3,2.8202912E-2,-0E0],"categories":[],"categories_nodes":[],"categories_segments":[],"categories_sizes":[],"default_left":[0,0,0,0,0,0,0,0,0,0,0,0,0,0,0,0,0,0,0,0,0,0,0,0,0,0,0,0,0,0,0,0,0,0,0,0,0,0,0,0,0,0,0,0,0,0,0,0,0,0,0,0,0],"id":15,"left_children":[1,3,5,7,9,11,13,15,17,19,21,23,-1,25,27,29,31,33,35,37,39,41,43,45,-1,47,49,51,-1,-1,-1,-1,-1,-1,-1,-1,-1,-1,-1,-1,-1,-1,-1,-1,-1,-1,-1,-1,-1,-1,-1,-1,-1],"loss_changes":[3.365812E2,2.6075616E2,2.444021E2,5.286258E1,3.0450615E1,1.002298E1,2.278682E1,1.5173401E1,1.4542734E1,1.1616507E1,3.6988678E0,6.4158325E0,0E0,1.5130097E1,5.1256027E0,5.743979E0,1.6619263E0,1.2110905E1,1.746067E0,1.4376509E1,6.822715E0,7.556336E0,3.4698696E0,9.897156E-1,0E0,1.2007688E1,8.415447E0,3.9333687E0,0E0,0E0,0E0,0E0,0E0,0E0,0E0,0E0,0E0,0E0,0E0,0E0,0E0,0E0,0E0,0E0,0E0,0E0,0E0,0E0,0E0,0E0,0E0,0E0,0E0],"parents":[2147483647,0,0,1,1,2,2,3,3,4,4,5,5,6,6,7,7,8,8,9,9,10,10,11,11,13,13,14,14,15,15,16,16,17,17,18,18,19,19,20,20,21,21,22,22,23,23,25,25,26,26,27,27],"right_children":[2,4,6,8,10,12,14,16,18,20,22,24,-1,26,28,30,32,34,36,38,40,42,44,46,-1,48,50,52,-1,-1,-1,-1,-1,-1,-1,-1,-1,-1,-1,-1,-1,-1,-1,-1,-1,-1,-1,-1,-1,-1,-1,-1,-1],"split_conditions":[3E0,1E0,1E0,2.2E0,4.5671695E2,2.2449944E0,3.7343948E2,2E0,9.0399575E-1,1.8230434E2,6.925686E-1,8.3333336E-2,-2.5126624E-3,3.84E0,1.6709316E3,9.628249E-1,9.4280905E-1,-1.44316815E-2,6.25E-1,-4.3300443E2,1.26E2,1.0897248E0,5E0,2E0,6.701944E-3,3.6E0,1.4696939E0,8.1E1,-8.403367E-3,-2.1127276E-2,2.1667508E-2,-4.3852173E-2,-1.7578585E-2,-3.1675015E-2,2.2371775E-2,3.9888427E-2,4.844267E-3,1.4503332E-2,-6.7582424E-3,4.043786E-3,-2.0695526E-2,-2.3498466E-2,2.025207E-2,9.7716795E-3,3.6761686E-2,1.4788577E-2,4.455765E-2,-2.0059147E-3,3.463865E-2,2.1518895E-2,4.610597E-3,2.8202912E-2,-0E0],"split_indices":[25,34,34,25,2,17,2,30,48,2,32,44,0,45,1,54,17,52,15,2,34,22,34,30,0,10,18,34,0,0,0,0,0,0,0,0,0,0,0,0,0,0,0,0,0,0,0,0,0,0,0,0,0],"split_type":[0,0,0,0,0,0,0,0,0,0,0,0,0,0,0,0,0,0,0,0,0,0,0,0,0,0,0,0,0,0,0,0,0,0,0,0,0,0,0,0,0,0,0,0,0,0,0,0,0,0,0,0,0],"sum_hessian":[1.840081E3,1.1195605E3,7.205205E2,2.512949E2,8.682657E2,2.1754005E2,5.0298044E2,2.2698302E2,2.4311884E1,8.2582544E2,4.2440258E1,2.1389188E2,3.6481752E0,4.4997928E2,5.3001163E1,9.487412E0,2.174956E2,1.4575422E1,9.736462E0,6.352198E2,1.906056E2,1.5714728E1,2.6725529E1,2.0832706E2,5.5648146E0,3.3375018E2,1.16229095E2,4.9757782E1,3.2433813E0,5.7846746E0,3.7027376E0,2.1153528E2,5.960338E0,1.0134719E1,4.4407024E0,6.545001E0,3.1914601E0,2.8697514E1,6.065223E2,1.8112105E2,9.484557E0,3.7104921E0,1.2004236E1,9.029085E0,1.7696444E1,3.7910397E0,2.0453603E2,3.2652417E2,7.226032E0,4.5114674E1,7.111442E1,4.4299465E1,5.458317E0],"tree_param":{"num_deleted":"0","num_feature":"62","num_nodes":"53","size_leaf_vector":"1"}},{"base_weights":[1.794957E-2,-5.4906845E-1,3.1081933E-1,-1.041554E-1,-1.2991366E0,9.184413E-2,1.266759E0,-2.0537212E-1,1.7930825E-1,-2.06282E-1,-1.376562E0,2.9583521E-2,8.816095E-1,3.8714397E-1,1.4198998E0,-4.0568344E-2,-1.665292E-1,2.758287E-1,-5.8605915E-1,-5.801007E-1,2.4973516E-1,-1.4029754E0,2.1440021E-3,-2.3430193E-2,4.8483574E-1,6.074753E-1,3.681413E-2,-1.0294373E0,8.2795185E-1,2.6815945E-1,1.4597776E0,-5.7162875E-3,2.8308414E-2,2.524819E-2,3.4501757E-3,-0E0,-3.518661E-2,-3.320675E-2,-2.0397904E-3,1.9922309E-2,-3.9010204E-3,-1.3444831E-2,-4.2639073E-2,-1.9491752E-4,-4.5612026E-2,4.908536E-3,2.7185157E-2,2.915047E-2,4.186404E-3,-1.0298526E-2,-3.84782E-2,-1.7157717E-2,3.5706077E-2,-1.4374356E-2,3.163925E-2,6.212687E-3,4.4389926E-2],"categories":[],"categories_nodes":[],"categories_segments":[],"categories_sizes":[],"default_left":[0,0,0,0,0,0,0,0,0,0,0,0,0,0,0,0,0,0,0,0,0,0,0,0,0,0,0,0,0,0,0,0,0,0,0,0,0,0,0,0,0,0,0,0,0,0,0,0,0,0,0,0,0,0,0,0,0],"id":16,"left_children":[1,3,5,7,9,11,13,15,17,19,21,23,25,27,29,-1,31,33,35,37,39,41,-1,43,45,47,-1,49,51,53,55,-1,-1,-1,-1,-1,-1,-1,-1,-1,-1,-1,-1,-1,-1,-1,-1,-1,-1,-1,-1,-1,-1,-1,-1,-1,-1],"loss_changes":[3.034943E2,2.0677892E2,2.5168349E2,1.1297075E1,1.8481293E1,4.7846504E1,2.876004E1,1.1962714E1,7.5696416E0,3.1900663E0,8.998047E0,2.2268635E1,5.081299E0,2.2680592E1,7.479065E0,0E0,7.338901E0,7.811808E0,4.0357485E0,2.0856428E0,1.5661286E0,2.1339111E0,0E0,1.9947042E1,1.2339674E1,6.549779E0,0E0,2.2522259E-1,1.4989466E1,5.5002203E0,3.4131775E0,0E0,0E0,0E0,0E0,0E0,0E0,0E0,0E0,0E0,0E0,0E0,0E0,0E0,0E0,0E0,0E0,0E0,0E0,0E0,0E0,0E0,0E0,0E0,0E0,0E0,0E0],"parents":[2147483647,0,0,1,1,2,2,3,3,4,4,5,5,6,6,7,7,8,8,9,9,10,10,11,11,12,12,13,13,14,14,16,16,17,17,18,18,19,19,20,20,21,21,23,23,24,24,25,25,27,27,28,28,29,29,30,30],"right_children":[2,4,6,8,10,12,14,16,18,20,22,24,26,28,30,-1,32,34,36,38,40,42,-1,44,46,48,-1,50,52,54,56,-1,-1,-1,-1,-1,-1,-1,-1,-1,-1,-1,-1,-1,-1,-1,-1,-1,-1,-1,-1,-1,-1,-1,-1,-1,-1],"split_conditions":[2.2E0,4E0,-7.3728764E-1,2.656E2,1E0,4.2582428E2,1E0,-7.494383E-1,9.3726045E-1,1E0,2.25E0,8.1E1,5.443321E2,1.2E0,-2.3798888E2,-4.0568344E-2,2.5276917E-1,3.6E1,8.164966E-1,2.5E-1,6E1,7.9616714E-1,2.1440021E-3,3.7267798E-1,1.58E2,3.6986E2,3.681413E-2,-9.7747034E-1,1.1999E2,5E0,5E-1,-5.7162875E-3,2.8308414E-2,2.524819E-2,3.4501757E-3,-0E0,-3.518661E-2,-3.320675E-2,-2.0397904E-3,1.9922309E-2,-3.9010204E-3,-1.3444831E-2,-4.2639073E-2,-1.9491752E-4,-4.5612026E-2,4.908536E-3,2.7185157E-2,2.915047E-2,4.186404E-3,-1.0298526E-2,-3.84782E-2,-1.7157717E-2,3.5706077E-2,-1.4374356E-2,3.163925E-2,6.212687E-3,4.4389926E-2],"split_indices":[28,30,48,42,35,2,10,59,32,11,9,43,2,9,2,0,48,6,20,23,6,32,0,39,6,42,0,61,42,30,11,0,0,0,0,0,0,0,0,0,0,0,0,0,0,0,0,0,0,0,0,0,0,0,0,0,0],"split_type":[0,0,0,0,0,0,0,0,0,0,0,0,0,0,0,0,0,0,0,0,0,0,0,0,0,0,0,0,0,0,0,0,0,0,0,0,0,0,0,0,0,0,0,0,0,0,0,0,0,0,0,0,0,0,0,0,0],"sum_hessian":[1.8262812E3,6.2113495E2,1.2051464E3,3.9100848E2,2.3012646E2,9.8185406E2,2.232922E2,2.896295E2,1.0137899E2,1.5894759E1,2.142317E2,9.1165497E2,7.0199135E1,3.4117867E1,1.8917435E2,7.9583654E0,2.816711E2,9.117394E1,1.0205047E1,9.187599E0,6.70716E0,2.1076358E2,3.4681237E0,8.164324E2,9.522257E1,4.1488373E1,2.8710762E1,7.510971E0,2.6606895E1,7.0088644E0,1.8216548E2,2.7695892E2,4.7122E0,1.8554993E1,7.261895E1,5.4737835E0,4.731263E0,3.4750805E0,5.7125187E0,3.4791923E0,3.2279677E0,4.9624367E0,2.0580115E2,8.08624E2,7.8083797E0,5.549181E1,3.9730762E1,2.2123606E1,1.9364767E1,3.1916647E0,4.3193064E0,5.066999E0,2.1539898E1,3.4683337E0,3.5405307E0,3.417967E0,1.7874751E2],"tree_param":{"num_deleted":"0","num_feature":"62","num_nodes":"57","size_leaf_vector":"1"}},{"base_weights":[-0E0,-3.1162003E-1,5.0501704E-1,-1.2408991E0,-1.0129484E-1,1.3439004E0,1.4279155E-1,-4.2204816E-2,2.4866447E-1,-1.9449265E-1,1.7050564E-1,1.4061062E0,-3.3190057E-1,2.7652193E-2,6.786682E-1,2.6209079E-2,-3.267247E-2,-2.112842E-1,4.458583E-2,-1.4507604E-1,3.3687538E-1,1.4328898E0,-0E0,-3.7271917E-2,1.7494893E-2,-7.3409975E-2,3.8447607E-1,7.369999E-1,-9.266368E-3,-1.0599585E-2,1.6377514E-2,-5.0716633E-3,-3.0870559E-2,-1.048062E-2,1.3215496E-2,6.66706E-3,2.9132906E-2,1.496283E-2,4.3464012E-2,-4.184097E-3,1.1941646E-2,1.8183328E-2,7.791566E-4,2.3971815E-2,-7.5131594E-3],"categories":[],"categories_nodes":[],"categories_segments":[],"categories_sizes":[],"default_left":[0,0,0,0,0,0,0,0,0,0,0,0,0,0,0,0,0,0,0,0,0,0,0,0,0,0,0,0,0,0,0,0,0,0,0,0,0,0,0,0,0,0,0,0,0],"id":17,"left_children":[1,3,5,7,9,11,13,-1,15,17,19,21,23,25,27,-1,29,31,-1,33,35,37,-1,-1,-1,39,41,43,-1,-1,-1,-1,-1,-1,-1,-1,-1,-1,-1,-1,-1,-1,-1,-1,-1],"loss_changes":[2.8725333E2,2.197312E2,2.1076645E2,5.226712E1,2.3390205E1,2.2850433E1,2.9745617E1,0E0,4.2058487E0,1.9095999E1,1.2455744E1,7.0155945E0,7.737948E0,1.473832E1,5.368099E0,0E0,2.9065478E0,2.2794172E1,0E0,9.750481E0,1.0448124E1,1.2532959E0,0E0,0E0,0E0,9.714182E0,6.8458776E0,5.4702682E0,0E0,0E0,0E0,0E0,0E0,0E0,0E0,0E0,0E0,0E0,0E0,0E0,0E0,0E0,0E0,0E0,0E0],"parents":[2147483647,0,0,1,1,2,2,3,3,4,4,5,5,6,6,8,8,9,9,10,10,11,11,12,12,13,13,14,14,16,16,17,17,19,19,20,20,21,21,25,25,26,26,27,27],"right_children":[2,4,6,8,10,12,14,-1,16,18,20,22,24,26,28,-1,30,32,-1,34,36,38,-1,-1,-1,40,42,44,-1,-1,-1,-1,-1,-1,-1,-1,-1,-1,-1,-1,-1,-1,-1,-1,-1],"split_conditions":[3E0,4E-1,2E0,3E0,2.656E2,2E0,2.9739062E2,-4.2204816E-2,3E-1,1.3033746E0,6.8E1,1.356466E0,-6.666667E-1,1.57E2,1.43917E3,2.6209079E-2,3.2E0,-6.731665E-1,4.458583E-2,9.4280905E-1,1.9652393E3,2.25E0,-0E0,-3.7271917E-2,1.7494893E-2,4E0,1.78E2,2.02E2,-9.266368E-3,-1.0599585E-2,1.6377514E-2,-5.0716633E-3,-3.0870559E-2,-1.048062E-2,1.3215496E-2,6.66706E-3,2.9132906E-2,1.496283E-2,4.3464012E-2,-4.184097E-3,1.1941646E-2,1.8183328E-2,7.791566E-4,2.3971815E-2,-7.5131594E-3],"split_indices":[28,22,34,34,42,22,2,0,15,55,7,20,31,6,4,0,25,46,0,21,0,25,0,0,0,25,6,7,0,0,0,0,0,0,0,0,0,0,0,0,0,0,0,0,0],"split_type":[0,0,0,0,0,0,0,0,0,0,0,0,0,0,0,0,0,0,0,0,0,0,0,0,0,0,0,0,0,0,0,0,0,0,0,0,0,0,0,0,0,0,0,0,0],"sum_hessian":[1.823001E3,1.1273044E3,6.956966E2,2.0671205E2,9.2059235E2,2.0857173E2,4.8712485E2,1.8634554E2,2.0366518E1,6.871121E2,2.3348022E2,2.0154951E2,7.0222163E0,4.026051E2,8.451976E1,6.220349E0,1.4146169E1,6.8147534E2,5.6367555E0,7.9604164E1,1.5387607E2,1.974651E2,4.0844064E0,3.6144745E0,3.407742E0,3.132712E2,8.933386E1,8.052347E1,3.9962902E0,9.908511E0,4.2376575E0,6.4974023E2,3.173516E1,5.9948868E1,1.9655293E1,1.3213118E2,2.174488E1,4.375063E0,1.9309004E2,2.763191E2,3.6952118E1,5.391631E1,3.5417557E1,7.641774E1,4.1057262E0],"tree_param":{"num_deleted":"0","num_feature":"62","num_nodes":"45","size_leaf_vector":"1"}},{"base_weights":[-0E0,-3.0837506E-1,5.0110304E-1,-1.2421614E0,-9.2639014E-2,1.3326387E0,1.4931661E-1,-4.170487E-2,1.5748948E-1,-1.5468457E-1,4.5896322E-1,1.3887866E0,-2.296137E-2,7.236813E-2,8.544672E-1,-1.9590181E-1,4.939956E-1,-2.2334085E-1,7.2539225E-2,2.8422418E-1,8.752884E-1,4.2304974E-2,1.5934407E-3,-1.3238739E-3,3.6064804E-1,3.9812428E-1,1.0406785E0,-2.2788135E-2,6.1208806E-3,-0E0,2.9814107E-2,-5.919925E-3,-3.9841734E-2,8.2397E-4,3.6838364E-2,1.3788609E-3,1.7123261E-2,4.17827E-3,2.9318055E-2,-5.1370016E-3,3.287385E-3,-1.3388101E-3,2.0131318E-2,2.6993746E-2,-4.0438273E-3,1.751781E-3,3.4071937E-2],"categories":[],"categories_nodes":[],"categories_segments":[],"categories_sizes":[],"default_left":[0,0,0,0,0,0,0,0,0,0,0,0,0,0,0,0,0,0,0,0,0,0,0,0,0,0,0,0,0,0,0,0,0,0,0,0,0,0,0,0,0,0,0,0,0,0,0],"id":18,"left_children":[1,3,5,7,9,11,13,-1,15,17,19,21,-1,23,25,27,29,31,33,35,37,-1,-1,39,41,43,45,-1,-1,-1,-1,-1,-1,-1,-1,-1,-1,-1,-1,-1,-1,-1,-1,-1,-1,-1,-1],"loss_changes":[2.8298987E2,2.275322E2,2.0317479E2,4.4789368E1,3.1479414E1,2.5746185E1,2.6164454E1,0E0,2.7272067E0,1.304748E1,5.913534E0,4.964142E0,0E0,9.638359E0,2.9165115E0,2.725313E0,3.2961683E0,1.735662E1,9.325715E0,4.2810845E0,1.2625198E0,0E0,0E0,6.723877E0,1.1919507E1,4.8376117E0,2.3666916E0,0E0,0E0,0E0,0E0,0E0,0E0,0E0,0E0,0E0,0E0,0E0,0E0,0E0,0E0,0E0,0E0,0E0,0E0,0E0,0E0],"parents":[2147483647,0,0,1,1,2,2,3,3,4,4,5,5,6,6,8,8,9,9,10,10,11,11,13,13,14,14,15,15,16,16,17,17,18,18,19,19,20,20,23,23,24,24,25,25,26,26],"right_children":[2,4,6,8,10,12,14,-1,16,18,20,22,-1,24,26,28,30,32,34,36,38,-1,-1,40,42,44,46,-1,-1,-1,-1,-1,-1,-1,-1,-1,-1,-1,-1,-1,-1,-1,-1,-1,-1,-1,-1],"split_conditions":[3E0,4E-1,2E0,3E0,4.2174158E2,2.3570225E0,3.9381873E2,-4.170487E-2,1.2E0,3.2E0,5.883521E2,8.3333336E-2,-2.296137E-2,9.3726045E-1,4E0,1.4779E2,1.8151555E3,1.0396885E0,9.9605936E-1,7.295927E-1,1.6666666E0,4.2304974E-2,1.5934407E-3,-3.9E1,1.92E0,2.24E0,1.0198039E0,-2.2788135E-2,6.1208806E-3,-0E0,2.9814107E-2,-5.919925E-3,-3.9841734E-2,8.2397E-4,3.6838364E-2,1.3788609E-3,1.7123261E-2,4.17827E-3,2.9318055E-2,-5.1370016E-3,3.287385E-3,-1.3388101E-3,2.0131318E-2,2.6993746E-2,-4.0438273E-3,1.751781E-3,3.4071937E-2],"split_indices":[28,22,34,34,41,22,2,0,28,25,41,44,0,32,34,42,0,59,54,32,28,0,0,5,45,45,22,0,0,0,0,0,0,0,0,0,0,0,0,0,0,0,0,0,0,0,0],"split_type":[0,0,0,0,0,0,0,0,0,0,0,0,0,0,0,0,0,0,0,0,0,0,0,0,0,0,0,0,0,0,0,0,0,0,0,0,0,0,0,0,0,0,0,0,0,0,0],"sum_hessian":[1.8291222E3,1.1323488E3,6.967735E2,2.1118512E2,9.211636E2,2.0589035E2,4.9088312E2,1.9131882E2,1.9866297E1,8.294869E2,9.167668E1,2.010852E2,4.805145E0,4.4422E2,4.666313E1,9.169094E0,1.0697202E1,6.38715E2,1.9077188E2,6.660505E1,2.5071632E1,1.9749393E2,3.5912716E0,3.5319498E2,9.102503E1,1.5210447E1,3.1452684E1,3.9510164E0,5.218078E0,5.4696083E0,5.2275934E0,6.2561646E2,1.3098601E1,1.8501093E2,5.7609434E0,3.7953056E1,2.8651993E1,3.93567E0,2.1135963E1,1.4105544E2,2.1213953E2,3.9151463E1,5.187357E1,7.9636283E0,7.246819E0,3.3815842E0,2.80711E1],"tree_param":{"num_deleted":"0","num_feature":"62","num_nodes":"47","size_leaf_vector":"1"}},{"base_weights":[-1.3954001E-2,-3.1584823E-1,4.731833E-1,-1.2133952E0,-1.07656114E-1,1.4114995E-1,1.2529805E0,-1.2788032E0,1.6816612E-2,-1.6847996E-1,4.4397384E-1,5.633465E-2,7.9152155E-1,1.319867E0,-3.274835E-2,-3.9564304E-2,1.2999431E-4,2.4715127E-2,-4.2731896E-1,-1.8675204E-1,7.663251E-1,5.148543E-1,-1.3998825E-2,2.6438516E-3,9.2507523E-1,-0E0,8.8314205E-1,1.2986479E-2,4.117106E-2,-0E0,-2.014381E-2,-4.965003E-3,-3.5233017E-2,-3.5690565E-2,4.6661936E-2,7.927696E-3,2.273671E-2,9.491907E-3,-3.1566368E-3,3.3821695E-2,-0E0,2.8444309E-2,-0E0,2.735196E-2,-1.809556E-2],"categories":[],"categories_nodes":[],"categories_segments":[],"categories_sizes":[],"default_left":[0,0,0,0,0,0,0,0,0,0,0,0,0,0,0,0,0,0,0,0,0,0,0,0,0,0,0,0,0,0,0,0,0,0,0,0,0,0,0,0,0,0,0,0,0],"id":19,"left_children":[1,3,5,7,9,11,13,15,17,19,21,23,25,27,-1,-1,-1,-1,29,31,33,35,-1,37,39,-1,41,43,-1,-1,-1,-1,-1,-1,-1,-1,-1,-1,-1,-1,-1,-1,-1,-1,-1],"loss_changes":[2.6531573E2,2.0751414E2,1.7774109E2,1.7497162E1,3.0349281E1,2.6307514E1,3.3771973E1,1.0887207E1,4.55371E0,1.3824366E1,6.0394993E0,1.9644865E1,4.0190697E0,1.3039581E1,0E0,0E0,0E0,0E0,5.4378784E-1,1.6003023E1,2.5728937E1,4.4045677E0,0E0,1.393387E1,5.0854206E0,0E0,2.5361977E0,5.753119E0,0E0,0E0,0E0,0E0,0E0,0E0,0E0,0E0,0E0,0E0,0E0,0E0,0E0,0E0,0E0,0E0,0E0],"parents":[2147483647,0,0,1,1,2,2,3,3,4,4,5,5,6,6,7,7,8,8,9,9,10,10,11,11,12,12,13,13,18,18,19,19,20,20,21,21,23,23,24,24,26,26,27,27],"right_children":[2,4,6,8,10,12,14,16,18,20,22,24,26,28,-1,-1,-1,-1,30,32,34,36,-1,38,40,-1,42,44,-1,-1,-1,-1,-1,-1,-1,-1,-1,-1,-1,-1,-1,-1,-1,-1,-1],"split_conditions":[3E0,4E-1,3.7267798E-1,2.2E0,4.278331E2,4.75E0,2E0,6.324555E-1,8.40523E1,8.9752746E-1,2E0,4.678998E2,1E-1,2.2E0,-3.274835E-2,-3.9564304E-2,1.2999431E-4,2.4715127E-2,2.5E-1,7.9167575E-1,7.561529E1,4.2E2,-1.3998825E-2,7.0710677E-1,2.4819348E0,-0E0,3.8987176E0,-3.597212E-1,4.117106E-2,-0E0,-2.014381E-2,-4.965003E-3,-3.5233017E-2,-3.5690565E-2,4.6661936E-2,7.927696E-3,2.273671E-2,9.491907E-3,-3.1566368E-3,3.3821695E-2,-0E0,2.8444309E-2,-0E0,2.735196E-2,-1.809556E-2],"split_indices":[28,19,40,25,41,28,22,21,41,40,11,2,15,25,0,0,0,0,27,49,41,42,0,18,22,0,20,51,0,0,0,0,0,0,0,0,0,0,0,0,0,0,0,0,0],"split_type":[0,0,0,0,0,0,0,0,0,0,0,0,0,0,0,0,0,0,0,0,0,0,0,0,0,0,0,0,0,0,0,0,0,0,0,0,0,0,0,0,0,0,0,0,0],"sum_hessian":[1.8026031E3,1.1137534E3,6.8884973E2,2.0833978E2,9.054136E2,4.84412E2,2.0443776E2,1.981704E2,1.01693945E1,8.169374E2,8.847621E1,4.3016885E2,5.4243134E1,1.9939961E2,5.038156E0,1.9252939E2,5.6409936E0,3.7060812E0,6.463313E0,8.0258484E2,1.4352543E1,8.29993E1,5.4769115E0,4.0661725E2,2.3551588E1,5.714642E0,4.8528492E1,8.117136E0,1.9128247E2,3.2344968E0,3.228816E0,7.8731793E2,1.5266897E1,3.7975488E0,1.0554994E1,4.2904503E1,4.00948E1,1.0471862E2,3.0189865E2,1.9531574E1,4.0200133E0,4.4791462E1,3.7370296E0,3.4364846E0,4.680651E0],"tree_param":{"num_deleted":"0","num_feature":"62","num_nodes":"45","size_leaf_vector":"1"}},{"base_weights":[-0E0,-1.4552087E-1,4.4035906E-1,-6.9842555E-2,-1.0317144E0,9.3472457E-1,1.0304047E-1,-1.1001698E0,-2.1801082E-2,-1.2195936E0,3.6096863E-2,3.5394183E-1,4.0996965E-2,2.551881E-1,-9.9724734E-1,3.6299163E-1,-3.9836794E-2,-6.793408E-2,9.377816E-1,-1.3083814E0,1.694799E-2,-0E0,6.7894447E-1,-7.139274E-2,5.686031E-1,-3.959719E-2,1.404467E-2,-3.034344E-3,2.7465807E-2,-3.7805054E-2,-1.2711791E-3,4.1827075E-2,-0E0,-4.150199E-2,-1.5442444E-2,4.7796373E-3,-2.721294E-2,-9.53871E-3,2.5106288E-2,1.10569475E-2,-6.3743754E-3,1.9692117E-2,-3.197323E-2],"categories":[],"categories_nodes":[],"categories_segments":[],"categories_sizes":[],"default_left":[0,0,0,0,0,0,0,0,0,0,0,0,0,0,0,0,0,0,0,0,0,0,0,0,0,0,0,0,0,0,0,0,0,0,0,0,0,0,0,0,0,0,0],"id":20,"left_children":[1,3,5,7,9,11,13,15,17,19,-1,21,-1,23,25,27,-1,29,31,33,-1,35,37,39,41,-1,-1,-1,-1,-1,-1,-1,-1,-1,-1,-1,-1,-1,-1,-1,-1,-1,-1],"loss_changes":[1.1526467E2,9.0175644E1,7.385204E1,6.1235954E1,4.5954704E1,4.389937E1,4.4608578E1,1.9342506E1,5.252026E1,1.6704437E1,0E0,9.101817E0,0E0,2.4435349E1,1.629721E1,2.5303726E0,0E0,3.4080193E1,2.2761803E1,3.9543915E0,0E0,5.7703915E0,7.004757E0,7.177864E0,1.789735E1,0E0,0E0,0E0,0E0,0E0,0E0,0E0,0E0,0E0,0E0,0E0,0E0,0E0,0E0,0E0,0E0,0E0,0E0],"parents":[2147483647,0,0,1,1,2,2,3,3,4,4,5,5,6,6,7,7,8,8,9,9,11,11,13,13,14,14,15,15,17,17,18,18,19,19,21,21,22,22,23,23,24,24],"right_children":[2,4,6,8,10,12,14,16,18,20,-1,22,-1,24,26,28,-1,30,32,34,-1,36,38,40,42,-1,-1,-1,-1,-1,-1,-1,-1,-1,-1,-1,-1,-1,-1,-1,-1,-1,-1],"split_conditions":[2E0,3.70333E-1,2E-1,2E-1,1.7604969E0,4E0,-4.0892273E-1,-1.1203198E0,9.8557264E-1,5.714286E-1,3.6096863E-2,8.015643E0,4.0996965E-2,2.0396645E2,5E-1,1.6704313E3,-3.9836794E-2,-9.35295E-1,4.1666668E-2,2.079104E0,1.694799E-2,5E-1,3.5135135E-1,7.2E1,2.9808006E-1,-3.959719E-2,1.404467E-2,-3.034344E-3,2.7465807E-2,-3.7805054E-2,-1.2711791E-3,4.1827075E-2,-0E0,-4.150199E-2,-1.5442444E-2,4.7796373E-3,-2.721294E-2,-9.53871E-3,2.5106288E-2,1.10569475E-2,-6.3743754E-3,1.9692117E-2,-3.197323E-2],"split_indices":[12,50,23,11,55,30,55,46,46,37,0,2,0,2,11,0,0,59,29,48,0,15,29,6,58,0,0,0,0,0,0,0,0,0,0,0,0,0,0,0,0,0,0],"split_type":[0,0,0,0,0,0,0,0,0,0,0,0,0,0,0,0,0,0,0,0,0,0,0,0,0,0,0,0,0,0,0,0,0,0,0,0,0,0,0,0,0,0,0],"sum_hessian":[1.7984319E3,1.3528749E3,4.4555698E2,1.247947E3,1.04927956E2,1.7939172E2,2.6616525E2,5.415687E1,1.19379E3,9.74167E1,7.5112505E0,7.77727E1,1.0161902E2,2.349051E2,3.1260145E1,6.917984E0,4.7238888E1,1.1404137E3,5.3376392E1,9.332061E1,4.0960927E0,3.761984E1,4.0152863E1,1.14633255E2,1.2027185E2,2.59802E1,5.279946E0,3.7119365E0,3.2060475E0,2.2512817E1,1.1179009E3,3.530973E1,1.8066658E1,8.400672E1,9.313885E0,3.2644855E1,4.9749823E0,4.9196615E0,3.52332E1,2.6582699E1,8.805056E1,1.1499831E2,5.273546E0],"tree_param":{"num_deleted":"0","num_feature":"62","num_nodes":"43","size_leaf_vector":"1"}},{"base_weights":[1.0528731E-2,-5.3370047E-1,2.8468958E-1,-1.7019378E-1,-1.2150882E0,1.254043E0,9.495983E-2,-2.807834E-1,4.0970814E-1,1.7037515E-2,-1.3363472E0,3.318514E-1,4.107099E-2,1.0414771E0,6.7413606E-2,-3.4450293E-1,2.2524208E-1,9.234494E-1,1.1554963E-1,-7.7026474E-1,6.2321997E-1,-4.050839E-2,-8.222479E-3,5.260471E-1,-1.2633904E-2,-8.297254E-3,1.2839937E0,-0E0,4.1922846E-1,-9.1819335E-3,-3.5237543E-2,2.2264985E-2,-1.1465882E-3,3.6505595E-2,7.755358E-3,-9.077736E-3,1.1738646E-2,-3.274896E-2,-1.7640742E-3,3.1795617E-2,-9.154746E-3,2.3099747E-2,-0E0,6.8265204E-3,4.4651344E-2,-5.419149E-4,3.1347424E-2,1.4553125E-2,-1.7993586E-2],"categories":[],"categories_nodes":[],"categories_segments":[],"categories_sizes":[],"default_left":[0,0,0,0,0,0,0,0,0,0,0,0,0,0,0,0,0,0,0,0,0,0,0,0,0,0,0,0,0,0,0,0,0,0,0,0,0,0,0,0,0,0,0,0,0,0,0,0,0],"id":21,"left_children":[1,3,5,7,9,11,13,15,17,19,21,23,-1,25,27,29,31,33,35,37,39,-1,-1,41,-1,-1,43,45,47,-1,-1,-1,-1,-1,-1,-1,-1,-1,-1,-1,-1,-1,-1,-1,-1,-1,-1,-1,-1],"loss_changes":[2.6842224E2,1.4829373E2,2.194403E2,2.534613E1,3.1894287E1,1.9426727E1,2.5525871E1,1.0860807E1,8.872603E0,9.634257E0,1.6381531E0,3.7069023E0,0E0,9.739109E0,2.3042274E1,8.365635E0,5.408774E0,3.264019E0,4.974293E0,1.3039236E0,5.4985366E0,0E0,0E0,2.6294384E0,0E0,0E0,3.9771652E0,1.5782374E1,1.0729044E1,0E0,0E0,0E0,0E0,0E0,0E0,0E0,0E0,0E0,0E0,0E0,0E0,0E0,0E0,0E0,0E0,0E0,0E0,0E0,0E0],"parents":[2147483647,0,0,1,1,2,2,3,3,4,4,5,5,6,6,7,7,8,8,9,9,10,10,11,11,13,13,14,14,15,15,16,16,17,17,18,18,19,19,20,20,23,23,26,26,27,27,28,28],"right_children":[2,4,6,8,10,12,14,16,18,20,22,24,-1,26,28,30,32,34,36,38,40,-1,-1,42,-1,-1,44,46,48,-1,-1,-1,-1,-1,-1,-1,-1,-1,-1,-1,-1,-1,-1,-1,-1,-1,-1,-1,-1],"split_conditions":[2.2E0,-1.1203198E0,4E-1,2.4818E2,2E0,4E0,-2.7572253E-1,1.6E0,-1E0,5.7735026E-1,1.299038E0,3.7357375E-1,4.107099E-2,5E-1,2.2E0,3.2906923E-2,1.7204651E0,1.264911E0,8E-1,7.594837E-1,1.0909209E0,-4.050839E-2,-8.222479E-3,1E0,-1.2633904E-2,-8.297254E-3,1.6E1,2.7856777E0,8E-1,-9.1819335E-3,-3.5237543E-2,2.2264985E-2,-1.1465882E-3,3.6505595E-2,7.755358E-3,-9.077736E-3,1.1738646E-2,-3.274896E-2,-1.7640742E-3,3.1795617E-2,-9.154746E-3,2.3099747E-2,-0E0,6.8265204E-3,4.4651344E-2,-5.419149E-4,3.1347424E-2,1.4553125E-2,-1.7993586E-2],"split_indices":[25,46,19,5,30,30,50,21,14,39,19,50,0,11,12,57,22,19,21,61,60,0,0,30,0,0,7,18,24,0,0,0,0,0,0,0,0,0,0,0,0,0,0,0,0,0,0,0,0],"split_type":[0,0,0,0,0,0,0,0,0,0,0,0,0,0,0,0,0,0,0,0,0,0,0,0,0,0,0,0,0,0,0,0,0,0,0,0,0,0,0,0,0,0,0,0,0,0,0,0,0],"sum_hessian":[1.7978162E3,6.013407E2,1.1964753E3,3.9343475E2,2.0790596E2,1.9450085E2,1.00197455E3,3.3157925E2,6.1855484E1,1.8335272E1,1.895707E2,2.2476776E1,1.7202408E2,2.6781296E1,9.7519324E2,2.9565698E2,3.5922287E1,2.112394E1,4.0731544E1,7.4994993E0,1.0835772E1,1.8638428E2,3.186422E0,1.8635933E1,3.8408422E0,3.8196647E0,2.296163E1,8.1984454E2,1.5534872E2,2.844558E2,1.1201185E1,1.215481E1,2.3767477E1,1.3559036E1,7.5649037E0,1.5426895E1,2.530465E1,4.31382E0,3.1856792E0,7.6396523E0,3.1961193E0,1.2599897E1,6.036036E0,4.461305E0,1.8500326E1,8.066311E2,1.3213407E1,1.4686879E2,8.479931E0],"tree_param":{"num_deleted":"0","num_feature":"62","num_nodes":"49","size_leaf_vector":"1"}},{"base_weights":[-0E0,-4.9919763E-1,2.4773182E-1,-1.3050693E-1,-1.2094911E0,4.9938206E-2,1.1949707E0,-1.5723206E-1,3.747074E-2,2.238428E-1,-1.2825621E0,-7.5985224E-4,7.1171284E-1,3.416534E-1,1.3268458E0,-2.120801E-1,2.5370976E-1,-2.3146644E-2,2.5212817E-2,-3.981312E-2,-2.9651942E-2,-5.1982876E-2,4.186348E-1,5.209368E-1,1.0610498E0,-3.1748418E-2,8.169759E-1,3.9603896E-3,1.3496845E0,1.8123567E-2,-7.4020373E-3,-3.2636954E-3,1.4642731E-2,-1.8041072E-2,1.6307116E-2,-1.1257656E-3,-4.301124E-2,2.444712E-2,3.4504095E-3,2.739134E-2,3.1908574E-3,3.532236E-2,4.166989E-3,3.368272E-2,-1.8754605E-2,9.903684E-3,4.1343108E-2],"categories":[],"categories_nodes":[],"categories_segments":[],"categories_sizes":[],"default_left":[0,0,0,0,0,0,0,0,0,0,0,0,0,0,0,0,0,0,0,0,0,0,0,0,0,0,0,0,0,0,0,0,0,0,0,0,0,0,0,0,0,0,0,0,0,0,0],"id":22,"left_children":[1,3,5,7,9,11,13,15,-1,17,19,21,23,25,27,29,31,-1,-1,-1,33,35,37,39,41,-1,43,-1,45,-1,-1,-1,-1,-1,-1,-1,-1,-1,-1,-1,-1,-1,-1,-1,-1,-1,-1],"loss_changes":[2.221514E2,1.5513806E2,2.2442871E2,1.4163427E1,2.2069427E1,3.375353E1,2.2014069E1,8.764897E0,0E0,7.042862E0,1.00842285E1,1.9707716E1,3.4237785E0,2.0421627E1,3.9518127E0,9.683611E0,4.0661E0,0E0,0E0,0E0,2.994975E0,1.5714478E1,1.1438709E1,7.384304E0,1.6867676E0,0E0,1.1052238E1,0E0,3.7508545E0,0E0,0E0,0E0,0E0,0E0,0E0,0E0,0E0,0E0,0E0,0E0,0E0,0E0,0E0,0E0,0E0,0E0,0E0],"parents":[2147483647,0,0,1,1,2,2,3,3,4,4,5,5,6,6,7,7,9,9,10,10,11,11,12,12,13,13,14,14,15,15,16,16,20,20,21,21,22,22,23,23,24,24,26,26,28,28],"right_children":[2,4,6,8,10,12,14,16,-1,18,20,22,24,26,28,30,32,-1,-1,-1,34,36,38,40,42,-1,44,-1,46,-1,-1,-1,-1,-1,-1,-1,-1,-1,-1,-1,-1,-1,-1,-1,-1,-1,-1],"split_conditions":[2.2E0,-1.0401754E0,-7.3728764E-1,5.0138E2,1E0,4.2582428E2,6.666667E-1,1.5811388E0,3.747074E-2,5E-1,1E0,8.1E1,5.7912946E2,5.1763994E-1,5E-1,-2E0,-3.3333334E-1,-2.3146644E-2,2.5212817E-2,-3.981312E-2,4.5751536E-1,3.7267798E-1,1.018E3,3.7244E2,2.4874685E0,-3.1748418E-2,1.78338E3,3.9603896E-3,-2.3798888E2,1.8123567E-2,-7.4020373E-3,-3.2636954E-3,1.4642731E-2,-1.8041072E-2,1.6307116E-2,-1.1257656E-3,-4.301124E-2,2.444712E-2,3.4504095E-3,2.739134E-2,3.1908574E-3,3.532236E-2,4.166989E-3,3.368272E-2,-1.8754605E-2,9.903684E-3,4.1343108E-2],"split_indices":[28,46,48,5,30,2,10,17,0,39,22,43,2,54,11,13,14,0,0,0,54,39,3,5,21,0,3,0,2,0,0,0,0,0,0,0,0,0,0,0,0,0,0,0,0,0,0],"split_type":[0,0,0,0,0,0,0,0,0,0,0,0,0,0,0,0,0,0,0,0,0,0,0,0,0,0,0,0,0,0,0,0,0,0,0,0,0,0,0,0,0,0,0,0,0,0,0],"sum_hessian":[1.795068E3,5.945657E2,1.2005023E3,3.9264426E2,2.0192143E2,9.944343E2,2.0606795E2,3.86407E2,6.237246E0,9.362566E0,1.9255887E2,9.2389844E2,7.053586E1,2.8571833E1,1.7749611E2,3.424069E2,4.400011E1,3.1748753E0,6.1876907E0,1.855057E2,7.053156E0,8.2518256E2,9.871593E1,4.8158546E1,2.2377314E1,6.6646223E0,2.1907211E1,3.866923E0,1.736292E2,1.2688982E1,3.297179E2,1.6650547E1,2.7349564E1,3.9433355E0,3.1098204E0,8.1801245E2,7.1700544E0,4.137928E1,5.7336647E1,2.351216E1,2.4646387E1,1.9142748E1,3.234565E0,1.8543512E1,3.3636997E0,5.5277047E0,1.6810149E2],"tree_param":{"num_deleted":"0","num_feature":"62","num_nodes":"47","size_leaf_vector":"1"}},{"base_weights":[-6.78998E-4,-2.845702E-1,4.3824726E-1,-1.1735597E0,-8.330004E-2,1.3247164E-1,1.2126194E0,-1.2387599E0,1.4875622E-1,-1.633145E-1,3.5731438E-1,7.923436E-2,9.619967E-1,-2.1261863E-2,1.2760361E0,-1.2735416E0,-2.5673872E-1,-6.3041835E-3,1.5613392E-2,-2.642281E-1,2.0370265E-2,6.852965E-1,1.7309761E-1,4.69323E-1,1.7409538E-3,-0E0,1.0917814E0,1.3117956E0,9.557977E-2,-3.868463E-2,-9.563646E-3,8.097984E-3,-2.9096048E-2,-6.791384E-3,-3.3371348E-2,-3.4744144E-4,2.9215755E-2,3.0562101E-2,8.246223E-3,-1.9413577E-2,8.102295E-3,6.8615666E-3,2.420638E-2,-1.609073E-3,1.3471886E-2,3.722262E-2,-0E0,4.041338E-2,2.5774155E-2,-2.1838233E-2,3.0643558E-2],"categories":[],"categories_nodes":[],"categories_segments":[],"categories_sizes":[],"default_left":[0,0,0,0,0,0,0,0,0,0,0,0,0,0,0,0,0,0,0,0,0,0,0,0,0,0,0,0,0,0,0,0,0,0,0,0,0,0,0,0,0,0,0,0,0,0,0,0,0,0,0],"id":23,"left_children":[1,3,5,7,9,11,13,15,17,19,21,23,25,-1,27,29,31,-1,-1,33,35,37,39,41,43,-1,45,47,49,-1,-1,-1,-1,-1,-1,-1,-1,-1,-1,-1,-1,-1,-1,-1,-1,-1,-1,-1,-1,-1,-1],"loss_changes":[2.2402951E2,1.9480862E2,1.6626108E2,1.8076416E1,3.1430828E1,2.1815113E1,2.5457672E1,5.4734497E0,1.5968049E0,1.4160652E1,7.7017174E0,1.4229828E1,3.25766E0,0E0,7.3359985E0,1.5998535E0,3.736445E0,0E0,0E0,1.4823135E1,8.645501E0,5.613653E0,7.124856E0,5.651928E0,1.0162749E1,0E0,4.0589275E0,7.330322E-1,6.362532E0,0E0,0E0,0E0,0E0,0E0,0E0,0E0,0E0,0E0,0E0,0E0,0E0,0E0,0E0,0E0,0E0,0E0,0E0,0E0,0E0,0E0,0E0],"parents":[2147483647,0,0,1,1,2,2,3,3,4,4,5,5,6,6,7,7,8,8,9,9,10,10,11,11,12,12,14,14,15,15,16,16,19,19,20,20,21,21,22,22,23,23,24,24,26,26,27,27,28,28],"right_children":[2,4,6,8,10,12,14,16,18,20,22,24,26,-1,28,30,32,-1,-1,34,36,38,40,42,44,-1,46,48,50,-1,-1,-1,-1,-1,-1,-1,-1,-1,-1,-1,-1,-1,-1,-1,-1,-1,-1,-1,-1,-1,-1],"split_conditions":[3E0,4E-1,3.7267798E-1,1.04E0,2.8273837E2,5E0,1.25E0,2.6666667E0,2.5E-1,1.44E0,1.254948E3,-5.3E1,1E-1,-2.1261863E-2,2E0,6.324555E-1,7.637626E-1,-6.3041835E-3,1.5613392E-2,8.265667E-3,-7.7286685E-1,9.4280905E-1,1.6828014E3,2.5E0,4.6E0,-0E0,3.5552778E0,3.3E1,9.9605936E-1,-3.868463E-2,-9.563646E-3,8.097984E-3,-2.9096048E-2,-6.791384E-3,-3.3371348E-2,-3.4744144E-4,2.9215755E-2,3.0562101E-2,8.246223E-3,-1.9413577E-2,8.102295E-3,6.8615666E-3,2.420638E-2,-1.609073E-3,1.3471886E-2,3.722262E-2,-0E0,4.041338E-2,2.5774155E-2,-2.1838233E-2,3.0643558E-2],"split_indices":[25,19,40,45,2,28,28,28,27,45,1,8,15,0,19,21,40,0,0,50,54,18,0,9,25,0,20,8,54,0,0,0,0,0,0,0,0,0,0,0,0,0,0,0,0,0,0,0,0,0,0],"split_type":[0,0,0,0,0,0,0,0,0,0,0,0,0,0,0,0,0,0,0,0,0,0,0,0,0,0,0,0,0,0,0,0,0,0,0,0,0,0,0,0,0,0,0,0,0,0,0,0,0,0,0],"sum_hessian":[1.7965002E3,1.0918186E3,7.0468176E2,2.0020753E2,8.91611E2,5.0649808E2,1.9818367E2,1.9122025E2,8.987295E0,7.5607404E2,1.35537E2,4.7754825E2,2.8949827E1,5.7552657E0,1.924284E2,1.8390074E2,7.319495E0,4.109086E0,4.878209E0,4.8945728E2,2.6661676E2,4.6792587E1,8.874442E1,7.72378E1,4.0031042E2,3.9643373E0,2.4985489E1,1.862515E2,6.1769176E0,1.8001978E2,3.8809652E0,4.164334E0,3.1551616E0,4.7032544E2,1.9131811E1,2.5842047E2,8.196276E0,2.4327621E1,2.2464964E1,8.238368E0,8.050606E1,4.693919E1,3.029861E1,3.560012E2,4.4309242E1,2.1756712E1,3.2287781E0,1.6991391E2,1.6337584E1,3.0964837E0,3.0804338E0],"tree_param":{"num_deleted":"0","num_feature":"62","num_nodes":"51","size_leaf_vector":"1"}},{"base_weights":[1.59708E-2,-4.7415638E-1,2.575176E-1,-1.2599543E0,-7.159657E-2,1.1372565E0,6.325057E-2,-1.2698448E-1,-3.9142314E-2,-3.616237E-1,9.721677E-2,4.0009335E-2,4.0354306E-1,4.486785E-3,5.103846E-1,-2.113459E-2,1.42814005E-2,-4.8719236E-1,9.560659E-2,-1.3503914E-1,3.4336203E-1,-5.2403504E-1,8.224316E-1,-6.493809E-2,2.1963958E-1,3.2337183E-1,8.024964E-1,2.1242772E-3,-1.7786626E-2,2.0369355E-2,-1.3624183E-2,-1.1956987E-3,-1.6230684E-2,4.0629865E-3,2.1270828E-2,1.2479307E-2,-2.7621517E-2,-1.0105762E-2,3.0908568E-2,-4.4020563E-3,1.408034E-3,3.366662E-3,1.6755234E-2,4.0552095E-3,2.2671036E-2,2.6391087E-2,-0E0],"categories":[],"categories_nodes":[],"categories_segments":[],"categories_sizes":[],"default_left":[0,0,0,0,0,0,0,0,0,0,0,0,0,0,0,0,0,0,0,0,0,0,0,0,0,0,0,0,0,0,0,0,0,0,0,0,0,0,0,0,0,0,0,0,0,0,0],"id":24,"left_children":[1,3,5,7,9,11,13,15,-1,17,19,-1,21,23,25,-1,-1,27,29,31,33,35,37,39,41,43,45,-1,-1,-1,-1,-1,-1,-1,-1,-1,-1,-1,-1,-1,-1,-1,-1,-1,-1,-1,-1],"loss_changes":[2.0956114E2,1.8397966E2,2.021912E2,9.132965E0,1.9146687E1,2.9455078E1,2.532765E1,3.59689E0,0E0,8.505459E0,1.4141109E1,0E0,1.8917925E1,1.2977723E1,5.302471E0,0E0,0E0,7.0226574E0,1.0358524E1,4.541012E0,8.616077E0,6.199558E0,8.711372E0,6.016305E0,7.335122E0,5.2353325E0,3.0392551E0,0E0,0E0,0E0,0E0,0E0,0E0,0E0,0E0,0E0,0E0,0E0,0E0,0E0,0E0,0E0,0E0,0E0,0E0,0E0,0E0],"parents":[2147483647,0,0,1,1,2,2,3,3,4,4,5,5,6,6,7,7,9,9,10,10,12,12,13,13,14,14,17,17,18,18,19,19,20,20,21,21,22,22,23,23,24,24,25,25,26,26],"right_children":[2,4,6,8,10,12,14,16,-1,18,20,-1,22,24,26,-1,-1,28,30,32,34,36,38,40,42,44,46,-1,-1,-1,-1,-1,-1,-1,-1,-1,-1,-1,-1,-1,-1,-1,-1,-1,-1,-1,-1],"split_conditions":[2.2E0,1E0,1E0,2E0,1.2020881E2,4E-1,4.3925064E2,1.403154E0,-3.9142314E-2,1.5E0,1E2,4.0009335E-2,8.8E-1,3.5E0,1.2E0,-2.113459E-2,1.42814005E-2,-4E-1,7E0,3E-1,1.6666666E0,9.8948455E-1,5E-1,1.6828014E3,9.3726045E-1,3.6666667E0,7.92E0,2.1242772E-3,-1.7786626E-2,2.0369355E-2,-1.3624183E-2,-1.1956987E-3,-1.6230684E-2,4.0629865E-3,2.1270828E-2,1.2479307E-2,-2.7621517E-2,-1.0105762E-2,3.0908568E-2,-4.4020563E-3,1.408034E-3,3.366662E-3,1.6755234E-2,4.0552095E-3,2.2671036E-2,2.6391087E-2,-0E0],"split_indices":[25,34,34,30,41,17,41,46,0,45,5,0,45,25,21,0,0,31,34,44,12,46,11,0,32,25,45,0,0,0,0,0,0,0,0,0,0,0,0,0,0,0,0,0,0,0,0],"split_type":[0,0,0,0,0,0,0,0,0,0,0,0,0,0,0,0,0,0,0,0,0,0,0,0,0,0,0,0,0,0,0,0,0,0,0,0,0,0,0,0,0,0,0,0,0,0,0],"sum_hessian":[1.7689954E3,5.8299536E2,1.186E3,1.9634921E2,3.8664615E2,2.1318103E2,9.728189E2,8.0374365E0,1.8831178E2,1.4292162E2,2.4372453E2,1.6698593E2,4.6195103E1,8.616999E2,1.1111907E2,4.443221E0,3.5942152E0,1.1293453E2,2.9987078E1,1.2458737E2,1.1913716E2,1.3921959E1,3.2273144E1,6.5025256E2,2.1144733E2,7.0075035E1,4.104404E1,1.7284275E1,9.565025E1,1.4875808E1,1.511127E1,1.0281276E2,2.1774614E1,7.769503E1,4.144213E1,3.7430394E0,1.0178919E1,4.446565E0,2.7826578E1,3.780176E2,2.7223495E2,1.6268471E2,4.876261E1,5.0542477E1,1.9532557E1,3.7915264E1,3.1287766E0],"tree_param":{"num_deleted":"0","num_feature":"62","num_nodes":"47","size_leaf_vector":"1"}},{"base_weights":[-1.8035258E-3,-4.617239E-1,2.2312005E-1,-1.2369971E0,-7.5265415E-2,1.1357347E0,2.7899342E-2,-4.578975E-1,-3.9132427E-2,-2.7120975E-1,2.2168192E-1,3.9702527E-2,4.1423568E-1,-3.0572232E-2,6.027747E-1,-1.0132439E0,2.4954906E-1,-1.8610235E-1,-8.144407E-1,1.1574599E-1,7.2458E-1,-4.9028477E-1,7.8968716E-1,-4.6005793E-2,9.647194E-1,6.626375E-1,1.9062119E-2,-3.8140055E-2,-6.4913053E-3,3.0052459E-2,-9.966824E-3,5.6858677E-3,-7.374069E-3,-3.190547E-2,-0E0,6.7459224E-3,-7.6527526E-3,2.7605576E-2,5.0937487E-3,1.8950507E-2,-3.1211399E-2,-4.775596E-3,2.9479986E-2,-9.210482E-3,-7.3391566E-5,8.912289E-3,4.106601E-2,9.977349E-3,2.551E-2,1.8648725E-2,-1.4635817E-2],"categories":[],"categories_nodes":[],"categories_segments":[],"categories_sizes":[],"default_left":[0,0,0,0,0,0,0,0,0,0,0,0,0,0,0,0,0,0,0,0,0,0,0,0,0,0,0,0,0,0,0,0,0,0,0,0,0,0,0,0,0,0,0,0,0,0,0,0,0,0,0],"id":25,"left_children":[1,3,5,7,9,11,13,15,-1,17,19,-1,21,23,25,27,29,31,33,35,37,39,41,43,45,47,49,-1,-1,-1,-1,-1,-1,-1,-1,-1,-1,-1,-1,-1,-1,-1,-1,-1,-1,-1,-1,-1,-1,-1,-1],"loss_changes":[1.8265349E2,1.7310025E2,2.1037814E2,8.634094E0,2.2702694E1,2.6777832E1,3.3147266E1,7.49622E0,0E0,1.0243105E1,7.7039514E0,0E0,1.5814709E1,1.3210415E1,2.8277473E0,1.1153889E0,4.206548E0,4.6904125E0,6.329256E0,5.2732525E0,2.098175E0,9.145667E0,6.5312214E0,9.791908E0,2.2938538E0,4.1912384E0,3.5086203E0,0E0,0E0,0E0,0E0,0E0,0E0,0E0,0E0,0E0,0E0,0E0,0E0,0E0,0E0,0E0,0E0,0E0,0E0,0E0,0E0,0E0,0E0,0E0,0E0],"parents":[2147483647,0,0,1,1,2,2,3,3,4,4,5,5,6,6,7,7,9,9,10,10,12,12,13,13,14,14,15,15,16,16,17,17,18,18,19,19,20,20,21,21,22,22,23,23,24,24,25,25,26,26],"right_children":[2,4,6,8,10,12,14,16,-1,18,20,-1,22,24,26,28,30,32,34,36,38,40,42,44,46,48,50,-1,-1,-1,-1,-1,-1,-1,-1,-1,-1,-1,-1,-1,-1,-1,-1,-1,-1,-1,-1,-1,-1,-1,-1],"split_conditions":[2.2E0,1E0,1E0,3E0,1.07669075E2,4E-1,4.7301898E2,1.403154E0,-3.9132427E-2,8E-1,4.0418234E2,3.9702527E-2,8.4E-1,4.5E0,8.7E1,5E-1,-5.2249104E-1,2.5E1,1.960983E3,8E-1,3.6E1,9.8948455E-1,5E-1,4.5746914E1,5E-1,4E0,2.5E-1,-3.8140055E-2,-6.4913053E-3,3.0052459E-2,-9.966824E-3,5.6858677E-3,-7.374069E-3,-3.190547E-2,-0E0,6.7459224E-3,-7.6527526E-3,2.7605576E-2,5.0937487E-3,1.8950507E-2,-3.1211399E-2,-4.775596E-3,2.9479986E-2,-9.210482E-3,-7.3391566E-5,8.912289E-3,4.106601E-2,9.977349E-3,2.551E-2,1.8648725E-2,-1.4635817E-2],"split_indices":[25,34,34,30,2,17,41,46,0,23,41,0,45,12,34,18,50,42,1,15,34,46,11,41,11,34,24,0,0,0,0,0,0,0,0,0,0,0,0,0,0,0,0,0,0,0,0,0,0,0,0],"split_type":[0,0,0,0,0,0,0,0,0,0,0,0,0,0,0,0,0,0,0,0,0,0,0,0,0,0,0,0,0,0,0,0,0,0,0,0,0,0,0,0,0,0,0,0,0,0,0,0,0,0,0],"sum_hessian":[1.762524E3,5.792508E2,1.1832732E3,1.9152946E2,3.877213E2,2.0721393E2,9.7605927E2,1.646476E1,1.7506471E2,2.3465309E2,1.5306824E2,1.6322667E2,4.398727E1,8.8601794E2,9.004136E1,9.377738E0,7.087023E0,2.048262E2,2.9826895E1,1.2827202E2,2.4796223E1,1.2422344E1,3.1564926E1,8.739225E2,1.20954E1,8.076653E1,9.274834E0,6.159809E0,3.2179286E0,3.1507995E0,3.9362235E0,2.6642447E1,1.7818375E2,2.2674276E1,7.152619E0,1.0045524E2,2.7816774E1,1.7179312E1,7.6169105E0,3.7390227E0,8.683322E0,4.926347E0,2.6638578E1,1.224813E2,7.514412E2,5.6816597E0,6.41374E0,3.124994E1,4.9516586E1,4.584941E0,4.6898923E0],"tree_param":{"num_deleted":"0","num_feature":"62","num_nodes":"51","size_leaf_vector":"1"}},{"base_weights":[3.0328152E-3,-2.556962E-1,4.2803317E-1,-1.0368781E0,-6.329458E-2,1.2127581E0,1.2684345E-1,-1.247837E0,2.3257256E-1,-1.18078515E-1,4.289492E-1,1.2764248E0,-2.6028309E-2,4.9463265E-2,7.023676E-1,-3.7986897E-2,-5.0046574E-3,-4.1958037E-1,8.882934E-1,-2.1767126E-1,1.8686695E-2,5.103738E-1,-1.6634118E-2,6.4048046E-1,3.9208297E-2,-2.3782805E-1,1.3983609E-1,-4.008598E-2,8.174066E-1,1.9021744E-2,-2.8782478E-2,4.155595E-2,4.506054E-3,-1.6985493E-3,-9.84293E-3,-1.7479905E-3,7.517413E-3,1.6840333E-2,-4.8086257E-3,3.345093E-2,-7.978149E-4,-1.0221508E-2,1.1240428E-2,-2.0030034E-3,8.941918E-3,-2.1060122E-2,1.7809642E-2,2.9854404E-2,5.5219326E-3],"categories":[],"categories_nodes":[],"categories_segments":[],"categories_sizes":[],"default_left":[0,0,0,0,0,0,0,0,0,0,0,0,0,0,0,0,0,0,0,0,0,0,0,0,0,0,0,0,0,0,0,0,0,0,0,0,0,0,0,0,0,0,0,0,0,0,0,0,0],"id":26,"left_children":[1,3,5,7,9,11,13,15,17,19,21,23,-1,25,27,-1,-1,29,31,33,35,37,-1,39,-1,41,43,45,47,-1,-1,-1,-1,-1,-1,-1,-1,-1,-1,-1,-1,-1,-1,-1,-1,-1,-1,-1,-1],"loss_changes":[1.9419429E2,1.6419621E2,1.572288E2,5.8676163E1,2.3664635E1,2.5801727E1,2.1180403E1,2.7669067E0,1.3993107E1,1.0930065E1,7.273468E0,1.6835938E0,0E0,1.1127779E1,5.25721E0,0E0,0E0,9.866552E0,5.006791E0,8.007694E0,6.0660844E0,3.0891113E0,0E0,4.042075E0,0E0,6.523125E0,1.0872698E1,3.8124738E0,4.816559E0,0E0,0E0,0E0,0E0,0E0,0E0,0E0,0E0,0E0,0E0,0E0,0E0,0E0,0E0,0E0,0E0,0E0,0E0,0E0,0E0],"parents":[2147483647,0,0,1,1,2,2,3,3,4,4,5,5,6,6,7,7,8,8,9,9,10,10,11,11,13,13,14,14,17,17,18,18,19,19,20,20,21,21,23,23,25,25,26,26,27,27,28,28],"right_children":[2,4,6,8,10,12,14,16,18,20,22,24,-1,26,28,-1,-1,30,32,34,36,38,-1,40,-1,42,44,46,48,-1,-1,-1,-1,-1,-1,-1,-1,-1,-1,-1,-1,-1,-1,-1,-1,-1,-1,-1,-1],"split_conditions":[3E0,1E0,2E0,2.2E0,4.322932E2,2.3570225E0,4.4759946E2,1.5811388E0,-4.6889618E-1,1.6897831E3,2E0,3E0,-2.6028309E-2,3.2E0,1.1196653E3,-3.7986897E-2,-5.0046574E-3,1.8601484E3,-5.2249104E-1,-4E-1,2.3856E2,2.102292E3,-1.6634118E-2,1.0198039E0,3.9208297E-2,1.9548293E3,-1E0,4E0,1.50037E3,1.9021744E-2,-2.8782478E-2,4.155595E-2,4.506054E-3,-1.6985493E-3,-9.84293E-3,-1.7479905E-3,7.517413E-3,1.6840333E-2,-4.8086257E-3,3.345093E-2,-7.978149E-4,-1.0221508E-2,1.1240428E-2,-2.0030034E-3,8.941918E-3,-2.1060122E-2,1.7809642E-2,2.9854404E-2,5.5219326E-3],"split_indices":[28,34,34,25,41,22,41,22,51,0,11,25,0,28,0,0,0,1,50,13,42,0,0,22,0,0,5,25,4,0,0,0,0,0,0,0,0,0,0,0,0,0,0,0,0,0,0,0,0],"split_type":[0,0,0,0,0,0,0,0,0,0,0,0,0,0,0,0,0,0,0,0,0,0,0,0,0,0,0,0,0,0,0,0,0,0,0,0,0,0,0,0,0,0,0,0,0,0,0,0,0],"sum_hessian":[1.7632671E3,1.0955482E3,6.67719E2,2.1512357E2,8.804246E2,1.8389891E2,4.8382007E2,1.8482072E2,3.0302837E1,7.9384955E2,8.657505E1,1.7904625E2,4.8526716E0,4.2820227E2,5.561779E1,1.8110545E2,3.715268E0,1.4991005E1,1.5311832E1,4.6112302E2,3.3272653E2,8.086878E1,5.7062697E0,9.955893E0,1.6909035E2,1.0075193E2,3.2745032E2,6.9658513E0,4.865194E1,4.705728E0,1.0285277E1,8.222232E0,7.0896006E0,1.900226E2,2.7110043E2,2.487668E2,8.3959724E1,7.6001175E1,4.8676047E0,5.863014E0,4.092879E0,8.734056E1,1.341137E1,1.4089609E2,1.8655424E2,3.7403986E0,3.225453E0,3.692784E1,1.17241E1],"tree_param":{"num_deleted":"0","num_feature":"62","num_nodes":"49","size_leaf_vector":"1"}},{"base_weights":[-9.401777E-3,-3.5238692E-1,3.0173573E-1,-1.1211369E-1,-1.065434E0,1.1571125E0,1.000141E-1,-1.942568E-1,3.3487603E-1,-3.998786E-1,-3.8220093E-2,1.6525695E-1,3.8725957E-2,4.2691943E-3,3.6287054E-1,2.4961707E-1,-2.5608388E-1,6.2046327E-2,6.3681376E-1,-6.9907904E-1,7.270125E-2,-6.205594E-2,2.4979357E-2,-1.1772078E-1,2.1159813E-1,2.9822338E-1,9.719815E-1,1.0979276E-2,-2.1041678E-2,-1.6339436E-2,-5.4987026E-3,-1.6820441E-3,1.7741779E-2,2.9052231E-2,1.1442638E-2,1.40008E-2,-2.6081806E-2,1.7413788E-2,-1.1529367E-2,-2.0208614E-2,1.5365124E-2,5.419911E-3,-6.212977E-3,1.149627E-3,1.2576297E-2,1.0912702E-2,-5.4648463E-3,-0E0,3.5453238E-2],"categories":[],"categories_nodes":[],"categories_segments":[],"categories_sizes":[],"default_left":[0,0,0,0,0,0,0,0,0,0,0,0,0,0,0,0,0,0,0,0,0,0,0,0,0,0,0,0,0,0,0,0,0,0,0,0,0,0,0,0,0,0,0,0,0,0,0,0,0],"id":27,"left_children":[1,3,5,7,9,11,13,15,17,19,-1,21,-1,23,25,27,29,31,33,35,37,39,-1,41,43,45,47,-1,-1,-1,-1,-1,-1,-1,-1,-1,-1,-1,-1,-1,-1,-1,-1,-1,-1,-1,-1,-1,-1],"loss_changes":[1.8835754E2,1.4323874E2,1.5879654E2,2.312925E1,2.7959854E1,2.2390564E1,1.8683804E1,1.4717512E1,7.621086E0,7.7736053E0,0E0,3.8487597E0,0E0,1.4032348E1,6.902136E0,7.2579446E0,9.409988E0,3.618176E0,2.781664E0,7.125366E0,5.0952473E0,6.4475365E0,0E0,9.29492E0,7.1782465E0,5.883009E0,3.2818317E0,0E0,0E0,0E0,0E0,0E0,0E0,0E0,0E0,0E0,0E0,0E0,0E0,0E0,0E0,0E0,0E0,0E0,0E0,0E0,0E0,0E0,0E0],"parents":[2147483647,0,0,1,1,2,2,3,3,4,4,5,5,6,6,7,7,8,8,9,9,11,11,13,13,14,14,15,15,16,16,17,17,18,18,19,19,20,20,21,21,23,23,24,24,25,25,26,26],"right_children":[2,4,6,8,10,12,14,16,18,20,-1,22,-1,24,26,28,30,32,34,36,38,40,-1,42,44,46,48,-1,-1,-1,-1,-1,-1,-1,-1,-1,-1,-1,-1,-1,-1,-1,-1,-1,-1,-1,-1,-1,-1],"split_conditions":[2.6E0,4E0,4E-1,2.8273837E2,-1.1203198E0,4E0,3.6666667E0,1.018E3,2.6666667E0,9.4280905E-1,-3.8220093E-2,5.322771E-1,3.8725957E-2,1.424E3,5E0,3.2906923E-2,6E-1,1.6666666E0,1.32E0,1.073E3,2E0,4.330127E-1,2.4979357E-2,7.483315E-1,1.28E0,2.828427E0,1.6666666E0,1.0979276E-2,-2.1041678E-2,-1.6339436E-2,-5.4987026E-3,-1.6820441E-3,1.7741779E-2,2.9052231E-2,1.1442638E-2,1.40008E-2,-2.6081806E-2,1.7413788E-2,-1.1529367E-2,-2.0208614E-2,1.5365124E-2,5.419911E-3,-6.212977E-3,1.149627E-3,1.2576297E-2,1.0912702E-2,-5.4648463E-3,-0E0,3.5453238E-2],"split_indices":[25,30,19,2,46,30,25,3,28,21,0,55,0,3,28,57,10,12,45,3,25,21,0,17,45,17,12,0,0,0,0,0,0,0,0,0,0,0,0,0,0,0,0,0,0,0,0,0,0],"split_type":[0,0,0,0,0,0,0,0,0,0,0,0,0,0,0,0,0,0,0,0,0,0,0,0,0,0,0,0,0,0,0,0,0,0,0,0,0,0,0,0,0,0,0,0,0,0,0,0,0],"sum_hessian":[1.7628096E3,8.391927E2,9.2361694E2,6.2907404E2,2.1011864E2,1.7487314E2,7.487438E2,5.328385E2,9.6235504E1,5.1403088E1,1.5871556E2,2.1489523E1,1.5338362E2,5.5097186E2,1.9777193E2,6.3784836E1,4.6905368E2,5.2057774E1,4.4177727E1,3.1829739E1,1.957335E1,1.6147501E1,5.3420215E0,3.4562854E2,2.0534332E2,1.8088446E2,1.6887455E1,5.784788E1,5.9369535E0,9.179915E1,3.7725455E2,4.251975E1,9.538027E0,1.7154816E1,2.7022911E1,3.4613662E0,2.8368372E1,9.662221E0,9.911129E0,8.157366E0,7.9901347E0,7.814171E1,2.6748682E2,1.1388521E2,9.145811E1,1.6030017E2,2.0584291E1,3.4372923E0,1.3450162E1],"tree_param":{"num_deleted":"0","num_feature":"62","num_nodes":"49","size_leaf_vector":"1"}},{"base_weights":[-4.417897E-3,-2.519589E-1,3.997382E-1,-1.092361E0,-8.704958E-2,1.1857017E0,1.09911434E-1,-1.2445048E0,-8.147897E-2,-2.2282399E-1,2.13445E-2,1.2210796E0,-4.9975957E-3,4.6360037E-1,5.026399E-3,-3.7975963E-2,-2.9165766E-3,2.6349558E-2,-2.8876427E-1,-3.237053E-2,-2.001926E-1,4.1901607E-2,-0E0,1.265848E0,-8.848361E-5,-1.5342806E-1,6.2937874E-1,-2.558042E-1,9.590721E-2,1.8365845E-2,-1.5222199E-2,3.6117867E-2,-6.54361E-3,-3.728451E-3,6.8140556E-3,3.8933918E-2,1.7606111E-2,1.0080605E-2,-2.074324E-2,2.0713361E-2,-1.8781295E-2,-1.2080227E-2,1.3656403E-2,5.8832457E-3,-3.5569146E-3],"categories":[],"categories_nodes":[],"categories_segments":[],"categories_sizes":[],"default_left":[0,0,0,0,0,0,0,0,0,0,0,0,0,0,0,0,0,0,0,0,0,0,0,0,0,0,0,0,0,0,0,0,0,0,0,0,0,0,0,0,0,0,0,0,0],"id":28,"left_children":[1,3,5,7,9,11,13,15,17,19,21,23,-1,25,27,-1,-1,-1,29,-1,31,-1,33,35,-1,37,39,41,43,-1,-1,-1,-1,-1,-1,-1,-1,-1,-1,-1,-1,-1,-1,-1,-1],"loss_changes":[1.7385489E2,1.4884073E2,1.4947215E2,2.6365448E1,1.3402538E1,9.204849E0,1.7698051E1,2.9405212E0,4.848255E0,6.957718E0,1.4241243E1,1.0120483E1,0E0,1.1532766E1,8.83337E0,0E0,0E0,0E0,4.4721828E0,0E0,9.70394E0,0E0,1.4032441E1,1.927124E0,0E0,6.558621E0,7.1439056E0,1.0155434E1,6.0843945E0,0E0,0E0,0E0,0E0,0E0,0E0,0E0,0E0,0E0,0E0,0E0,0E0,0E0,0E0,0E0,0E0],"parents":[2147483647,0,0,1,1,2,2,3,3,4,4,5,5,6,6,7,7,8,8,9,9,10,10,11,11,13,13,14,14,18,18,20,20,22,22,23,23,25,25,26,26,27,27,28,28],"right_children":[2,4,6,8,10,12,14,16,18,20,22,24,-1,26,28,-1,-1,-1,30,-1,32,-1,34,36,-1,38,40,42,44,-1,-1,-1,-1,-1,-1,-1,-1,-1,-1,-1,-1,-1,-1,-1,-1],"split_conditions":[3E0,4E-1,2E0,1E0,1.2899E2,1.5E0,1.3108573E3,1.8605213E0,-1.3333334E0,1.6031918E-1,9.2803595E2,1.47902E0,-4.9975957E-3,9.3202E2,3.2E0,-3.7975963E-2,-2.9165766E-3,2.6349558E-2,-4.3822563E-1,-3.237053E-2,-1.5730772E0,4.1901607E-2,1.118034E0,8E-1,-8.848361E-5,8.684E2,1.78E2,1.9548293E3,1.6996732E0,1.8365845E-2,-1.5222199E-2,3.6117867E-2,-6.54361E-3,-3.728451E-3,6.8140556E-3,3.8933918E-2,1.7606111E-2,1.0080605E-2,-2.074324E-2,2.0713361E-2,-1.8781295E-2,-1.2080227E-2,1.3656403E-2,5.8832457E-3,-3.5569146E-3],"split_indices":[28,19,34,34,42,20,1,52,14,59,0,21,0,3,28,0,0,0,58,0,52,0,17,20,0,3,34,0,19,0,0,0,0,0,0,0,0,0,0,0,0,0,0,0,0],"split_type":[0,0,0,0,0,0,0,0,0,0,0,0,0,0,0,0,0,0,0,0,0,0,0,0,0,0,0,0,0,0,0,0,0,0,0,0,0,0,0,0,0,0,0,0,0],"sum_hessian":[1.7364951E3,1.0779045E3,6.585905E2,1.7539746E2,9.025071E2,1.7613219E2,4.8245834E2,1.5182166E2,2.3575811E1,4.022304E2,5.0027664E2,1.7209665E2,4.03554E0,1.08475296E2,3.7398306E2,1.4851733E2,3.3043184E0,3.1839094E0,2.0391903E1,8.587198E0,3.9364322E2,6.4171696E0,4.938595E2,1.6638548E2,5.7111697E0,2.2349333E1,8.612596E1,9.474518E1,2.7923788E2,3.1841524E0,1.720775E1,3.7770343E0,3.8986618E2,3.1852747E2,1.7533202E2,1.5733432E2,9.051162E0,1.1412818E1,1.0936515E1,8.293988E1,3.1860838E0,7.946709E1,1.5278092E1,1.919675E2,8.7270386E1],"tree_param":{"num_deleted":"0","num_feature":"62","num_nodes":"45","size_leaf_vector":"1"}},{"base_weights":[1.1730686E-2,-4.411951E-1,2.3048124E-1,-1.2320062E-1,-1.1259239E0,6.2417824E-2,1.0989122E0,-2.4656068E-1,3.195898E-1,-2.2514911E-2,-3.7287287E-2,-3.732659E-2,3.431669E-1,4.3941358E-1,1.2176341E0,-3.4740594E-1,2.5630933E-1,1.7404583E-1,7.974705E-1,-9.0178204E-1,5.8087873E-1,-1.1330751E-1,1.8983473E-1,1.420331E-1,5.7247466E-1,1.0329778E0,-6.1434335E-1,-2.062186E-3,1.2551055E0,-7.784035E-3,-2.261545E-2,1.9255558E-2,-3.083554E-3,8.709273E-3,-1.5020822E-2,3.344257E-2,8.432849E-3,-3.551256E-2,-6.1124424E-3,3.310041E-2,-1.4023908E-2,3.3030543E-2,-3.901188E-3,7.73356E-3,-8.6380085E-3,9.5794356E-4,2.1703336E-2,1.0755363E-2,2.4470193E-2,3.9193437E-2,-7.6767914E-3,1.2367347E-2,-3.4120135E-2,3.8270395E-2,2.383685E-3],"categories":[],"categories_nodes":[],"categories_segments":[],"categories_sizes":[],"default_left":[0,0,0,0,0,0,0,0,0,0,0,0,0,0,0,0,0,0,0,0,0,0,0,0,0,0,0,0,0,0,0,0,0,0,0,0,0,0,0,0,0,0,0,0,0,0,0,0,0,0,0,0,0,0,0],"id":29,"left_children":[1,3,5,7,9,11,13,15,17,19,-1,21,23,25,27,29,31,33,35,37,39,41,43,45,47,49,51,-1,53,-1,-1,-1,-1,-1,-1,-1,-1,-1,-1,-1,-1,-1,-1,-1,-1,-1,-1,-1,-1,-1,-1,-1,-1,-1,-1],"loss_changes":[1.7121843E2,1.2169865E2,1.6963754E2,2.1109295E1,2.2282578E1,2.7583529E1,1.34062805E1,1.5505054E1,5.1893377E0,1.04813795E1,0E0,1.2445249E1,1.1464361E1,2.0224209E1,8.326935E0,8.366028E0,7.309902E0,5.229954E0,2.0088205E0,6.8770695E-1,6.9803047E0,1.0697077E1,5.892874E0,8.559708E0,5.3179436E0,8.084095E0,6.9993687E0,0E0,2.960373E0,0E0,0E0,0E0,0E0,0E0,0E0,0E0,0E0,0E0,0E0,0E0,0E0,0E0,0E0,0E0,0E0,0E0,0E0,0E0,0E0,0E0,0E0,0E0,0E0,0E0,0E0],"parents":[2147483647,0,0,1,1,2,2,3,3,4,4,5,5,6,6,7,7,8,8,9,9,11,11,12,12,13,13,14,14,15,15,16,16,17,17,18,18,19,19,20,20,21,21,22,22,23,23,24,24,25,25,26,26,28,28],"right_children":[2,4,6,8,10,12,14,16,18,20,-1,22,24,26,28,30,32,34,36,38,40,42,44,46,48,50,52,-1,54,-1,-1,-1,-1,-1,-1,-1,-1,-1,-1,-1,-1,-1,-1,-1,-1,-1,-1,-1,-1,-1,-1,-1,-1,-1,-1],"split_conditions":[2.2E0,-1.1203198E0,-7.3728764E-1,2.1497354E2,2E0,5.8E1,1E0,1.6666666E0,4.2916794E2,5.7735026E-1,-3.7287287E-2,3.5E0,7.9616714E-1,-1E1,-2.705323E0,7.5E-1,3E0,1.0897248E0,1.118034E0,5.4804635E-1,1.1729248E0,-4.157099E0,3E0,1.55954E3,8.8E1,6.808116E-1,7.637626E-1,-2.062186E-3,1.2247449E0,-7.784035E-3,-2.261545E-2,1.9255558E-2,-3.083554E-3,8.709273E-3,-1.5020822E-2,3.344257E-2,8.432849E-3,-3.551256E-2,-6.1124424E-3,3.310041E-2,-1.4023908E-2,3.3030543E-2,-3.901188E-3,7.73356E-3,-8.6380085E-3,9.5794356E-4,2.1703336E-2,1.0755363E-2,2.4470193E-2,3.9193437E-2,-7.6767914E-3,1.2367347E-2,-3.4120135E-2,3.8270395E-2,2.383685E-3],"split_indices":[25,46,48,2,30,43,11,45,2,39,0,25,32,8,60,23,8,18,19,52,53,52,30,3,43,53,39,0,20,0,0,0,0,0,0,0,0,0,0,0,0,0,0,0,0,0,0,0,0,0,0,0,0,0,0],"split_type":[0,0,0,0,0,0,0,0,0,0,0,0,0,0,0,0,0,0,0,0,0,0,0,0,0,0,0,0,0,0,0,0,0,0,0,0,0,0,0,0,0,0,0,0,0,0,0,0,0,0,0,0,0,0,0],"sum_hessian":[1.7271586E3,5.6142285E2,1.1657357E3,3.8468268E2,1.7674014E2,9.7809686E2,1.876389E2,3.020929E2,8.25898E1,1.7466137E1,1.59274E2,7.210194E2,2.570774E2,2.9985035E1,1.5765387E2,2.5271667E2,4.9376213E1,6.515623E1,1.743357E1,7.2441163E0,1.022202E1,5.423249E2,1.7869455E2,1.3897632E2,1.1810108E2,1.9496937E1,1.0488097E1,4.061085E0,1.5359277E2,2.1012294E2,4.2593742E1,2.4102972E1,2.527324E1,5.669754E1,8.458684E0,9.480983E0,7.9525876E0,4.153985E0,3.0901313E0,7.1053576E0,3.1166627E0,6.0841537E0,5.362407E2,1.577636E2,2.0930965E1,1.1845873E2,2.0517586E1,6.5236786E1,5.2864296E1,1.6393002E1,3.1039357E0,3.2886057E0,7.199492E0,1.5044948E2,3.143301E0],"tree_param":{"num_deleted":"0","num_feature":"62","num_nodes":"55","size_leaf_vector":"1"}},{"base_weights":[-1.048901E-2,-4.4570434E-1,1.9909935E-1,-1.1799974E0,-1.1012888E-1,1.0548308E0,3.1344883E-2,-4.028525E-1,-3.7452836E-2,-3.1986865E-1,2.3288874E-1,-6.480714E-1,1.1696811E0,-2.3481753E-2,5.0871015E-1,-9.012351E-1,1.620992E-2,-4.0446475E-1,1.9392931E-1,1.372798E-1,7.8252316E-1,4.7837035E-3,-3.1111471E-2,1.2714612E0,4.1677082E-1,-1.0117171E-1,2.0707257E-1,3.911917E-1,1.0389148E0,-3.733119E-2,-1.9917735E-3,-1.3943523E-2,1.3899808E-3,1.6548108E-2,-5.3086407E-3,1.5068494E-3,1.7886788E-2,-0E0,2.7485602E-2,3.8722657E-2,5.7193544E-3,-7.818143E-3,3.1908255E-2,-6.479161E-3,8.6925144E-4,3.1711736E-3,1.577939E-2,7.868603E-3,2.706947E-2,3.5499595E-2,8.893925E-3],"categories":[],"categories_nodes":[],"categories_segments":[],"categories_sizes":[],"default_left":[0,0,0,0,0,0,0,0,0,0,0,0,0,0,0,0,0,0,0,0,0,0,0,0,0,0,0,0,0,0,0,0,0,0,0,0,0,0,0,0,0,0,0,0,0,0,0,0,0,0,0],"id":30,"left_children":[1,3,5,7,9,11,13,15,-1,17,19,21,23,25,27,29,-1,31,33,35,37,-1,-1,39,41,43,45,47,49,-1,-1,-1,-1,-1,-1,-1,-1,-1,-1,-1,-1,-1,-1,-1,-1,-1,-1,-1,-1,-1,-1],"loss_changes":[1.5874019E2,1.386906E2,1.6780447E2,8.082092E0,2.8178501E1,3.8517883E1,2.5961529E1,8.371101E0,0E0,1.0761513E1,7.1926384E0,4.5250854E0,1.24388275E1,1.5749095E1,5.244766E0,2.5404043E0,0E0,5.944229E0,4.8277144E0,4.7516975E0,2.0412512E0,0E0,0E0,2.3020935E0,1.0991772E1,9.979892E0,6.765152E0,4.84797E0,7.492504E-1,0E0,0E0,0E0,0E0,0E0,0E0,0E0,0E0,0E0,0E0,0E0,0E0,0E0,0E0,0E0,0E0,0E0,0E0,0E0,0E0,0E0,0E0],"parents":[2147483647,0,0,1,1,2,2,3,3,4,4,5,5,6,6,7,7,9,9,10,10,11,11,12,12,13,13,14,14,15,15,17,17,18,18,19,19,20,20,23,23,24,24,25,25,26,26,27,27,28,28],"right_children":[2,4,6,8,10,12,14,16,-1,18,20,22,24,26,28,30,-1,32,34,36,38,-1,-1,40,42,44,46,48,50,-1,-1,-1,-1,-1,-1,-1,-1,-1,-1,-1,-1,-1,-1,-1,-1,-1,-1,-1,-1,-1,-1],"split_conditions":[2.2E0,1E0,1E0,3E0,1.08868484E2,2.2E0,4.552363E2,9.628249E-1,-3.7452836E-2,1.92E0,4.2174158E2,-6.6332775E-1,8E-1,3.5E0,1.9548293E3,8E-1,1.620992E-2,1.7435596E0,2.6E0,1.6666666E0,1.5311875E3,4.7837035E-3,-3.1111471E-2,6.8E2,-1.7488791E-1,1E0,2.2E0,4E0,1.7435596E0,-3.733119E-2,-1.9917735E-3,-1.3943523E-2,1.3899808E-3,1.6548108E-2,-5.3086407E-3,1.5068494E-3,1.7886788E-2,-0E0,2.7485602E-2,3.8722657E-2,5.7193544E-3,-7.818143E-3,3.1908255E-2,-6.479161E-3,8.6925144E-4,3.1711736E-3,1.577939E-2,7.868603E-3,2.706947E-2,3.5499595E-2,8.893925E-3],"split_indices":[25,34,34,30,2,28,41,54,0,45,41,50,17,25,0,17,0,20,45,31,0,0,0,42,55,20,12,25,17,0,0,0,0,0,0,0,0,0,0,0,0,0,0,0,0,0,0,0,0,0,0],"split_type":[0,0,0,0,0,0,0,0,0,0,0,0,0,0,0,0,0,0,0,0,0,0,0,0,0,0,0,0,0,0,0,0,0,0,0,0,0,0,0,0,0,0,0,0,0,0,0,0,0,0,0],"sum_hessian":[1.7369412E3,5.649883E2,1.1719529E3,1.7595786E2,3.890304E2,1.9073369E2,9.8121924E2,1.53885145E1,1.6056935E2,2.4236209E2,1.4666832E2,1.1482634E1,1.7925105E2,8.8004694E2,1.0117227E2,1.0444294E1,4.9442205E0,2.0911719E2,3.3244907E1,1.26775215E2,1.9893097E1,3.5068853E0,7.9757485E0,1.5671336E2,2.2537691E1,6.6028156E2,2.197654E2,8.501071E1,1.6161558E1,6.6298304E0,3.8144639E0,1.8538914E2,2.3728045E1,1.7362076E1,1.5882832E1,1.0841106E2,1.8364162E1,3.2197406E0,1.6673357E1,1.5331955E2,3.3938124E0,1.092306E1,1.1614631E1,3.5251562E2,3.0776593E2,1.6895973E2,5.0805664E1,6.987876E1,1.5131956E1,1.2469097E1,3.6924613E0],