{"learner":{"attributes":{"scikit_learn":"{\"_estimator_type\": \"classifier\"}"},"feature_names":[],"feature_types":[],"gradient_booster":{"model":{"cats":{"enc":[],"feature_segments":[],"sorted_idx":[]},"gbtree_model_param":{"num_parallel_tree":"1","num_trees":"300"},"iteration_indptr":[0,1,2,3,4,5,6,7,8,9,10,11,12,13,14,15,16,17,18,19,20,21,22,23,24,25,26,27,28,29,30,31,32,33,34,35,36,37,38,39,40,41,42,43,44,45,46,47,48,49,50,51,52,53,54,55,56,57,58,59,60,61,62,63,64,65,66,67,68,69,70,71,72,73,74,75,76,77,78,79,80,81,82,83,84,85,86,87,88,89,90,91,92,93,94,95,96,97,98,99,100,101,102,103,104,105,106,107,108,109,110,111,112,113,114,115,116,117,118,119,120,121,122,123,124,125,126,127,128,129,130,131,132,133,134,135,136,137,138,139,140,141,142,143,144,145,146,147,148,149,150,151,152,153,154,155,156,157,158,159,160,161,162,163,164,165,166,167,168,169,170,171,172,173,174,175,176,177,178,179,180,181,182,183,184,185,186,187,188,189,190,191,192,193,194,195,196,197,198,199,200,201,202,203,204,205,206,207,208,209,210,211,212,213,214,215,216,217,218,219,220,221,222,223,224,225,226,227,228,229,230,231,232,233,234,235,236,237,238,239,240,241,242,243,244,245,246,247,248,249,250,251,252,253,254,255,256,257,258,259,260,261,262,263,264,265,266,267,268,269,270,271,272,273,274,275,276,277,278,279,280,281,282,283,284,285,286,287,288,289,290,291,292,293,294,295,296,297,298,299,300],"tree_info":[0,0,0,0,0,0,0,0,0,0,0,0,0,0,0,0,0,0,0,0,0,0,0,0,0,0,0,0,0,0,0,0,0,0,0,0,0,0,0,0,0,0,0,0,0,0,0,0,0,0,0,0,0,0,0,0,0,0,0,0,0,0,0,0,0,0,0,0,0,0,0,0,0,0,0,0,0,0,0,0,0,0,0,0,0,0,0,0,0,0,0,0,0,0,0,0,0,0,0,0,0,0,0,0,0,0,0,0,0,0,0,0,0,0,0,0,0,0,0,0,0,0,0,0,0,0,0,0,0,0,0,0,0,0,0,0,0,0,0,0,0,0,0,0,0,0,0,0,0,0,0,0,0,0,0,0,0,0,0,0,0,0,0,0,0,0,0,0,0,0,0,0,0,0,0,0,0,0,0,0,0,0,0,0,0,0,0,0,0,0,0,0,0,0,0,0,0,0,0,0,0,0,0,0,0,0,0,0,0,0,0,0,0,0,0,0,0,0,0,0,0,0,0,0,0,0,0,0,0,0,0,0,0,0,0,0,0,0,0,0,0,0,0,0,0,0,0,0,0,0,0,0,0,0,0,0,0,0,0,0,0,0,0,0,0,0,0,0,0,0,0,0,0,0,0,0,0,0,0,0,0,0,0,0,0,0,0,0,0,0,0,0,0,0,0,0,0,0,0,0],"trees":[{"base_weights":[-7.914575E-3,-3.0306503E-1,9.17926E0,-4.6228352E-1,1.6751388E0,5.034218E-2,3.5718197E-1,-6.595398E-1,1.3784753E-1,1.1441165E0,1.146392E-1,-4.8439145E-1,-3.0767161E-2,7.518899E-3,1.0851332E-1,1.3834035E0,-3.5265214E-3,-1.5499421E-2,2.287316E-2,-2.4315665E-2,8.058193E-3,5.3956743E-2,1.1862325E-2],"categories":[],"categories_nodes":[],"categories_segments":[],"categories_sizes":[],"default_left":[0,0,0,0,0,0,0,0,0,0,0,0,0,0,0,0,0,0,0,0,0,0,0],"id":0,"left_children":[1,3,5,7,9,-1,-1,11,13,15,-1,17,-1,19,-1,21,-1,-1,-1,-1,-1,-1,-1],"loss_changes":[1.4482948E3,1.6366669E2,3.1324414E2,5.734542E1,3.7193787E1,0E0,0E0,2.2029648E1,5.2256737E1,1.0636974E1,0E0,1.0262608E1,0E0,2.4750484E1,0E0,9.5998E0,0E0,0E0,0E0,0E0,0E0,0E0,0E0],"parents":[2147483647,0,0,1,1,2,2,3,3,4,4,7,7,8,8,9,9,11,11,13,13,15,15],"right_children":[2,4,6,8,10,-1,-1,12,14,16,-1,18,-1,20,-1,22,-1,-1,-1,-1,-1,-1,-1],"split_conditions":[6E0,4.4759946E2,3E0,3.2E0,6.2290405E2,5.034218E-2,3.5718197E-1,4E0,5.2E0,1.9737072E3,1.146392E-1,9.574271E-1,-3.0767161E-2,7.0710677E-1,1.0851332E-1,1.356466E0,-3.5265214E-3,-1.5499421E-2,2.287316E-2,-2.4315665E-2,8.058193E-3,5.3956743E-2,1.1862325E-2],"split_indices":[28,41,30,25,2,0,0,30,28,1,0,39,0,22,0,18,0,0,0,0,0,0,0],"split_type":[0,0,0,0,0,0,0,0,0,0,0,0,0,0,0,0,0,0,0,0,0,0,0],"sum_hessian":[5.3372174E2,5.180986E2,1.5623184E1,4.8044812E2,3.7650467E1,4.6447306E0,1.0978454E1,3.6214822E2,1.1829988E2,3.1598242E1,6.0522246E0,2.4743747E2,1.1471077E2,1.1513302E2,3.1668618E0,2.6812763E1,4.78548E0,2.4215936E2,5.278103E0,2.6883137E1,8.824988E1,1.7945549E1,8.867213E0],"tree_param":{"num_deleted":"0","num_feature":"62","num_nodes":"23","size_leaf_vector":"1"}},{"base_weights":[-0E0,-3.1944308E-1,6.4906244E0,-4.4628888E-1,2.2539492E0,2.575415E0,2.6286542E-1,-2.2363971E-1,-9.8494315E-1,1.3785648E0,1.1899096E-1,-0E0,1.3272204E-1,-3.8951686E-1,7.9661894E-1,-1.0114429E0,4.0848667E-5,6.22527E-1,6.9552556E-2,-1.5401864E-2,4.200059E-4,1.5437614E-2,8.433483E-2,-3.199454E-2,-2.0506578E-2,3.3843227E-2,-1.351682E-2],"categories":[],"categories_nodes":[],"categories_segments":[],"categories_sizes":[],"default_left":[0,0,0,0,0,0,0,0,0,0,0,0,0,0,0,0,0,0,0,0,0,0,0,0,0,0,0],"id":1,"left_children":[1,3,5,7,9,11,-1,13,15,17,-1,-1,-1,19,21,23,-1,25,-1,-1,-1,-1,-1,-1,-1,-1,-1],"loss_changes":[1.1207701E3,1.677999E2,1.9730188E2,5.8016975E1,2.8006401E1,5.112687E1,0E0,5.9186058E1,4.231903E0,9.650822E0,0E0,0E0,0E0,1.5321259E1,2.4574972E1,9.1007996E-1,0E0,7.0652637E0,0E0,0E0,0E0,0E0,0E0,0E0,0E0,0E0,0E0],"parents":[2147483647,0,0,1,1,2,2,3,3,4,4,5,5,7,7,8,8,9,9,13,13,14,14,15,15,17,17],"right_children":[2,4,6,8,10,12,-1,14,16,18,-1,-1,-1,20,22,24,-1,26,-1,-1,-1,-1,-1,-1,-1,-1,-1],"split_conditions":[5.2E0,4.4249396E2,3E0,4E0,6.2290405E2,4.5791107E1,2.6286542E-1,3.6666667E0,1.9507834E0,3E0,1.1899096E-1,-0E0,1.3272204E-1,1.856318E2,9.3E1,8.164966E-1,4.0848667E-5,8.164966E-1,6.9552556E-2,-1.5401864E-2,4.200059E-4,1.5437614E-2,8.433483E-2,-3.199454E-2,-2.0506578E-2,3.3843227E-2,-1.351682E-2],"split_indices":[28,2,30,30,2,2,0,25,40,28,0,0,0,2,43,22,0,20,0,0,0,0,0,0,0,0,0],"split_type":[0,0,0,0,0,0,0,0,0,0,0,0,0,0,0,0,0,0,0,0,0,0,0,0,0,0,0],"sum_hessian":[5.3710156E2,5.127422E2,2.4359396E1,4.896286E2,2.3113552E1,9.808149E0,1.4551248E1,3.4809094E2,1.4153767E2,1.6682508E1,6.431045E0,4.533247E0,5.274902E0,3.003649E2,4.7726063E1,1.3830324E2,3.2344337E0,1.0461457E1,6.221051E0,2.3055264E2,6.981224E1,4.318402E1,4.5420427E0,1.1518935E2,2.3113892E1,7.3929663E0,3.0684907E0],"tree_param":{"num_deleted":"0","num_feature":"62","num_nodes":"27","size_leaf_vector":"1"}},{"base_weights":[-5.6828577E-3,-2.891973E-1,6.0890265E0,-3.860851E-1,2.2898107E0,5.3591866E-2,2.1144015E-1,-1.8047544E-1,-1.0076663E0,2.632795E-2,2.6977227E0,-2.7625185E-1,1.4145405E0,5.3955694E-3,-3.1679064E-2,3.2217097E-2,3.184927E0,-1.172471E-2,1.4381484E-2,6.568178E-2,-1.2561324E-2,1.1330109E-1,3.8608544E-2],"categories":[],"categories_nodes":[],"categories_segments":[],"categories_sizes":[],"default_left":[0,0,0,0,0,0,0,0,0,0,0,0,0,0,0,0,0,0,0,0,0,0,0],"id":2,"left_children":[1,3,5,7,9,-1,-1,11,13,-1,15,17,19,-1,-1,-1,21,-1,-1,-1,-1,-1,-1],"loss_changes":[9.2302405E2,1.27891655E2,8.09491E1,6.2434975E1,6.501419E0,0E0,0E0,5.687627E1,7.6325684E0,0E0,5.2068405E0,3.0743347E1,3.1666294E1,0E0,0E0,0E0,3.5170593E0,0E0,0E0,0E0,0E0,0E0,0E0],"parents":[2147483647,0,0,1,1,2,2,3,3,4,4,7,7,8,8,10,10,11,11,12,12,16,16],"right_children":[2,4,6,8,10,-1,-1,12,14,-1,16,18,20,-1,-1,-1,22,-1,-1,-1,-1,-1,-1],"split_conditions":[6E0,5.673579E2,3E0,5E0,7.5E1,5.3591866E-2,2.1144015E-1,4.4E0,-2.971321E0,2.632795E-2,2.5E0,3.7221854E2,1.6666666E0,5.3955694E-3,-3.1679064E-2,3.2217097E-2,1.6996732E0,-1.172471E-2,1.4381484E-2,6.568178E-2,-1.2561324E-2,1.1330109E-1,3.8608544E-2],"split_indices":[28,41,30,30,7,0,0,28,58,0,28,41,14,0,0,0,19,0,0,0,0,0,0],"split_type":[0,0,0,0,0,0,0,0,0,0,0,0,0,0,0,0,0,0,0,0,0,0,0],"sum_hessian":[5.3383575E2,5.1109512E2,2.2740597E1,4.9359595E2,1.7499172E1,4.7614937E0,1.7979103E1,3.7247998E2,1.21115974E2,4.902761E0,1.2596411E1,3.524562E2,2.002377E1,4.222824E0,1.1689315E2,3.883486E0,8.712924E0,3.0704544E2,4.5410763E1,1.4129985E1,5.893784E0,5.686587E0,3.0263374E0],"tree_param":{"num_deleted":"0","num_feature":"62","num_nodes":"23","size_leaf_vector":"1"}},{"base_weights":[-2.1407702E-3,-3.0073458E-1,4.5748734E0,-4.0758738E-1,2.403734E0,1.7512271E0,1.7811418E-1,-1.8596658E-1,-9.685653E-1,2.6708746E-2,2.897039E0,-2.357395E-3,1.0073873E-1,-5.26491E-1,1.3871591E-1,-1.0100237E0,-0E0,2.6997918E-2,1.019595E-1,-1.8305216E-2,1.0174104E-2,2.3949707E-3,7.646081E-2,-3.0937377E-2,-9.243536E-3],"categories":[],"categories_nodes":[],"categories_segments":[],"categories_sizes":[],"default_left":[0,0,0,0,0,0,0,0,0,0,0,0,0,0,0,0,0,0,0,0,0,0,0,0,0],"id":3,"left_children":[1,3,5,7,9,11,-1,13,15,-1,17,-1,-1,19,21,23,-1,-1,-1,-1,-1,-1,-1,-1,-1],"loss_changes":[7.271019E2,1.4476254E2,1.1106299E2,5.92909E1,9.71933E0,3.7593113E1,0E0,3.875319E1,5.669609E0,0E0,8.459976E0,0E0,0E0,1.2719467E1,2.3774914E1,9.569702E-1,0E0,0E0,0E0,0E0,0E0,0E0,0E0,0E0,0E0],"parents":[2147483647,0,0,1,1,2,2,3,3,4,4,5,5,7,7,8,8,10,10,13,13,14,14,15,15],"right_children":[2,4,6,8,10,12,-1,14,16,-1,18,-1,-1,20,22,24,-1,-1,-1,-1,-1,-1,-1,-1,-1],"split_conditions":[5.2E0,5.673579E2,3E0,4E0,7.5E1,7.13856E1,1.7811418E-1,1.6726123E2,1.356466E0,2.6708746E-2,2.25E0,-2.357395E-3,1.0073873E-1,4E0,1.1631279E0,1.47902E0,-0E0,2.6997918E-2,1.019595E-1,-1.8305216E-2,1.0174104E-2,2.3949707E-3,7.646081E-2,-3.0937377E-2,-9.243536E-3],"split_indices":[28,41,30,30,7,2,0,41,21,0,28,0,0,28,54,20,0,0,0,0,0,0,0,0,0],"split_type":[0,0,0,0,0,0,0,0,0,0,0,0,0,0,0,0,0,0,0,0,0,0,0,0,0],"sum_hessian":[5.315822E2,5.000065E2,3.1575731E1,4.819971E2,1.8009401E1,1.1139277E1,2.0436455E1,3.4709573E2,1.3490138E2,5.36576E0,1.2643641E1,5.5072784E0,5.6319995E0,1.6986308E2,1.7723265E2,1.2953128E2,5.3700957E0,3.2991831E0,9.344459E0,1.5568524E2,1.4177841E1,1.7421657E2,3.0160778E0,1.2458296E2,4.948326E0],"tree_param":{"num_deleted":"0","num_feature":"62","num_nodes":"25","size_leaf_vector":"1"}},{"base_weights":[-4.8807804E-3,-2.009777E-1,3.536027E0,-2.6258814E-1,3.4246278E0,1.4911808E-1,1.4705968E0,-4.442073E-1,1.0012985E0,3.8390975E-2,1.2945999E-1,2.2854698E0,-2.088372E-2,-5.0094396E-1,2.194295E0,5.809664E-1,2.4208624E0,1.3992128E-1,1.063088E-2,-9.545557E-3,-3.0948965E-2,8.394271E-3,9.0684585E-2,6.221986E-2,9.413999E-3,1.0323258E-1,4.1317567E-2],"categories":[],"categories_nodes":[],"categories_segments":[],"categories_sizes":[],"default_left":[0,0,0,0,0,0,0,0,0,0,0,0,0,0,0,0,0,0,0,0,0,0,0,0,0,0,0],"id":4,"left_children":[1,3,5,7,9,-1,11,13,15,-1,-1,17,-1,19,21,23,25,-1,-1,-1,-1,-1,-1,-1,-1,-1,-1],"loss_changes":[3.7041367E2,1.1275988E2,7.239035E1,1.150382E2,7.769287E0,0E0,2.539774E1,6.590984E1,3.4587082E1,0E0,0E0,4.1185863E1,0E0,4.0736588E1,1.2148312E1,1.8127398E1,7.5105896E0,0E0,0E0,0E0,0E0,0E0,0E0,0E0,0E0,0E0,0E0],"parents":[2147483647,0,0,1,1,2,2,3,3,4,4,6,6,7,7,8,8,11,11,13,13,14,14,15,15,16,16],"right_children":[2,4,6,8,10,-1,12,14,16,-1,-1,18,-1,20,22,24,26,-1,-1,-1,-1,-1,-1,-1,-1,-1,-1],"split_conditions":[3.6666667E0,4.1116915E0,6.808116E-1,3.9381873E2,2.6666667E0,1.4911808E-1,7.379053E-1,3.6666667E0,6.2913153E2,3.8390975E-2,1.2945999E-1,4E-1,-2.088372E-2,5E0,1.2185643E3,2.13E2,9.52E2,1.3992128E-1,1.063088E-2,-9.545557E-3,-3.0948965E-2,8.394271E-3,9.0684585E-2,6.221986E-2,9.413999E-3,1.0323258E-1,4.1317567E-2],"split_indices":[9,48,53,41,10,0,48,10,41,0,0,16,0,30,1,42,4,0,0,0,0,0,0,0,0,0,0],"split_type":[0,0,0,0,0,0,0,0,0,0,0,0,0,0,0,0,0,0,0,0,0,0,0,0,0,0,0],"sum_hessian":[5.338377E2,5.0685245E2,2.6985247E1,4.9943103E2,7.421424E0,1.4951679E1,1.2033568E1,4.3759344E2,6.183757E1,3.0572553E0,4.3641686E0,8.872648E0,3.1609194E0,4.293604E2,8.233042E0,4.9069576E1,1.2767996E1,3.2255528E0,5.6470957E0,3.2126483E2,1.080956E2,3.0731242E0,5.159918E0,6.1373396E0,4.2932236E1,5.05241E0,7.7155857E0],"tree_param":{"num_deleted":"0","num_feature":"62","num_nodes":"27","size_leaf_vector":"1"}},{"base_weights":[-2.7089631E-2,-2.9171443E-1,3.9160697E0,7.686334E-1,-4.3529177E-1,2.195327E-2,1.3645934E-1,4.681948E-1,2.6017194E0,-2.3724814E-1,-1.0047215E0,1.4884809E-1,1.6864536E0,2.9997757E-2,1.06766455E-1,-3.4905213E-1,7.999885E-1,-3.1434715E-2,4.6523837E-3,-4.8695486E-3,3.3210058E-2,7.828979E-2,1.7078158E-2,-1.3263071E-2,1.0485258E-2,-4.9941684E-3,5.835744E-2],"categories":[],"categories_nodes":[],"categories_segments":[],"categories_sizes":[],"default_left":[0,0,0,0,0,0,0,0,0,0,0,0,0,0,0,0,0,0,0,0,0,0,0,0,0,0,0],"id":5,"left_children":[1,3,5,7,9,-1,-1,11,13,15,17,19,21,-1,-1,23,25,-1,-1,-1,-1,-1,-1,-1,-1,-1,-1],"loss_changes":[5.5831604E2,7.6755424E1,6.179364E1,3.0257988E1,4.9225357E1,0E0,0E0,1.9432785E1,6.4073334E0,3.849458E1,6.289955E0,1.3584868E1,7.8329067E0,0E0,0E0,1.9724445E1,3.676775E1,0E0,0E0,0E0,0E0,0E0,0E0,0E0,0E0,0E0,0E0],"parents":[2147483647,0,0,1,1,2,2,3,3,4,4,7,7,8,8,9,9,10,10,11,11,12,12,15,15,16,16],"right_children":[2,4,6,8,10,-1,-1,12,14,16,18,20,22,-1,-1,24,26,-1,-1,-1,-1,-1,-1,-1,-1,-1,-1],"split_conditions":[5.3333335E0,1.2959227E3,2E0,2.25E0,5E0,2.195327E-2,1.3645934E-1,9.7E1,1.5811388E0,2.0111935E3,1.2E0,3.2E0,1.2E0,2.9997757E-2,1.06766455E-1,3.6666667E0,8.8E-1,-3.1434715E-2,4.6523837E-3,-4.8695486E-3,3.3210058E-2,7.828979E-2,1.7078158E-2,-1.3263071E-2,1.0485258E-2,-4.9941684E-3,5.835744E-2],"split_indices":[25,1,30,9,30,0,0,43,21,0,21,12,19,0,0,25,45,0,0,0,0,0,0,0,0,0,0],"split_type":[0,0,0,0,0,0,0,0,0,0,0,0,0,0,0,0,0,0,0,0,0,0,0,0,0,0,0],"sum_hessian":[5.3470526E2,5.0206458E2,3.264065E1,5.894057E1,4.4312402E2,5.8980284E0,2.6742624E1,5.195366E1,6.9869094E0,3.304801E2,1.1264392E2,4.237765E1,9.576009E0,3.573603E0,3.4133062E0,2.993578E2,3.1122316E1,1.0911642E2,3.5275025E0,3.2222084E1,1.0155566E1,4.2666707E0,5.3093386E0,2.6512524E2,3.4232544E1,1.7105444E1,1.40168705E1],"tree_param":{"num_deleted":"0","num_feature":"62","num_nodes":"27","size_leaf_vector":"1"}},{"base_weights":[6.5428135E-3,-2.79381E-1,3.5570745E0,-3.7813053E-1,1.8393724E0,3.9852908E0,-3.6328184E-4,-1.5788633E-1,-9.709071E-1,2.1444552E0,2.3047892E-2,3.6544066E-2,1.2962033E-1,-2.935443E-1,6.3344985E-1,-1.0006245E0,1.8639399E-3,2.6135507E0,1.9555222E-2,-1.622882E-2,-1.4117585E-3,-0E0,3.336702E-2,-5.5745374E-3,-3.0459924E-2,4.6889115E-2,1.1297729E-1],"categories":[],"categories_nodes":[],"categories_segments":[],"categories_sizes":[],"default_left":[0,0,0,0,0,0,0,0,0,0,0,0,0,0,0,0,0,0,0,0,0,0,0,0,0,0,0],"id":6,"left_children":[1,3,5,7,9,11,-1,13,15,17,-1,-1,-1,19,21,23,-1,25,-1,-1,-1,-1,-1,-1,-1,-1,-1],"loss_changes":[5.41714E2,1.0295439E2,6.283246E1,6.082299E1,4.04126E0,2.5049194E1,0E0,3.7104774E1,4.4266815E0,7.9341736E0,0E0,0E0,0E0,1.774134E1,1.4978851E1,6.950073E-1,0E0,5.5660706E0,0E0,0E0,0E0,0E0,0E0,0E0,0E0,0E0,0E0],"parents":[2147483647,0,0,1,1,2,2,3,3,4,4,5,5,7,7,8,8,9,9,13,13,14,14,15,15,17,17],"right_children":[2,4,6,8,10,12,-1,14,16,18,-1,-1,-1,20,22,24,-1,26,-1,-1,-1,-1,-1,-1,-1,-1,-1],"split_conditions":[5.2E0,5.673579E2,1.3266499E0,4E0,1.344E3,1.2E0,-3.6328184E-4,3.6666667E0,4.0948166E2,1.7435596E0,2.3047892E-2,3.6544066E-2,1.2962033E-1,1.6824588E2,1.6037961E2,1.443437E3,1.8639399E-3,1.118034E0,1.9555222E-2,-1.622882E-2,-1.4117585E-3,-0E0,3.336702E-2,-5.5745374E-3,-3.0459924E-2,4.6889115E-2,1.1297729E-1],"split_indices":[28,41,20,30,4,9,0,25,41,19,0,0,0,41,41,0,0,18,0,0,0,0,0,0,0,0,0],"split_type":[0,0,0,0,0,0,0,0,0,0,0,0,0,0,0,0,0,0,0,0,0,0,0,0,0,0,0],"sum_hessian":[5.3001965E2,4.912406E2,3.8779045E1,4.7037518E2,2.0865433E1,3.4645878E1,4.133167E0,3.4449063E2,1.25884544E2,1.5096592E1,5.768841E0,4.407128E0,3.023875E1,2.9515363E2,4.9336994E1,1.2286545E2,3.0190935E0,1.0660321E1,4.436271E0,1.4569016E2,1.4946349E2,2.190112E1,2.7435875E1,3.0227447E0,1.19842705E2,7.0359855E0,3.6243358E0],"tree_param":{"num_deleted":"0","num_feature":"62","num_nodes":"27","size_leaf_vector":"1"}},{"base_weights":[-1.32570425E-2,-2.881375E-1,3.1122692E0,-4.7742084E-1,9.242478E-1,8.9151055E-1,1.1175934E-1,-5.959231E-1,2.6884326E-1,5.709614E-1,2.060781E0,-2.3005402E-2,5.9506137E-2,-9.564963E-1,-4.159491E-1,7.096218E-2,8.418387E-2,9.5005E-1,-2.3087637E-1,2.1087268E-2,2.7068243E0,-6.1514014E-3,-2.911308E-2,-1.6350836E-2,6.444462E-3,-6.4054965E-3,2.8815826E-2,-1.0323861E-4,3.2698E-2,2.176822E-2,-1.6133638E-2,3.8670786E-2,1.0020547E-1],"categories":[],"categories_nodes":[],"categories_segments":[],"categories_sizes":[],"default_left":[0,0,0,0,0,0,0,0,0,0,0,0,0,0,0,0,0,0,0,0,0,0,0,0,0,0,0,0,0,0,0,0,0],"id":7,"left_children":[1,3,5,7,9,11,-1,13,15,17,19,-1,-1,21,23,25,-1,27,29,-1,31,-1,-1,-1,-1,-1,-1,-1,-1,-1,-1,-1,-1],"loss_changes":[4.555486E2,1.1243225E2,5.2705933E1,3.7816933E1,2.4014812E1,2.161666E1,0E0,2.2716309E1,2.7587896E1,1.6409893E1,9.495029E0,0E0,0E0,4.7464752E-1,2.0420338E1,1.454926E1,0E0,5.3461227E0,5.3160095E0,0E0,1.9289932E0,0E0,0E0,0E0,0E0,0E0,0E0,0E0,0E0,0E0,0E0,0E0,0E0],"parents":[2147483647,0,0,1,1,2,2,3,3,4,4,5,5,7,7,8,8,9,9,10,10,13,13,14,14,15,15,17,17,18,18,20,20],"right_children":[2,4,6,8,10,12,-1,14,16,18,20,-1,-1,22,24,26,-1,28,30,-1,32,-1,-1,-1,-1,-1,-1,-1,-1,-1,-1,-1,-1],"split_conditions":[5.2E0,3.9381873E2,4.5E0,1.9390719E0,6.2913153E2,2.3741495E1,1.1175934E-1,6.324555E-1,-5.242703E-1,1.404E3,-7.5E-1,-2.3005402E-2,5.9506137E-2,1.882E1,3.4E0,2.4609445E2,8.418387E-2,2.173913E-2,1.02027E3,2.1087268E-2,1.72E2,-6.1514014E-3,-2.911308E-2,-1.6350836E-2,6.444462E-3,-6.4054965E-3,2.8815826E-2,-1.0323861E-4,3.2698E-2,2.176822E-2,-1.6133638E-2,3.8670786E-2,1.0020547E-1],"split_indices":[28,41,25,19,41,2,0,22,49,4,13,0,0,42,25,41,0,29,3,0,7,0,0,0,0,0,0,0,0,0,0,0,0],"split_type":[0,0,0,0,0,0,0,0,0,0,0,0,0,0,0,0,0,0,0,0,0,0,0,0,0,0,0,0,0,0,0,0,0],"sum_hessian":[5.2983405E2,4.8798502E2,4.1849003E1,4.229679E2,6.501713E1,9.760658E0,3.2088345E1,3.65759E2,5.7208893E1,5.10811E1,1.3936029E1,3.811862E0,5.9487963E0,1.1941713E2,2.4634187E2,5.42064E1,3.0024889E0,3.4981476E1,1.6099627E1,5.415513E0,8.520516E0,3.114272E0,1.1630286E2,2.0526529E2,4.1076572E1,4.122178E1,1.2984623E1,4.1429267E0,3.0838549E1,3.1838536E0,1.2915772E1,3.8119586E0,4.7085576E0],"tree_param":{"num_deleted":"0","num_feature":"62","num_nodes":"33","size_leaf_vector":"1"}},{"base_weights":[-6.921763E-3,-2.9457328E-1,2.968585E0,-4.777419E-1,7.0851094E-1,8.90113E-1,3.4444883E0,-2.7769926E-1,-9.757067E-1,4.8199856E-1,1.9670199E0,-1.7337728E-2,5.9752222E-2,4.831834E-2,1.0729867E-1,-3.4171477E-1,1.7062942E0,-9.9943346E-1,-0E0,-1.9206907E-1,7.2334045E-1,2.472429E0,1.7116863E-2,-1.3187852E-2,6.501651E-3,-4.488005E-3,1.22531645E-1,-3.147409E-2,-1.9228611E-2,-1.8216552E-2,6.9454573E-3,1.6317321E-2,5.4787934E-2,3.4698218E-2,9.249669E-2],"categories":[],"categories_nodes":[],"categories_segments":[],"categories_sizes":[],"default_left":[0,0,0,0,0,0,0,0,0,0,0,0,0,0,0,0,0,0,0,0,0,0,0,0,0,0,0,0,0,0,0,0,0,0,0],"id":8,"left_children":[1,3,5,7,9,11,13,15,17,19,21,-1,-1,-1,-1,23,25,27,-1,29,31,33,-1,-1,-1,-1,-1,-1,-1,-1,-1,-1,-1,-1,-1],"loss_changes":[4.5428513E2,8.943153E1,4.1031464E1,4.0101517E1,1.9193768E1,1.8447998E1,7.36084E-1,3.7461494E1,2.3830185E0,1.1008206E1,4.669979E0,0E0,0E0,0E0,0E0,1.5925381E1,4.3035805E1,5.091629E-1,0E0,3.393237E0,7.4695187E0,2.1792603E-1,0E0,0E0,0E0,0E0,0E0,0E0,0E0,0E0,0E0,0E0,0E0,0E0,0E0],"parents":[2147483647,0,0,1,1,2,2,3,3,4,4,5,5,6,6,7,7,8,8,9,9,10,10,15,15,16,16,17,17,19,19,20,20,21,21],"right_children":[2,4,6,8,10,12,14,16,18,20,22,-1,-1,-1,-1,24,26,28,-1,30,32,34,-1,-1,-1,-1,-1,-1,-1,-1,-1,-1,-1,-1,-1],"split_conditions":[5.2E0,3.7221854E2,2E0,4E0,6.2290405E2,2.3741495E1,7.354395E-1,9.628249E-1,1.4696939E0,3.5135135E-1,1.2E0,-1.7337728E-2,5.9752222E-2,4.831834E-2,1.0729867E-1,2E0,2.6666667E0,3E0,-0E0,4.552363E2,2.2271059E0,2.25E0,1.7116863E-2,-1.3187852E-2,6.501651E-3,-4.488005E-3,1.22531645E-1,-3.147409E-2,-1.9228611E-2,-1.8216552E-2,6.9454573E-3,1.6317321E-2,5.4787934E-2,3.4698218E-2,9.249669E-2],"split_indices":[28,41,9,30,2,2,54,54,18,29,10,0,0,0,0,19,28,34,0,41,22,12,0,0,0,0,0,0,0,0,0,0,0,0,0],"split_type":[0,0,0,0,0,0,0,0,0,0,0,0,0,0,0,0,0,0,0,0,0,0,0,0,0,0,0,0,0,0,0,0,0,0,0],"sum_hessian":[5.303038E2,4.8453162E2,4.5772144E1,4.105797E2,7.39519E1,9.258286E0,3.651386E1,2.9473886E2,1.15840866E2,6.418065E1,9.771247E0,3.9782963E0,5.27999E0,3.5948255E0,3.2919033E1,2.865721E2,8.166752E0,1.1274479E2,3.096079E0,1.6428442E1,4.7752205E1,6.345956E0,3.4252915E0,2.4477686E2,4.179525E1,4.9952426E0,3.1715097E0,9.60993E1,1.6645493E1,8.674025E0,7.754418E0,4.2744747E1,5.0074563E0,3.1887383E0,3.1572173E0],"tree_param":{"num_deleted":"0","num_feature":"62","num_nodes":"35","size_leaf_vector":"1"}},{"base_weights":[1.572381E-2,-2.5242338E-1,2.783784E0,-3.7744883E-1,1.4966418E0,1.1060678E-2,3.12706E0,-8.9979106E-1,-1.7701802E-1,9.453363E-1,2.3344953E0,4.8335813E-2,9.957515E-2,-3.1451195E-2,-2.5487643E-1,-3.0191004E-1,5.134472E-1,9.827381E-2,1.6852115E0,8.713446E-2,1.7968094E-2,-1.623449E-2,1.8334094E-2,-1.153811E-2,6.889731E-3,9.005159E-3,5.5780854E-2,-1.2598411E-2,3.7110776E-2,6.733033E-2,1.2261455E-3],"categories":[],"categories_nodes":[],"categories_segments":[],"categories_sizes":[],"default_left":[0,0,0,0,0,0,0,0,0,0,0,0,0,0,0,0,0,0,0,0,0,0,0,0,0,0,0,0,0,0,0],"id":9,"left_children":[1,3,5,7,9,-1,11,13,15,17,19,-1,-1,-1,21,23,25,27,29,-1,-1,-1,-1,-1,-1,-1,-1,-1,-1,-1,-1],"loss_changes":[3.9134222E2,1.047541E2,3.571408E1,4.621749E1,1.08839035E1,0E0,3.971344E0,1.0899048E1,2.8143208E1,1.2276033E1,7.9995155E0,0E0,0E0,0E0,6.504773E0,1.2347645E1,1.2616921E1,7.594041E0,8.859732E0,0E0,0E0,0E0,0E0,0E0,0E0,0E0,0E0,0E0,0E0,0E0,0E0],"parents":[2147483647,0,0,1,1,2,2,3,3,4,4,6,6,7,7,8,8,9,9,10,10,14,14,15,15,16,16,17,17,18,18],"right_children":[2,4,6,8,10,-1,12,14,16,18,20,-1,-1,-1,22,24,26,28,30,-1,-1,-1,-1,-1,-1,-1,-1,-1,-1,-1,-1],"split_conditions":[5.2E0,4.4249396E2,3.25E0,6.324555E-1,6.2290405E2,1.1060678E-2,1.7415178E3,2E0,3.8E0,1.3261282E3,1.2E0,4.8335813E-2,9.957515E-2,-3.1451195E-2,1.8E0,1.9390719E0,9E1,1.6329932E0,3.6E1,8.713446E-2,1.7968094E-2,-1.623449E-2,1.8334094E-2,-1.153811E-2,6.889731E-3,9.005159E-3,5.5780854E-2,-1.2598411E-2,3.7110776E-2,6.733033E-2,1.2261455E-3],"split_indices":[28,2,25,22,2,0,0,34,25,1,10,0,0,0,12,19,43,21,34,0,0,0,0,0,0,0,0,0,0,0,0],"split_type":[0,0,0,0,0,0,0,0,0,0,0,0,0,0,0,0,0,0,0,0,0,0,0,0,0,0,0,0,0,0,0],"sum_hessian":[5.235876E2,4.7801004E2,4.5577557E1,4.4711942E2,3.089061E1,6.1114535E0,3.9466103E1,1.22330444E2,3.2478897E2,2.0274855E1,1.0615755E1,5.787667E0,3.3678436E1,9.82855E1,2.4044943E1,2.7612933E2,4.8659653E1,1.0295938E1,9.978917E0,7.2674103E0,3.3483446E0,1.878708E1,5.2578607E0,2.4000926E2,3.6120075E1,4.3380108E1,5.279545E0,7.207918E0,3.0880198E0,6.947545E0,3.0313714E0],"tree_param":{"num_deleted":"0","num_feature":"62","num_nodes":"31","size_leaf_vector":"1"}},{"base_weights":[-2.9564928E-3,-2.5537962E-1,2.5812564E0,-4.6483865E-1,8.249421E-1,8.568138E-1,9.212185E-2,-6.345998E-1,3.3376496E-2,3.687815E-1,1.7315596E0,-8.715531E-3,5.12497E-2,-7.0249003E-1,1.5100586E-1,-7.260678E-1,2.4618915E-1,1.6968645E-1,5.435275E-2,1.0943933E0,2.1815898E0,-1.718774E-2,-2.9565576E-2,-4.675293E-3,4.45523E-2,5.7152594E-3,-2.7884929E-2,3.959617E-3,6.777913E-2,-1.522547E-4,2.715567E-2,2.4224133E-3,5.7609357E-2,3.6742568E-2,8.198881E-2],"categories":[],"categories_nodes":[],"categories_segments":[],"categories_sizes":[],"default_left":[0,0,0,0,0,0,0,0,0,0,0,0,0,0,0,0,0,0,0,0,0,0,0,0,0,0,0,0,0,0,0,0,0,0,0],"id":10,"left_children":[1,3,5,7,9,11,-1,13,15,17,19,-1,-1,21,23,25,27,29,-1,31,33,-1,-1,-1,-1,-1,-1,-1,-1,-1,-1,-1,-1,-1,-1],"loss_changes":[3.4033044E2,1.08160866E2,3.4577698E1,3.4206818E1,3.0342422E1,1.2805119E1,0E0,1.6361893E1,1.6427338E1,1.3975279E1,3.2256088E0,0E0,0E0,8.797379E0,1.074928E1,4.661685E0,1.7116913E1,6.6406264E0,0E0,9.672654E0,1.718998E0,0E0,0E0,0E0,0E0,0E0,0E0,0E0,0E0,0E0,0E0,0E0,0E0,0E0,0E0],"parents":[2147483647,0,0,1,1,2,2,3,3,4,4,5,5,7,7,8,8,9,9,10,10,13,13,14,14,15,15,16,16,17,17,19,19,20,20],"right_children":[2,4,6,8,10,12,-1,14,16,18,20,-1,-1,22,24,26,28,30,-1,32,34,-1,-1,-1,-1,-1,-1,-1,-1,-1,-1,-1,-1,-1,-1],"split_conditions":[5.2E0,3.7221854E2,4.6E0,3.2E0,5.673579E2,7.13856E1,9.212185E-2,1.9390719E0,7.0710677E-1,2.6666667E0,1.6828014E3,-8.715531E-3,5.12497E-2,-9.998356E-1,3.6E0,1.6465504E3,7.354395E-1,1.5E0,5.435275E-2,1.5E0,1.62E2,-1.718774E-2,-2.9565576E-2,-4.675293E-3,4.45523E-2,5.7152594E-3,-2.7884929E-2,3.959617E-3,6.777913E-2,-1.522547E-4,2.715567E-2,2.4224133E-3,5.7609357E-2,3.6742568E-2,8.198881E-2],"split_indices":[28,41,25,25,41,2,0,19,22,9,0,0,0,46,28,0,54,21,0,11,7,0,0,0,0,0,0,0,0,0,0,0,0,0,0],"split_type":[0,0,0,0,0,0,0,0,0,0,0,0,0,0,0,0,0,0,0,0,0,0,0,0,0,0,0,0,0,0,0,0,0,0,0],"sum_hessian":[5.214994E2,4.7609006E2,4.54093E1,3.996384E2,7.645167E1,1.0873436E1,3.4535866E1,2.9861765E2,1.01020744E2,5.21639E1,2.428777E1,4.6626153E0,6.2108207E0,2.7554773E2,2.3069931E1,2.1069778E1,7.9950966E1,4.7125805E1,5.038092E0,1.1934046E1,1.2353724E1,1.9230504E2,8.324268E1,1.9169218E1,3.9007127E0,3.3920734E0,1.7677704E1,7.690231E1,3.0486524E0,3.8331264E1,8.79454E0,6.1227617E0,5.811284E0,6.0254292E0,6.328294E0],"tree_param":{"num_deleted":"0","num_feature":"62","num_nodes":"35","size_leaf_vector":"1"}},{"base_weights":[1.9381408E-3,-2.2877012E-1,2.440713E0,-4.289E-1,7.8249764E-1,1.0101846E0,8.503727E-2,-5.567479E-1,3.5497826E-1,2.107249E0,5.4593223E-1,-9.723764E-5,5.545685E-2,-9.9670154E-1,-3.7139985E-1,1.1093103E-1,8.9842595E-2,3.0776434E-2,8.8838734E-2,7.60114E-2,4.074973E-1,-3.1348765E-2,6.1768724E-4,1.0335268E-2,-1.4972576E-2,-6.329377E-3,1.555517E-2,1.6969482E-3,3.7607312E-2],"categories":[],"categories_nodes":[],"categories_segments":[],"categories_sizes":[],"default_left":[0,0,0,0,0,0,0,0,0,0,0,0,0,0,0,0,0,0,0,0,0,0,0,0,0,0,0,0,0],"id":11,"left_children":[1,3,5,7,9,11,-1,13,15,17,19,-1,-1,21,23,25,-1,-1,-1,-1,27,-1,-1,-1,-1,-1,-1,-1,-1],"loss_changes":[2.941694E2,9.642758E1,2.0682861E1,4.0199677E1,2.2131966E1,1.0772909E1,0E0,2.6936249E1,3.4122787E1,5.337864E0,1.6290796E1,0E0,0E0,5.4601364E0,2.25447E1,7.1348467E0,0E0,0E0,0E0,0E0,1.8655903E1,0E0,0E0,0E0,0E0,0E0,0E0,0E0,0E0],"parents":[2147483647,0,0,1,1,2,2,3,3,4,4,5,5,7,7,8,8,9,9,10,10,13,13,14,14,15,15,20,20],"right_children":[2,4,6,8,10,12,-1,14,16,18,20,-1,-1,22,24,26,-1,-1,-1,-1,28,-1,-1,-1,-1,-1,-1,-1,-1],"split_conditions":[5.2E0,3.7221854E2,-1.260545E0,1.9390719E0,-2.2E0,2.052659E2,8.503727E-2,1E0,1.220149E-1,1.5E0,3.5E1,-9.723764E-5,5.545685E-2,1.118034E0,1.04456E3,8E0,8.9842595E-2,3.0776434E-2,8.8838734E-2,7.60114E-2,5.673579E2,-3.1348765E-2,6.1768724E-4,1.0335268E-2,-1.4972576E-2,-6.329377E-3,1.555517E-2,1.6969482E-3,3.7607312E-2],"split_indices":[25,41,47,19,14,41,0,34,49,9,43,0,0,19,4,34,0,0,0,0,41,0,0,0,0,0,0,0,0],"split_type":[0,0,0,0,0,0,0,0,0,0,0,0,0,0,0,0,0,0,0,0,0,0,0,0,0,0,0,0,0],"sum_hessian":[5.188745E2,4.746717E2,4.42028E1,3.9714667E2,7.752501E1,1.058648E1,3.361632E1,3.422538E2,5.4892853E1,1.0227938E1,6.729707E1,4.9738545E0,5.612625E0,9.935162E1,2.4290219E2,5.1374695E1,3.5181582E0,5.7429767E0,4.484961E0,3.0199146E0,6.427716E1,9.5295395E1,4.0562253E0,3.5915813E1,2.0698639E2,2.8287931E1,2.3086763E1,4.6604584E1,1.7672577E1],"tree_param":{"num_deleted":"0","num_feature":"62","num_nodes":"29","size_leaf_vector":"1"}},{"base_weights":[2.7996274E-3,-2.5516158E-1,2.3973067E0,-3.999218E-1,9.903689E-1,2.6297095E0,8.579467E-4,-1.9668074E-1,-9.8129004E-1,7.4011594E-1,2.1522954E0,1.225713E0,8.4431134E-2,-3.1226802E-1,3.8887402E-1,-1.0073608E0,-0E0,1.3148699E0,3.1649756E-1,2.2022283E-2,8.4793516E-2,5.4692593E-3,5.6462828E-2,-1.8439071E-2,-5.04024E-3,3.7833254E-3,3.421638E-2,-5.6235474E-3,-3.0750552E-2,5.0834782E-2,-0E0,-6.843561E-3,1.8837396E-2],"categories":[],"categories_nodes":[],"categories_segments":[],"categories_sizes":[],"default_left":[0,0,0,0,0,0,0,0,0,0,0,0,0,0,0,0,0,0,0,0,0,0,0,0,0,0,0,0,0,0,0,0,0],"id":12,"left_children":[1,3,5,7,9,11,-1,13,15,17,19,21,-1,23,25,27,-1,29,31,-1,-1,-1,-1,-1,-1,-1,-1,-1,-1,-1,-1,-1,-1],"loss_changes":[3.233348E2,8.4988716E1,2.6631104E1,4.918186E1,1.1194138E1,6.501648E0,0E0,2.1417389E1,2.5291214E0,9.031475E0,3.5988426E0,3.729329E0,0E0,1.1043383E1,9.433486E0,7.302933E-1,0E0,8.717625E0,4.7672153E0,0E0,0E0,0E0,0E0,0E0,0E0,0E0,0E0,0E0,0E0,0E0,0E0,0E0,0E0],"parents":[2147483647,0,0,1,1,2,2,3,3,4,4,5,5,7,7,8,8,9,9,10,10,11,11,13,13,14,14,15,15,17,17,18,18],"right_children":[2,4,6,8,10,12,-1,14,16,18,20,22,-1,24,26,28,-1,30,32,-1,-1,-1,-1,-1,-1,-1,-1,-1,-1,-1,-1,-1,-1],"split_conditions":[5.2E0,3.7343948E2,1.3266499E0,4E0,2.6666667E0,1.5E0,8.579467E-4,3.6666667E0,4.098325E0,8.164966E-1,2.5E0,5E-1,8.4431134E-2,2.173913E-2,3.6666667E0,-3.0946118E2,-0E0,0E0,6.925686E-1,2.2022283E-2,8.4793516E-2,5.4692593E-3,5.6462828E-2,-1.8439071E-2,-5.04024E-3,3.7833254E-3,3.421638E-2,-5.6235474E-3,-3.0750552E-2,5.0834782E-2,-0E0,-6.843561E-3,1.8837396E-2],"split_indices":[28,2,20,30,9,9,0,25,48,17,28,20,0,29,28,2,0,14,32,0,0,0,0,0,0,0,0,0,0,0,0,0,0],"split_type":[0,0,0,0,0,0,0,0,0,0,0,0,0,0,0,0,0,0,0,0,0,0,0,0,0,0,0,0,0,0,0,0,0],"sum_hessian":[5.197338E2,4.6980603E2,4.992777E1,4.2185663E2,4.7949406E1,4.517428E1,4.7534885E0,3.1421E2,1.0764663E2,4.1153217E1,6.7961893E0,6.453451E0,3.872083E1,2.6351358E2,5.0696423E1,1.045881E2,3.0585353E0,1.606816E1,2.5085058E1,3.1016994E0,3.6944897E0,3.2795987E0,3.1738524E0,8.294179E1,1.8057178E2,3.8923004E1,1.1773418E1,3.0467865E0,1.01541306E2,1.23132715E1,3.7548883E0,8.638904E0,1.6446156E1],"tree_param":{"num_deleted":"0","num_feature":"62","num_nodes":"33","size_leaf_vector":"1"}},{"base_weights":[-0E0,-2.3995024E-1,2.2443411E0,-4.42395E-1,7.288883E-1,5.8822685E-1,2.5342216E0,-2.47654E-1,-9.581897E-1,3.869549E-1,1.3563734E0,-1.4800729E-2,4.0713202E-2,1.363254E0,8.090834E-2,-3.8093126E-1,4.585827E-1,-9.938342E-1,-0E0,7.091194E-1,-1.430023E-1,1.5819855E0,4.9894384E-1,6.0247976E-2,6.088182E-3,-1.543636E-2,5.11035E-3,2.81719E-3,6.0663134E-2,-5.3174384E-3,-3.0352019E-2,4.3713506E-2,9.498203E-3,-2.3487221E-2,7.5766244E-3,5.662913E-2,1.5800005E-2,3.7515618E-2,-4.748882E-3],"categories":[],"categories_nodes":[],"categories_segments":[],"categories_sizes":[],"default_left":[0,0,0,0,0,0,0,0,0,0,0,0,0,0,0,0,0,0,0,0,0,0,0,0,0,0,0,0,0,0,0,0,0,0,0,0,0,0,0],"id":13,"left_children":[1,3,5,7,9,11,13,15,17,19,21,-1,-1,23,-1,25,27,29,-1,31,33,35,37,-1,-1,-1,-1,-1,-1,-1,-1,-1,-1,-1,-1,-1,-1,-1,-1],"loss_changes":[2.805229E2,9.225995E1,2.1108063E1,3.8271446E1,1.600299E1,8.63231E0,2.3474731E0,2.6934397E1,3.8649902E0,9.67336E0,3.5265083E0,0E0,0E0,4.1406584E0,0E0,1.7985886E1,2.444302E1,7.1907806E-1,0E0,8.807686E0,5.73152E0,4.5719643E0,4.5428085E0,0E0,0E0,0E0,0E0,0E0,0E0,0E0,0E0,0E0,0E0,0E0,0E0,0E0,0E0,0E0,0E0],"parents":[2147483647,0,0,1,1,2,2,3,3,4,4,5,5,6,6,7,7,8,8,9,9,10,10,13,13,15,15,16,16,17,17,19,19,20,20,21,21,22,22],"right_children":[2,4,6,8,10,12,14,16,18,20,22,-1,-1,24,-1,26,28,30,-1,32,34,36,38,-1,-1,-1,-1,-1,-1,-1,-1,-1,-1,-1,-1,-1,-1,-1,-1],"split_conditions":[5.2E0,3.7221854E2,1.5E0,4E0,5.673579E2,2.3741495E1,3.52E0,2E0,2.560382E0,1.6547704E3,1E0,-1.4800729E-2,4.0713202E-2,1E-1,8.090834E-2,2E0,1.8729915E3,1.4483254E3,-0E0,1.20133E3,6.324555E-1,6E-1,1.028E3,6.0247976E-2,6.088182E-3,-1.543636E-2,5.11035E-3,2.81719E-3,6.0663134E-2,-5.3174384E-3,-3.0352019E-2,4.3713506E-2,9.498203E-3,-2.3487221E-2,7.5766244E-3,5.662913E-2,1.5800005E-2,3.7515618E-2,-4.748882E-3],"split_indices":[28,41,9,30,41,2,45,19,39,1,33,0,0,16,0,12,1,0,0,3,17,16,3,0,0,0,0,0,0,0,0,0,0,0,0,0,0,0,0],"split_type":[0,0,0,0,0,0,0,0,0,0,0,0,0,0,0,0,0,0,0,0,0,0,0,0,0,0,0,0,0,0,0,0,0,0,0,0,0,0,0],"sum_hessian":[5.177986E2,4.6847318E2,4.9325405E1,3.8837854E2,8.009463E1,8.055818E0,4.1269585E1,2.8371133E2,1.046672E2,5.340586E1,2.6688768E1,3.2259355E0,4.8298826E0,6.5543675E0,3.4715218E1,2.3965375E2,4.405759E1,1.0113659E2,3.5306096E0,3.3591045E1,1.9814816E1,1.9998478E1,6.690291E0,3.4659524E0,3.0884151E0,1.9368379E2,4.5969955E1,3.684395E1,7.2136436E0,3.0024166E0,9.813417E1,1.0188689E1,2.3402355E1,7.678244E0,1.2136571E1,1.4528195E1,5.470283E0,3.0549364E0,3.6353543E0],"tree_param":{"num_deleted":"0","num_feature":"62","num_nodes":"39","size_leaf_vector":"1"}},{"base_weights":[-9.947622E-3,-1.9915453E-1,2.1325023E0,-3.768769E-1,7.3901516E-1,4.2391968E-1,7.257633E-2,-5.129939E-1,3.826217E-1,-0E0,1.1392218E0,3.2710828E-2,-7.3925066E-3,-9.78685E-1,-3.306841E-1,9.922356E-2,9.77867E-2,-2.9705143E-1,3.0053644E-2,8.357162E-1,2.2016068E0,-3.117761E-2,1.0037406E-2,-1.267282E-2,2.6266405E-2,1.47028845E-2,-1.0380124E-2,-1.6887676E-2,9.009611E-3,1.488919E-2,4.9140323E-2,8.7282084E-2,2.9444989E-2],"categories":[],"categories_nodes":[],"categories_segments":[],"categories_sizes":[],"default_left":[0,0,0,0,0,0,0,0,0,0,0,0,0,0,0,0,0,0,0,0,0,0,0,0,0,0,0,0,0,0,0,0,0],"id":14,"left_children":[1,3,5,7,9,11,-1,13,15,17,19,-1,-1,21,23,25,-1,27,-1,29,31,-1,-1,-1,-1,-1,-1,-1,-1,-1,-1,-1,-1],"loss_changes":[2.0974747E2,7.976231E1,1.81111E1,4.1904316E1,2.2601196E1,4.038261E0,0E0,2.8106453E1,4.792261E1,8.430475E0,1.2566917E1,0E0,0E0,8.2645035E0,2.764069E1,1.0149486E1,0E0,3.8169932E0,0E0,9.119368E0,3.832119E0,0E0,0E0,0E0,0E0,0E0,0E0,0E0,0E0,0E0,0E0,0E0,0E0],"parents":[2147483647,0,0,1,1,2,2,3,3,4,4,5,5,7,7,8,8,9,9,10,10,13,13,14,14,15,15,17,17,19,19,20,20],"right_children":[2,4,6,8,10,12,-1,14,16,18,20,-1,-1,22,24,26,-1,28,-1,30,32,-1,-1,-1,-1,-1,-1,-1,-1,-1,-1,-1,-1],"split_conditions":[5.6E0,3.9381873E2,3E0,1.9390719E0,8.2E1,5E-1,7.257633E-2,1E0,7.354395E-1,1.23E2,2.2449944E0,3.2710828E-2,-7.3925066E-3,1.2E0,2.8E0,1.271E3,9.77867E-2,1.6329932E0,3.0053644E-2,6.2913153E2,1E0,-3.117761E-2,1.0037406E-2,-1.267282E-2,2.6266405E-2,1.47028845E-2,-1.0380124E-2,-1.6887676E-2,9.009611E-3,1.488919E-2,4.9140323E-2,8.7282084E-2,2.9444989E-2],"split_indices":[25,41,30,19,7,16,0,34,54,8,22,0,0,21,12,4,0,22,0,41,18,0,0,0,0,0,0,0,0,0,0,0,0],"split_type":[0,0,0,0,0,0,0,0,0,0,0,0,0,0,0,0,0,0,0,0,0,0,0,0,0,0,0,0,0,0,0,0,0],"sum_hessian":[5.17764E2,4.7679684E2,4.09671E1,4.0181094E2,7.49859E1,6.493409E0,3.447369E1,3.4157666E2,6.0234303E1,2.659532E1,4.839058E1,3.3159924E0,3.1774168E0,9.409922E1,2.4747743E2,5.5932816E1,4.301487E0,2.1141722E1,5.453598E0,3.9393726E1,8.99685E0,9.051403E1,3.5851886E0,2.3097435E2,1.6503086E1,3.0328863E1,2.5603954E1,1.5249378E1,5.892344E0,2.9257988E1,1.0135739E1,4.5582294E0,4.438621E0],"tree_param":{"num_deleted":"0","num_feature":"62","num_nodes":"33","size_leaf_vector":"1"}},{"base_weights":[9.965582E-4,-2.1234779E-1,2.055526E0,-3.433369E-1,9.141328E-1,4.2866674E-1,6.934977E-2,-1.777164E-1,-9.576354E-1,3.9180887E-1,1.7951865E0,3.6839627E-2,-1.4973078E-2,-3.563209E-1,3.6471593E-1,5.5850614E-3,-3.0364659E-2,8.928155E-2,4.7120534E-2,2.121515E0,9.125633E-3,-1.1995606E-2,2.6323153E-2,2.1388745E-2,-1.3177738E-3,-9.1485595E-3,1.9033872E-2,7.9275794E-2,3.2125432E-2],"categories":[],"categories_nodes":[],"categories_segments":[],"categories_sizes":[],"default_left":[0,0,0,0,0,0,0,0,0,0,0,0,0,0,0,0,0,0,0,0,0,0,0,0,0,0,0,0,0],"id":15,"left_children":[1,3,5,7,9,11,-1,13,15,17,19,-1,-1,21,23,-1,-1,25,-1,27,-1,-1,-1,-1,-1,-1,-1,-1,-1],"loss_changes":[2.2641696E2,6.876616E1,1.7896866E1,4.1834187E1,2.0477203E1,6.9887495E0,0E0,3.2236824E1,6.0884094E0,1.045028E1,6.597679E0,0E0,0E0,1.3568621E1,1.2021051E1,0E0,0E0,6.135642E0,0E0,2.876503E0,0E0,0E0,0E0,0E0,0E0,0E0,0E0,0E0,0E0],"parents":[2147483647,0,0,1,1,2,2,3,3,4,4,5,5,7,7,8,8,9,9,10,10,13,13,14,14,17,17,19,19],"right_children":[2,4,6,8,10,12,-1,14,16,18,20,-1,-1,22,24,-1,-1,26,-1,28,-1,-1,-1,-1,-1,-1,-1,-1,-1],"split_conditions":[5.4E0,3.9381873E2,2E0,5E0,1.5811388E0,1.3238859E3,6.934977E-2,3.25E0,-2.971321E0,3.6666667E0,1.356466E0,3.6839627E-2,-1.4973078E-2,9.628249E-1,4E-1,5.5850614E-3,-3.0364659E-2,4.2621E2,4.7120534E-2,9.4608E2,9.125633E-3,-1.1995606E-2,2.6323153E-2,2.1388745E-2,-1.3177738E-3,-9.1485595E-3,1.9033872E-2,7.9275794E-2,3.2125432E-2],"split_indices":[25,2,30,30,21,0,0,25,58,25,18,0,0,54,26,0,0,5,0,4,0,0,0,0,0,0,0,0,0],"split_type":[0,0,0,0,0,0,0,0,0,0,0,0,0,0,0,0,0,0,0,0,0,0,0,0,0,0,0,0,0],"sum_hessian":[5.1245526E2,4.648392E2,4.761608E1,4.1743787E2,4.740133E1,7.106166E0,4.0509914E1,3.30449E2,8.698886E1,3.1022287E1,1.6379044E1,3.9330108E0,3.173155E0,2.4954666E2,8.090234E1,3.4306014E0,8.355826E1,2.5880585E1,5.1417017E0,1.2815863E1,3.5631807E0,2.4208594E2,7.460724E0,4.393772E1,3.696462E1,1.4743046E1,1.113754E1,7.236433E0,5.57943E0],"tree_param":{"num_deleted":"0","num_feature":"62","num_nodes":"29","size_leaf_vector":"1"}},{"base_weights":[-1.6644738E-3,-2.3227654E-1,1.9755737E0,-3.680822E-1,8.6035895E-1,6.8318085E-3,2.126209E0,-1.8528968E-1,-9.3623906E-1,9.602195E-1,-4.678264E-3,6.751675E-2,9.653426E-3,-2.2484098E-1,6.202252E-2,-9.732057E-1,-0E0,4.2368603E-1,1.2361906E0,-8.050506E-3,2.6449926E-2,-2.0626737E-3,-3.00845E-2,2.2190975E-2,-1.6250396E-2,4.351292E-2,-1.7466642E-4],"categories":[],"categories_nodes":[],"categories_segments":[],"categories_sizes":[],"default_left":[0,0,0,0,0,0,0,0,0,0,0,0,0,0,0,0,0,0,0,0,0,0,0,0,0,0,0],"id":16,"left_children":[1,3,5,7,9,-1,11,13,15,17,-1,-1,-1,19,-1,21,-1,23,25,-1,-1,-1,-1,-1,-1,-1,-1],"loss_changes":[2.309303E2,6.7658356E1,1.2259613E1,4.1455643E1,5.6513786E0,0E0,8.825897E0,2.7098454E1,3.1321487E0,5.5076675E0,0E0,0E0,0E0,1.4616048E1,0E0,1.9121399E0,0E0,5.9531574E0,8.570557E0,0E0,0E0,0E0,0E0,0E0,0E0,0E0,0E0],"parents":[2147483647,0,0,1,1,2,2,3,3,4,4,6,6,7,7,8,8,9,9,13,13,15,15,17,17,18,18],"right_children":[2,4,6,8,10,-1,12,14,16,18,-1,-1,-1,20,-1,22,-1,24,26,-1,-1,-1,-1,-1,-1,-1,-1],"split_conditions":[5.2E0,3.7343948E2,1E0,4E0,1.374E3,6.8318085E-3,1.264911E0,1.9254019E0,1.356466E0,2.5E0,-4.678264E-3,6.751675E-2,9.653426E-3,3.6E0,6.202252E-2,-2.8959763E2,-0E0,1E0,2E0,-8.050506E-3,2.6449926E-2,-2.0626737E-3,-3.00845E-2,2.2190975E-2,-1.6250396E-2,4.351292E-2,-1.7466642E-4],"split_indices":[28,2,9,30,4,0,20,54,21,28,0,0,0,10,0,2,0,33,30,0,0,0,0,0,0,0,0],"split_type":[0,0,0,0,0,0,0,0,0,0,0,0,0,0,0,0,0,0,0,0,0,0,0,0,0,0,0],"sum_hessian":[5.063591E2,4.544862E2,5.1872883E1,4.0523904E2,4.9247158E1,4.578528E0,4.7294353E1,3.0826685E2,9.69722E1,4.5339333E1,3.9078276E0,4.375473E1,3.5396264E0,3.0405072E2,4.2161436E0,9.297771E1,3.9944866E0,1.6876215E1,2.8463116E1,2.9371097E2,1.0339743E1,3.5881212E0,8.938959E1,1.3280527E1,3.5956883E0,2.4475924E1,3.987192E0],"tree_param":{"num_deleted":"0","num_feature":"62","num_nodes":"27","size_leaf_vector":"1"}},{"base_weights":[-8.7384466E-4,-2.2733288E-1,1.8710325E0,-3.379954E-1,9.7569746E-1,2.045695E0,-0E0,-1.5598455E-1,-9.425116E-1,3.3994347E-1,1.2868524E0,4.7873645E-3,2.165472E0,-2.63391E-1,8.793774E-1,-0E0,-9.708036E-1,4.561145E-2,-1.0592153E-1,1.6176378E0,3.4748358E-3,3.3414684E-2,6.7981884E-2,-1.0788119E-2,7.2784456E-3,4.3218706E-2,1.5806076E-3,-0E0,-3.0036964E-2,1.131895E-2,-1.4996175E-2,2.58774E-2,7.069444E-2],"categories":[],"categories_nodes":[],"categories_segments":[],"categories_sizes":[],"default_left":[0,0,0,0,0,0,0,0,0,0,0,0,0,0,0,0,0,0,0,0,0,0,0,0,0,0,0,0,0,0,0,0,0],"id":17,"left_children":[1,3,5,7,9,11,-1,13,15,17,19,-1,21,23,25,-1,27,-1,29,31,-1,-1,-1,-1,-1,-1,-1,-1,-1,-1,-1,-1,-1],"loss_changes":[2.1465852E2,6.0411217E1,1.692308E1,4.514139E1,6.2849693E0,9.727753E0,0E0,3.5734463E1,2.2447433E0,8.449852E0,8.509663E0,0E0,6.983948E-1,1.4408651E1,1.3124388E1,0E0,2.3347702E0,0E0,2.3597345E0,6.8689613E0,0E0,0E0,0E0,0E0,0E0,0E0,0E0,0E0,0E0,0E0,0E0,0E0,0E0],"parents":[2147483647,0,0,1,1,2,2,3,3,4,4,5,5,7,7,8,8,9,9,10,10,12,12,13,13,14,14,16,16,18,18,19,19],"right_children":[2,4,6,8,10,12,-1,14,16,18,20,-1,22,24,26,-1,28,-1,30,32,-1,-1,-1,-1,-1,-1,-1,-1,-1,-1,-1,-1,-1],"split_conditions":[5.2E0,4.4249396E2,1.3266499E0,4E0,1.7604852E3,2.6666667E0,-0E0,4.2E0,-3.0177316E2,1E0,3.6E1,4.7873645E-3,1.25E-1,1.53E2,1.5209879E3,-0E0,1.993E1,4.561145E-2,1.2E0,3E0,3.4748358E-3,3.3414684E-2,6.7981884E-2,-1.0788119E-2,7.2784456E-3,4.3218706E-2,1.5806076E-3,-0E0,-3.0036964E-2,1.131895E-2,-1.4996175E-2,2.58774E-2,7.069444E-2],"split_indices":[28,2,20,30,0,25,0,25,2,9,34,0,15,7,0,0,42,0,19,28,0,0,0,0,0,0,0,0,0,0,0,0,0],"split_type":[0,0,0,0,0,0,0,0,0,0,0,0,0,0,0,0,0,0,0,0,0,0,0,0,0,0,0,0,0,0,0,0,0],"sum_hessian":[5.0631277E2,4.526927E2,5.3620083E1,4.1559796E2,3.7094734E1,4.873514E1,4.884942E0,3.210267E2,9.457124E1,1.3404996E1,2.3689741E1,3.2986329E0,4.543651E1,2.9196713E2,2.9059574E1,3.1074789E0,9.146377E1,3.3218293E0,1.0083166E1,1.7841576E1,5.848165E0,5.4545026E0,3.9982006E1,2.463946E2,4.5572533E1,1.6506042E1,1.2553532E1,3.2057247E0,8.825804E1,3.9774756E0,6.1056905E0,1.0230635E1,7.610941E0],"tree_param":{"num_deleted":"0","num_feature":"62","num_nodes":"33","size_leaf_vector":"1"}},{"base_weights":[1.5346264E-2,-2.0115866E-1,1.8002948E0,-3.3967438E-1,7.1775633E-1,-0E0,1.9800768E0,-1.5755813E-1,-9.175638E-1,-8.421604E-2,8.977096E-1,2.1013129E0,7.8110397E-3,-3.3568785E-1,3.6436886E-1,-9.5697814E-1,1.9368329E-3,-1.7222265E-2,1.3518622E-2,1.7078657E0,5.300684E-1,2.4890903E-2,6.5032974E-2,-1.175185E-2,4.1179195E-2,-2.4533565E-3,2.4829196E-2,-1.2851599E-2,-3.0192396E-2,2.5483524E-2,7.526996E-2,1.5236244E-3,2.790559E-2],"categories":[],"categories_nodes":[],"categories_segments":[],"categories_sizes":[],"default_left":[0,0,0,0,0,0,0,0,0,0,0,0,0,0,0,0,0,0,0,0,0,0,0,0,0,0,0,0,0,0,0,0,0],"id":18,"left_children":[1,3,5,7,9,-1,11,13,15,17,19,21,-1,23,25,27,-1,-1,-1,29,31,-1,-1,-1,-1,-1,-1,-1,-1,-1,-1,-1,-1],"loss_changes":[1.974585E2,5.7797424E1,1.8832962E1,4.0928665E1,9.036545E0,0E0,8.803955E0,2.8231691E1,4.14196E0,3.2725275E0,1.2571911E1,6.553192E-1,0E0,2.1756636E1,1.6301115E1,1.2243729E0,0E0,0E0,0E0,6.107704E0,6.286064E0,0E0,0E0,0E0,0E0,0E0,0E0,0E0,0E0,0E0,0E0,0E0,0E0],"parents":[2147483647,0,0,1,1,2,2,3,3,4,4,6,6,7,7,8,8,9,9,10,10,11,11,13,13,14,14,15,15,19,19,20,20],"right_children":[2,4,6,8,10,-1,12,14,16,18,20,22,-1,24,26,28,-1,-1,-1,30,32,-1,-1,-1,-1,-1,-1,-1,-1,-1,-1,-1,-1],"split_conditions":[5.2E0,4.3925064E2,2.8E0,4E0,9.4280905E-1,-0E0,1.3266499E0,3.25E0,4.201598E0,2.5E1,2E-1,-2.3333333E0,7.8110397E-3,9.628249E-1,1.8282738E2,1.6798027E3,1.9368329E-3,-1.7222265E-2,1.3518622E-2,3E0,5.673579E2,2.4890903E-2,6.5032974E-2,-1.175185E-2,4.1179195E-2,-2.4533565E-3,2.4829196E-2,-1.2851599E-2,-3.0192396E-2,2.5483524E-2,7.526996E-2,1.5236244E-3,2.790559E-2],"split_indices":[28,41,25,30,22,0,20,25,61,34,24,13,0,54,41,1,0,0,0,28,41,0,0,0,0,0,0,0,0,0,0,0,0],"split_type":[0,0,0,0,0,0,0,0,0,0,0,0,0,0,0,0,0,0,0,0,0,0,0,0,0,0,0,0,0,0,0,0,0],"sum_hessian":[5.0694858E2,4.526515E2,5.4297077E1,3.9437808E2,5.8273426E1,4.7821217E0,4.9514957E1,3.0150085E2,9.287722E1,1.0267815E1,4.800561E1,4.5775246E1,3.7397108E0,2.257641E2,7.573675E1,8.9807785E1,3.069437E0,5.8089085E0,4.4589067E0,1.3422189E1,3.4583424E1,3.3167615E0,4.2458485E1,2.196229E2,6.1411996E0,3.8451096E1,3.7285656E1,9.372369E0,8.043541E1,7.7753363E0,5.6468525E0,1.6816437E1,1.7766987E1],"tree_param":{"num_deleted":"0","num_feature":"62","num_nodes":"33","size_leaf_vector":"1"}},{"base_weights":[-0E0,-2.771244E-1,1.4605834E0,-4.5317572E-1,4.7328442E-1,7.884851E-1,5.9368845E-2,-5.9650373E-1,-2.178475E-2,2.1839276E-1,1.3058978E0,-2.2402052E-2,1.183542E0,-6.471371E-1,1.15371354E-1,-3.2263032E-1,3.1178644E-1,1.1952733E0,7.389039E-2,1.7567219E0,4.687381E-1,-0E0,1.8278315E0,-2.743684E-2,-1.3979868E-2,5.3544596E-2,-9.940569E-3,1.7168531E-2,-1.633431E-2,2.5941709E-2,-0E0,5.332158E-2,5.9206183E-3,-1.7753198E-3,3.2722097E-2,2.5286248E-2,7.892584E-2,3.429727E-2,-9.312199E-3,-1.4864799E-2,2.4202654E-2,1.625487E-2,6.310579E-2],"categories":[],"categories_nodes":[],"categories_segments":[],"categories_sizes":[],"default_left":[0,0,0,0,0,0,0,0,0,0,0,0,0,0,0,0,0,0,0,0,0,0,0,0,0,0,0,0,0,0,0,0,0,0,0,0,0,0,0,0,0,0,0],"id":19,"left_children":[1,3,5,7,9,11,-1,13,15,17,19,-1,21,23,25,27,29,31,33,35,37,39,41,-1,-1,-1,-1,-1,-1,-1,-1,-1,-1,-1,-1,-1,-1,-1,-1,-1,-1,-1,-1],"loss_changes":[2.038157E2,5.601502E1,2.5043594E1,2.0899742E1,1.5978849E1,2.3580149E1,0E0,9.594017E0,8.887404E0,8.182065E0,4.9112377E0,0E0,2.2689087E1,1.0532898E1,1.4175644E1,9.686126E0,7.356339E0,3.0867147E0,8.220746E0,4.8650894E0,5.0295167E0,5.125242E0,4.4230423E0,0E0,0E0,0E0,0E0,0E0,0E0,0E0,0E0,0E0,0E0,0E0,0E0,0E0,0E0,0E0,0E0,0E0,0E0,0E0,0E0],"parents":[2147483647,0,0,1,1,2,2,3,3,4,4,5,5,7,7,8,8,9,9,10,10,12,12,13,13,14,14,15,15,16,16,17,17,18,18,19,19,20,20,21,21,22,22],"right_children":[2,4,6,8,10,12,-1,14,16,18,20,-1,22,24,26,28,30,32,34,36,38,40,42,-1,-1,-1,-1,-1,-1,-1,-1,-1,-1,-1,-1,-1,-1,-1,-1,-1,-1,-1,-1],"split_conditions":[4.4E0,3.7221854E2,5.2E0,3.2E0,6.2913153E2,4E-1,5.9368845E-2,2E0,1.6037961E2,2.13E2,1.5811388E0,-2.2402052E-2,4.5791107E1,3.3333334E-1,3.7E1,2.604E1,2.1663762E2,8.395E1,2.6666667E0,1.118034E0,1.6248077E0,9.326422E-1,2.25E0,-2.743684E-2,-1.3979868E-2,5.3544596E-2,-9.940569E-3,1.7168531E-2,-1.633431E-2,2.5941709E-2,-0E0,5.332158E-2,5.9206183E-3,-1.7753198E-3,3.2722097E-2,2.5286248E-2,7.892584E-2,3.429727E-2,-9.312199E-3,-1.4864799E-2,2.4202654E-2,1.625487E-2,6.310579E-2],"split_indices":[28,41,25,25,41,21,0,19,41,42,22,0,2,29,7,42,41,5,9,18,19,32,25,0,0,0,0,0,0,0,0,0,0,0,0,0,0,0,0,0,0,0,0],"split_type":[0,0,0,0,0,0,0,0,0,0,0,0,0,0,0,0,0,0,0,0,0,0,0,0,0,0,0,0,0,0,0,0,0,0,0,0,0,0,0,0,0,0,0],"sum_hessian":[5.007857E2,4.2145392E2,7.933179E1,3.422273E2,7.92266E1,3.60618E1,4.3269985E1,2.5572266E2,8.6504654E1,6.208351E1,1.7143087E1,6.9393063E0,2.9122494E1,2.3948236E2,1.6240295E1,4.628882E1,4.0215836E1,6.6172256E0,5.5466286E1,1.0040454E1,7.102634E0,1.0701831E1,1.8420662E1,9.395896E1,1.4552339E2,3.0322807E0,1.3208015E1,8.433839E0,3.785498E1,1.4196266E1,2.6019571E1,3.3695457E0,3.24768E0,4.9445747E1,6.02054E0,6.1486893E0,3.8917646E0,3.900448E0,3.2021859E0,6.7510037E0,3.9508271E0,4.095546E0,1.4325117E1],"tree_param":{"num_deleted":"0","num_feature":"62","num_nodes":"43","size_leaf_vector":"1"}},{"base_weights":[1.0801721E-2,-1.6763557E-1,1.6458977E0,-2.2357053E-1,5.5327654E-2,-0E0,1.7805126E0,-3.8181E-1,4.818621E-1,1.9079648E0,2.1123491E-2,-4.1802716E-1,6.189848E-2,2.8902465E-1,1.295367E0,1.9832329E0,1.913163E-2,-7.7153347E-3,-3.039182E-2,3.487492E-2,2.7718362E-3,5.5078223E-2,2.2036055E-2,6.2299933E-2,1.9530488E-2],"categories":[],"categories_nodes":[],"categories_segments":[],"categories_sizes":[],"default_left":[0,0,0,0,0,0,0,0,0,0,0,0,0,0,0,0,0,0,0,0,0,0,0,0,0],"id":20,"left_children":[1,3,5,7,-1,-1,9,11,13,15,-1,17,-1,19,21,23,-1,-1,-1,-1,-1,-1,-1,-1,-1],"loss_changes":[1.4658041E2,5.029454E1,1.1171188E1,4.9183994E1,0E0,0E0,3.631836E0,3.1922848E1,1.144145E1,1.2432098E0,0E0,3.315982E1,0E0,1.0730162E1,1.7975578E0,1.8720093E0,0E0,0E0,0E0,0E0,0E0,0E0,0E0,0E0,0E0],"parents":[2147483647,0,0,1,1,2,2,3,3,6,6,7,7,8,8,9,9,11,11,13,13,14,14,15,15],"right_children":[2,4,6,8,-1,-1,10,12,14,16,-1,18,-1,20,22,24,-1,-1,-1,-1,-1,-1,-1,-1,-1],"split_conditions":[3.6E0,4.1116915E0,2.2678247E1,3.7221854E2,5.5327654E-2,-0E0,1.7826809E0,3.6128592E0,6.647158E2,2.4494898E0,2.1123491E-2,5E0,6.189848E-2,5E1,9.6077E2,1.4142135E0,1.913163E-2,-7.7153347E-3,-3.039182E-2,3.487492E-2,2.7718362E-3,5.5078223E-2,2.2036055E-2,6.2299933E-2,1.9530488E-2],"split_indices":[12,48,2,41,0,0,46,51,41,19,0,30,0,43,4,18,0,0,0,0,0,0,0,0,0],"split_type":[0,0,0,0,0,0,0,0,0,0,0,0,0,0,0,0,0,0,0,0,0,0,0,0,0],"sum_hessian":[4.9791803E2,4.494603E2,4.8457718E1,4.3840897E2,1.105133E1,3.671968E0,4.4785748E1,3.5903857E2,7.9370384E1,3.8938156E1,5.8475904E0,3.548165E2,4.2220798E0,6.575369E1,1.3616693E1,3.5858444E1,3.0797122E0,2.8110165E2,7.371484E1,1.0712323E1,5.504137E1,5.321895E0,8.294797E0,3.263552E1,3.222925E0],"tree_param":{"num_deleted":"0","num_feature":"62","num_nodes":"25","size_leaf_vector":"1"}},{"base_weights":[2.2075303E-2,-1.7063339E-1,1.6335593E0,-5.880174E-3,-9.504289E-1,1.8528283E0,-0E0,-1.3141009E-1,8.3745027E-1,-3.0757619E-2,1.3128549E-2,2.1960035E-2,5.7491038E-2,-1.4825389E-2,1.402617E-2,-2.553737E-1,3.3487657E-1,2.9834583E-1,1.5182693E0,2.038497E-2,-9.286428E-3,1.651316E-2,-2.0620784E-2,-6.695352E-3,2.919768E-2,6.591321E-2,1.3476216E-2],"categories":[],"categories_nodes":[],"categories_segments":[],"categories_sizes":[],"default_left":[0,0,0,0,0,0,0,0,0,0,0,0,0,0,0,0,0,0,0,0,0,0,0,0,0,0,0],"id":21,"left_children":[1,3,5,7,9,11,13,15,17,-1,-1,-1,-1,-1,-1,19,21,23,25,-1,-1,-1,-1,-1,-1,-1,-1],"loss_changes":[1.5619278E2,5.6939045E1,1.949266E1,3.8983078E1,8.783974E0,6.527252E-1,1.9189003E0,1.8768448E1,1.611967E1,0E0,0E0,0E0,0E0,0E0,0E0,1.3056265E1,1.5208591E1,1.0530353E1,1.2489544E1,0E0,0E0,0E0,0E0,0E0,0E0,0E0,0E0],"parents":[2147483647,0,0,1,1,2,2,3,3,4,4,5,5,6,6,7,7,8,8,15,15,16,16,17,17,18,18],"right_children":[2,4,6,8,10,12,14,16,18,-1,-1,-1,-1,-1,-1,20,22,24,26,-1,-1,-1,-1,-1,-1,-1,-1],"split_conditions":[5.2E0,5E0,1.0198039E0,2.6E0,1.2E0,7.9616714E-1,2.5E-1,1.8867483E3,1.79E2,-3.0757619E-2,1.3128549E-2,2.1960035E-2,5.7491038E-2,-1.4825389E-2,1.402617E-2,1E-1,-5.68474E-1,3.2E0,8E-1,2.038497E-2,-9.286428E-3,1.651316E-2,-2.0620784E-2,-6.695352E-3,2.919768E-2,6.591321E-2,1.3476216E-2],"split_indices":[25,30,20,12,21,32,24,0,7,0,0,0,0,0,0,15,60,25,27,0,0,0,0,0,0,0,0],"split_type":[0,0,0,0,0,0,0,0,0,0,0,0,0,0,0,0,0,0,0,0,0,0,0,0,0,0,0],"sum_hessian":[4.987072E2,4.4596097E2,5.274623E1,3.6953525E2,7.6425735E1,4.645606E1,6.2901716E0,3.2290744E2,4.662778E1,7.31064E1,3.3193388E0,3.5861752E0,4.2869884E1,3.1657166E0,3.1244547E0,2.562953E2,6.6612175E1,2.7234695E1,1.9393084E1,1.2900498E1,2.4339478E2,5.579679E1,1.0815385E1,1.53227825E1,1.1911913E1,1.0929898E1,8.463186E0],"tree_param":{"num_deleted":"0","num_feature":"62","num_nodes":"27","size_leaf_vector":"1"}},{"base_weights":[1.0089318E-2,-1.9105321E-1,1.5740554E0,-1.766933E-2,-8.8218325E-1,1.738074E0,-8.94691E-4,-2.4244346E-1,4.5559695E-1,-2.958833E-2,-1.3457224E-1,6.714587E-1,5.583124E-2,3.1325853E-1,-3.6913607E-1,1.1152257E0,1.3210277E-1,-2.1288168E-2,1.4544705E-2,-0E0,3.2284614E-2,2.141587E-2,-7.440138E-3,-1.2932252E-2,4.2721424E-2,1.6461166E-2,5.021095E-2,7.802799E-5,5.3237956E-2],"categories":[],"categories_nodes":[],"categories_segments":[],"categories_sizes":[],"default_left":[0,0,0,0,0,0,0,0,0,0,0,0,0,0,0,0,0,0,0,0,0,0,0,0,0,0,0,0,0],"id":22,"left_children":[1,3,5,7,9,11,-1,13,15,-1,17,19,-1,21,23,25,27,-1,-1,-1,-1,-1,-1,-1,-1,-1,-1,-1,-1],"loss_changes":[1.5704669E2,5.227813E1,1.5880005E1,3.760581E1,6.13002E0,4.2965546E0,0E0,1.7112339E1,2.3438179E1,0E0,4.894614E0,1.6093686E0,0E0,1.0428157E1,2.2049538E1,9.5780945E0,1.5647703E1,0E0,0E0,0E0,0E0,0E0,0E0,0E0,0E0,0E0,0E0,0E0,0E0],"parents":[2147483647,0,0,1,1,2,2,3,3,4,4,5,5,7,7,8,8,10,10,11,11,13,13,14,14,15,15,16,16],"right_children":[2,4,6,8,10,12,-1,14,16,-1,18,20,-1,22,24,26,28,-1,-1,-1,-1,-1,-1,-1,-1,-1,-1,-1,-1],"split_conditions":[5.2E0,4E0,1.3266499E0,1.9146898E2,1.356466E0,1.2E0,-8.94691E-4,9.89E2,9.86E2,-2.958833E-2,2.5E-1,2.366432E0,5.583124E-2,-1.7150482E2,9.628249E-1,7.9616714E-1,3.5E0,-2.1288168E-2,1.4544705E-2,-0E0,3.2284614E-2,2.141587E-2,-7.440138E-3,-1.2932252E-2,4.2721424E-2,1.6461166E-2,5.021095E-2,7.802799E-5,5.3237956E-2],"split_indices":[28,30,20,2,22,9,0,3,4,0,13,21,0,2,54,32,31,0,0,0,0,0,0,0,0,0,0,0,0],"split_type":[0,0,0,0,0,0,0,0,0,0,0,0,0,0,0,0,0,0,0,0,0,0,0,0,0,0,0,0,0],"sum_hessian":[4.9507224E2,4.3915094E2,5.5921303E1,3.5247458E2,8.667633E1,5.094006E1,4.9812427E0,2.4002216E2,1.1245244E2,7.521557E1,1.1460762E1,6.3538213E0,4.458624E1,4.355613E1,1.9646602E2,3.5688293E1,7.6764145E1,6.2862983E0,5.174464E0,3.1012883E0,3.252533E0,2.5776796E1,1.7779331E1,1.9091017E2,5.55586E0,1.9145111E1,1.6543182E1,7.236459E1,4.399555E0],"tree_param":{"num_deleted":"0","num_feature":"62","num_nodes":"29","size_leaf_vector":"1"}},{"base_weights":[7.7906373E-4,-2.0789562E-1,1.5205741E0,-3.3190802E-1,6.065024E-1,5.7514656E-1,1.7666388E0,-7.506779E-1,-1.5330708E-1,2.3196879E-1,1.0143133E0,-1.7765546E-2,1.1363897E0,2.5341902E-2,5.5431746E-2,8.99851E-2,-8.357007E-1,-2.0808706E-1,1.4356202E0,6.1835945E-1,-5.949383E-2,6.025079E-2,1.4717505E0,4.4748217E-2,9.929318E-3,3.0455103E-2,-1.313682E-2,-2.7595162E-2,-8.5624E-3,8.35579E-3,-1.0011991E-2,-0E0,9.5609255E-2,3.9927464E-2,-0E0,-1.2186216E-2,1.3486996E-2,-1.3073529E-2,1.7010853E-2,5.045588E-2,1.2729257E-2],"categories":[],"categories_nodes":[],"categories_segments":[],"categories_sizes":[],"default_left":[0,0,0,0,0,0,0,0,0,0,0,0,0,0,0,0,0,0,0,0,0,0,0,0,0,0,0,0,0,0,0,0,0,0,0,0,0,0,0,0,0],"id":23,"left_children":[1,3,5,7,9,11,13,15,17,19,21,-1,23,-1,-1,25,27,29,31,33,35,37,39,-1,-1,-1,-1,-1,-1,-1,-1,-1,-1,-1,-1,-1,-1,-1,-1,-1,-1],"loss_changes":[1.5954352E2,4.4524788E1,1.1951126E1,2.8095596E1,8.000027E0,1.0414145E1,6.303253E-1,8.559334E0,2.3250984E1,3.938905E0,1.0854406E1,0E0,1.5682125E0,0E0,0E0,6.0008636E0,3.9360428E0,1.6194489E1,2.285269E1,6.390348E0,3.428078E0,2.8496027E0,2.13702E0,0E0,0E0,0E0,0E0,0E0,0E0,0E0,0E0,0E0,0E0,0E0,0E0,0E0,0E0,0E0,0E0,0E0,0E0],"parents":[2147483647,0,0,1,1,2,2,3,3,4,4,5,5,6,6,7,7,8,8,9,9,10,10,12,12,15,15,16,16,17,17,18,18,19,19,20,20,21,21,22,22],"right_children":[2,4,6,8,10,12,14,16,18,20,22,-1,24,-1,-1,26,28,30,32,34,36,38,40,-1,-1,-1,-1,-1,-1,-1,-1,-1,-1,-1,-1,-1,-1,-1,-1,-1,-1],"split_conditions":[5.2E0,3.6643042E2,4.6E0,8E-1,4.2E2,2.3741495E1,1.25E-1,1.4265767E3,9.628249E-1,3.08E2,1.8137261E3,-1.7765546E-2,1E0,2.5341902E-2,5.5431746E-2,2E-1,1.356466E0,1.3321184E3,1.8856181E0,8E-1,8.164966E-1,1.81E2,1.9595917E0,4.4748217E-2,9.929318E-3,3.0455103E-2,-1.313682E-2,-2.7595162E-2,-8.5624E-3,8.35579E-3,-1.0011991E-2,-0E0,9.5609255E-2,3.9927464E-2,-0E0,-1.2186216E-2,1.3486996E-2,-1.3073529E-2,1.7010853E-2,5.045588E-2,1.2729257E-2],"split_indices":[28,2,25,22,42,2,15,1,54,42,0,0,33,0,0,23,19,0,19,18,18,7,19,0,0,0,0,0,0,0,0,0,0,0,0,0,0,0,0,0,0],"split_type":[0,0,0,0,0,0,0,0,0,0,0,0,0,0,0,0,0,0,0,0,0,0,0,0,0,0,0,0,0,0,0,0,0,0,0,0,0,0,0,0,0],"sum_hessian":[4.9899902E2,4.392256E2,5.977343E1,3.822282E2,5.699738E1,1.3453165E1,4.6320263E1,1.1248331E2,2.697449E2,3.1167767E1,2.582961E1,4.060892E0,9.392273E0,5.166275E0,4.1153988E1,9.785915E0,1.0269739E2,2.6189935E2,7.8455462E0,1.3656852E1,1.7510914E1,9.091828E0,1.6737783E1,5.495686E0,3.8965864E0,3.5638409E0,6.222075E0,8.7706955E1,1.4990439E1,5.2679825E1,2.0921954E2,4.8006344E0,3.044912E0,5.771536E0,7.8853164E0,1.1120891E1,6.390024E0,4.1668086E0,4.9250193E0,1.3039147E1,3.6986353E0],"tree_param":{"num_deleted":"0","num_feature":"62","num_nodes":"41","size_leaf_vector":"1"}},{"base_weights":[3.6397323E-2,-1.3099614E-1,1.6307838E0,2.0383429E-2,-9.0682125E-1,6.8230444E-1,5.296851E-2,-3.611029E-1,3.0349347E-1,-3.0169332E-2,1.51998745E-2,4.5057777E-2,-8.846252E-3,-4.807879E-1,6.078273E-1,4.0865812E-2,7.439298E-1,-1.7566249E-2,1.3316406E-2,4.7607552E-2,-1.5969774E-2,-1.7567052E-3,2.065196E-2,1.0175603E-2,4.4766393E-2],"categories":[],"categories_nodes":[],"categories_segments":[],"categories_sizes":[],"default_left":[0,0,0,0,0,0,0,0,0,0,0,0,0,0,0,0,0,0,0,0,0,0,0,0,0],"id":24,"left_children":[1,3,5,7,9,11,-1,13,15,-1,-1,-1,-1,17,19,21,23,-1,-1,-1,-1,-1,-1,-1,-1],"loss_changes":[1.3167598E2,5.2591545E1,3.5682526E0,4.0240494E1,1.0960117E1,7.395899E0,0E0,1.856344E1,2.4415928E1,0E0,0E0,0E0,0E0,1.4059944E1,2.0756468E1,9.129602E0,2.2639038E1,0E0,0E0,0E0,0E0,0E0,0E0,0E0,0E0],"parents":[2147483647,0,0,1,1,2,2,3,3,4,4,5,5,7,7,8,8,13,13,14,14,15,15,16,16],"right_children":[2,4,6,8,10,12,-1,14,16,-1,-1,-1,-1,18,20,22,24,-1,-1,-1,-1,-1,-1,-1,-1],"split_conditions":[5.5E0,5E0,2E0,1.6726123E2,1.2E0,1.3238859E3,5.296851E-2,1.9543875E3,1.8E0,-3.0169332E-2,1.51998745E-2,4.5057777E-2,-8.846252E-3,2.6E0,2.5E-1,5.203831E2,2E0,-1.7566249E-2,1.3316406E-2,4.7607552E-2,-1.5969774E-2,-1.7567052E-3,2.065196E-2,1.0175603E-2,4.4766393E-2],"split_indices":[25,30,30,41,21,0,0,1,12,0,0,0,0,12,26,41,9,0,0,0,0,0,0,0,0],"split_type":[0,0,0,0,0,0,0,0,0,0,0,0,0,0,0,0,0,0,0,0,0,0,0,0,0],"sum_hessian":[4.887618E2,4.428695E2,4.5892303E1,3.7084018E2,7.202935E1,6.9277744E0,3.8964527E1,1.5710374E2,2.1373642E2,6.792282E1,4.106527E0,3.7538562E0,3.173918E0,1.4073909E2,1.6364662E1,1.352915E2,7.844491E1,1.2723265E2,1.3506439E1,8.829306E0,7.5353575E0,1.174028E2,1.78887E1,5.228544E1,2.6159472E1],"tree_param":{"num_deleted":"0","num_feature":"62","num_nodes":"25","size_leaf_vector":"1"}},{"base_weights":[3.311771E-2,-1.3201591E-1,1.5174006E0,1.1722915E-2,-9.062558E-1,1.7576256E-1,5.1729724E-2,-3.521625E-1,2.7390575E-1,-2.962896E-2,1.3110079E-2,-9.881068E-3,2.2343758E-2,-4.5857367E-1,4.9222255E-1,2.2603822E-1,7.485021E-2,1.8423249E-3,-1.8241076E-2,3.4364857E-2,-1.3802766E-2,-8.640556E-3,1.1673051E-2],"categories":[],"categories_nodes":[],"categories_segments":[],"categories_sizes":[],"default_left":[0,0,0,0,0,0,0,0,0,0,0,0,0,0,0,0,0,0,0,0,0,0,0],"id":25,"left_children":[1,3,5,7,9,11,-1,13,15,-1,-1,-1,-1,17,19,21,-1,-1,-1,-1,-1,-1,-1],"loss_changes":[1.2032481E2,4.9324726E1,1.2396355E1,3.5432217E1,8.28344E0,2.7542768E0,0E0,1.412845E1,2.113304E1,0E0,0E0,0E0,0E0,1.1084087E1,1.1628925E1,1.806879E1,0E0,0E0,0E0,0E0,0E0,0E0,0E0],"parents":[2147483647,0,0,1,1,2,2,3,3,4,4,5,5,7,7,8,8,13,13,14,14,15,15],"right_children":[2,4,6,8,10,12,-1,14,16,-1,-1,-1,-1,18,20,22,-1,-1,-1,-1,-1,-1,-1],"split_conditions":[5.4E0,5E0,2E0,1.6726123E2,1.2E0,6.2E0,5.1729724E-2,1.9543875E3,1.3855776E0,-2.962896E-2,1.3110079E-2,-9.881068E-3,2.2343758E-2,1.4100669E3,2.02712E3,2.6666668E-1,7.485021E-2,1.8423249E-3,-1.8241076E-2,3.4364857E-2,-1.3802766E-2,-8.640556E-3,1.1673051E-2],"split_indices":[25,30,30,41,21,25,0,1,54,0,0,0,0,1,1,29,0,0,0,0,0,0,0],"split_type":[0,0,0,0,0,0,0,0,0,0,0,0,0,0,0,0,0,0,0,0,0,0,0],"sum_hessian":[4.8626782E2,4.3810117E2,4.8166668E1,3.6978842E2,6.831273E1,7.006181E0,4.116049E1,1.5391644E2,2.1587198E2,6.5011246E1,3.3014836E0,3.4691107E0,3.5370698E0,1.3762209E2,1.6294361E1,2.126167E2,3.2552752E0,3.0110462E1,1.0751162E2,9.855695E0,6.438667E0,5.0279205E1,1.6233751E2],"tree_param":{"num_deleted":"0","num_feature":"62","num_nodes":"23","size_leaf_vector":"1"}},{"base_weights":[1.6891957E-3,-2.5270203E-1,1.2326736E0,-3.9353034E-1,3.9773202E-1,-1.672624E-1,1.3727375E0,-8.7670654E-1,-2.5663868E-1,1.3987916E0,2.593094E-1,-1.7570404E-2,8.6298855E-3,-1.0180277E-2,1.4628206E0,-9.9296814E-1,1.6729292E-2,-3.6948314E-1,2.1855761E-1,5.825678E-2,1.1206713E-2,-2.4495615E-1,6.8886906E-1,3.7624255E-1,1.61615E0,-3.0591566E-2,-5.921143E-3,-1.3638116E-2,4.628566E-3,-9.810157E-3,1.37675805E-2,-1.6914241E-2,2.4023168E-2,2.8555887E-2,-3.2181973E-3,-6.2747584E-3,3.129049E-2,5.1921465E-2,1.6184656E-2],"categories":[],"categories_nodes":[],"categories_segments":[],"categories_sizes":[],"default_left":[0,0,0,0,0,0,0,0,0,0,0,0,0,0,0,0,0,0,0,0,0,0,0,0,0,0,0,0,0,0,0,0,0,0,0,0,0,0,0],"id":26,"left_children":[1,3,5,7,9,11,13,15,17,19,21,-1,-1,-1,23,25,-1,27,29,-1,-1,31,33,35,37,-1,-1,-1,-1,-1,-1,-1,-1,-1,-1,-1,-1,-1,-1],"loss_changes":[1.5382526E2,3.729445E1,1.7341553E1,2.1328594E1,8.789248E0,1.8829905E0,1.2929428E1,1.2880131E1,1.4249485E1,2.617879E0,1.4458679E1,0E0,0E0,0E0,1.0656143E1,6.3422394E-1,0E0,9.74366E0,6.800574E0,0E0,0E0,1.0361707E1,8.034527E0,4.8533707E0,5.798706E0,0E0,0E0,0E0,0E0,0E0,0E0,0E0,0E0,0E0,0E0,0E0,0E0,0E0,0E0],"parents":[2147483647,0,0,1,1,2,2,3,3,4,4,5,5,6,6,7,7,8,8,9,9,10,10,14,14,15,15,17,17,18,18,21,21,22,22,23,23,24,24],"right_children":[2,4,6,8,10,12,14,16,18,20,22,-1,-1,-1,24,26,-1,28,30,-1,-1,32,34,36,38,-1,-1,-1,-1,-1,-1,-1,-1,-1,-1,-1,-1,-1,-1],"split_conditions":[4.4E0,3.9915634E2,1.6E0,2E0,2.1766E2,2.5345775E2,8.8E2,1.5811388E0,3.6E0,2.5E-1,3.3333334E-1,-1.7570404E-2,8.6298855E-3,-1.0180277E-2,2.6666667E0,1.0897248E0,1.6729292E-2,1.53E2,4.3589744E-1,5.825678E-2,1.1206713E-2,1.14E2,1E0,1.9349E2,8.0163765E-1,-3.0591566E-2,-5.921143E-3,-1.3638116E-2,4.628566E-3,-9.810157E-3,1.37675805E-2,-1.6914241E-2,2.4023168E-2,2.8555887E-2,-3.2181973E-3,-6.2747584E-3,3.129049E-2,5.1921465E-2,1.6184656E-2],"split_indices":[28,41,12,34,42,41,3,22,25,23,23,0,0,0,25,22,0,7,29,0,0,8,33,42,53,0,0,0,0,0,0,0,0,0,0,0,0,0,0],"split_type":[0,0,0,0,0,0,0,0,0,0,0,0,0,0,0,0,0,0,0,0,0,0,0,0,0,0,0,0,0,0,0,0,0,0,0,0,0,0,0],"sum_hessian":[4.8765704E2,4.04461E2,8.319605E1,3.3343192E2,7.1029106E1,7.2243924E0,7.597166E1,7.16119E1,2.6182E2,7.0836244E0,6.3945477E1,4.185988E0,3.0384042E0,3.3817697E0,7.258989E1,6.6849686E1,4.762208E0,2.1260704E2,4.921296E1,3.7273388E0,3.3562858E0,2.9077177E1,3.48683E1,9.806971E0,6.278292E1,6.3794525E1,3.0551624E0,1.8382004E2,2.8787008E1,1.4304514E1,3.4908443E1,2.3002495E1,6.074682E0,2.653522E1,8.333082E0,5.188289E0,4.618681E0,5.5776016E1,7.006903E0],"tree_param":{"num_deleted":"0","num_feature":"62","num_nodes":"39","size_leaf_vector":"1"}},{"base_weights":[4.783836E-3,-1.7070231E-1,1.3536241E0,-3.055167E-2,-9.1399485E-1,1.4778093E-1,1.5522571E0,-2.2099057E-1,3.6242747E-1,-2.9520486E-2,7.6869964E-3,2.948599E-2,-1.9003136E-2,6.7485785E-3,1.6452273E0,-3.3722582E-1,3.001574E-1,4.342982E-2,7.8105026E-1,5.1437188E-2,1.6387371E-2,6.4357785E-3,-1.2749476E-2,4.6249344E-3,4.4307645E-2,-7.764167E-3,1.2668737E-2,5.3291257E-2,1.7426554E-2],"categories":[],"categories_nodes":[],"categories_segments":[],"categories_sizes":[],"default_left":[0,0,0,0,0,0,0,0,0,0,0,0,0,0,0,0,0,0,0,0,0,0,0,0,0,0,0,0,0],"id":27,"left_children":[1,3,5,7,9,11,13,15,17,-1,-1,-1,-1,-1,19,21,23,25,27,-1,-1,-1,-1,-1,-1,-1,-1,-1,-1],"loss_changes":[1.1548564E2,4.421187E1,1.2383545E1,2.7154814E1,6.1462173E0,6.9366565E0,4.5929947E0,1.5009251E1,1.530092E1,0E0,0E0,0E0,0E0,0E0,1.2983017E0,9.988367E0,6.61376E0,8.053015E0,7.802809E0,0E0,0E0,0E0,0E0,0E0,0E0,0E0,0E0,0E0,0E0],"parents":[2147483647,0,0,1,1,2,2,3,3,4,4,5,5,6,6,7,7,8,8,14,14,15,15,16,16,17,17,18,18],"right_children":[2,4,6,8,10,12,14,16,18,-1,-1,-1,-1,-1,20,22,24,26,28,-1,-1,-1,-1,-1,-1,-1,-1,-1,-1],"split_conditions":[5.2E0,5E0,3.25E0,1.9146898E2,1.2E0,2E-1,-2.5E0,3.6666667E0,3E0,-2.9520486E-2,7.6869964E-3,2.948599E-2,-1.9003136E-2,6.7485785E-3,2.0396078E0,2.6E1,1.02E2,1.8E0,2.2314803E2,5.1437188E-2,1.6387371E-2,6.4357785E-3,-1.2749476E-2,4.6249344E-3,4.4307645E-2,-7.764167E-3,1.2668737E-2,5.3291257E-2,1.7426554E-2],"split_indices":[28,30,25,2,21,16,13,25,25,0,0,0,0,0,19,7,8,12,2,0,0,0,0,0,0,0,0,0,0],"split_type":[0,0,0,0,0,0,0,0,0,0,0,0,0,0,0,0,0,0,0,0,0,0,0,0,0,0,0,0,0],"sum_hessian":[4.834181E2,4.2821008E2,5.520802E1,3.6172015E2,6.648993E1,8.410645E0,4.6797375E1,2.4479953E2,1.16920616E2,6.328936E1,3.2005665E0,4.2497606E0,4.160884E0,3.6392167E0,4.3158157E1,2.0123012E2,4.3569416E1,6.766039E1,4.9260227E1,3.964166E1,3.516499E0,2.663378E1,1.7459633E2,4.014483E1,3.4245882E0,3.707838E1,3.0582008E1,6.511109E0,4.274912E1],"tree_param":{"num_deleted":"0","num_feature":"62","num_nodes":"29","size_leaf_vector":"1"}},{"base_weights":[9.279494E-3,-2.2094506E-1,1.1284263E0,-9.2755504E-2,-9.305738E-1,1.2765703E0,-3.0222616E-1,-4.405914E-1,3.6203146E-2,-0E0,-2.931398E-2,2.7629945E-1,1.4480144E0,1.4910206E-3,-2.1928491E-2,2.6452327E-1,-6.036995E-1,-1.1086444E-1,3.943283E-1,2.9709851E-2,-1.547071E-1,1.0265721E0,1.7826056E0,-1.8407706E-2,2.8097944E-2,-2.0670453E-2,7.4703377E-3,1.4605646E-2,-7.383566E-3,2.3118057E-3,2.523361E-2,6.2266598E-3,-1.4884368E-2,3.7940726E-2,-8.55726E-3,9.1543734E-2,4.6100438E-2],"categories":[],"categories_nodes":[],"categories_segments":[],"categories_sizes":[],"default_left":[0,0,0,0,0,0,0,0,0,0,0,0,0,0,0,0,0,0,0,0,0,0,0,0,0,0,0,0,0,0,0,0,0,0,0,0,0],"id":28,"left_children":[1,3,5,7,9,11,13,15,17,-1,-1,19,21,-1,-1,23,25,27,29,-1,31,33,35,-1,-1,-1,-1,-1,-1,-1,-1,-1,-1,-1,-1,-1,-1],"loss_changes":[1.2428913E2,3.563286E1,1.8331017E1,1.542689E1,2.4340248E0,1.1625351E1,1.6173446E0,1.100548E1,1.3206457E1,0E0,0E0,4.4666786E0,5.7184906E0,0E0,0E0,1.1098544E1,5.9401684E0,1.4150898E1,9.849478E0,0E0,1.2766079E0,1.0570808E1,3.4308014E0,0E0,0E0,0E0,0E0,0E0,0E0,0E0,0E0,0E0,0E0,0E0,0E0,0E0,0E0],"parents":[2147483647,0,0,1,1,2,2,3,3,4,4,5,5,6,6,7,7,8,8,11,11,12,12,15,15,16,16,17,17,18,18,20,20,21,21,22,22],"right_children":[2,4,6,8,10,12,14,16,18,-1,-1,20,22,-1,-1,24,26,28,30,-1,32,34,36,-1,-1,-1,-1,-1,-1,-1,-1,-1,-1,-1,-1,-1,-1],"split_conditions":[4.4E0,5E0,2.5E-1,2.6666668E-1,-2.2121913E0,1.04758E3,1.6881508E3,2.5E1,1.833686E3,-0E0,-2.931398E-2,6.6E0,7.2E0,1.4910206E-3,-2.1928491E-2,8E-1,2.3323808E0,1.3066337E3,8.2E1,2.9709851E-2,1.1208931E3,1.7826809E0,5.5E0,-1.8407706E-2,2.8097944E-2,-2.0670453E-2,7.4703377E-3,1.4605646E-2,-7.383566E-3,2.3118057E-3,2.523361E-2,6.2266598E-3,-1.4884368E-2,3.7940726E-2,-8.55726E-3,9.1543734E-2,4.6100438E-2],"split_indices":[28,30,26,29,58,3,1,7,0,0,0,45,45,0,0,45,19,0,7,0,1,46,28,0,0,0,0,0,0,0,0,0,0,0,0,0,0],"split_type":[0,0,0,0,0,0,0,0,0,0,0,0,0,0,0,0,0,0,0,0,0,0,0,0,0,0,0,0,0,0,0,0,0,0,0,0,0],"sum_hessian":[4.7865704E2,3.9728552E2,8.137152E1,3.3805374E2,5.923178E1,7.415044E1,7.2210846E0,9.182848E1,2.4622525E2,3.0538697E0,5.617791E1,1.16584635E1,6.2491974E1,3.8107605E0,3.4103239E0,1.6558605E1,7.526988E1,1.7404588E2,7.217937E1,4.336592E0,7.3218713E0,3.011828E1,3.2373695E1,6.89407E0,9.664535E0,6.913146E1,6.1384172E0,3.0954556E1,1.4309132E2,4.3547646E1,2.8631723E1,3.032328E0,4.289543E0,2.5844156E1,4.274123E0,3.0736833E0,2.930001E1],"tree_param":{"num_deleted":"0","num_feature":"62","num_nodes":"37","size_leaf_vector":"1"}},{"base_weights":[2.8977754E-2,-1.833563E-1,9.908319E-1,-4.6471097E-2,-9.443634E-1,4.7913936E-1,1.47711E0,-2.5504375E-1,3.4620303E-1,-2.9769357E-2,-1.6542853E-4,8.1382364E-1,-2.696676E-2,4.8477206E-2,1.5777277E-2,-3.8120988E-1,3.6164168E-1,7.7025706E-1,1.1275317E-1,1.3016418E0,-0E0,-5.499321E-1,2.6907478E-2,1.1909575E-2,-1.3793014E-2,3.5040945E-2,-0E0,3.4818824E-3,3.9989397E-2,-3.1820798E-4,2.5844794E-2,3.9600385E-3,5.5436596E-2,-1.717363E-2,3.0690854E-2,-2.3742592E-2,-0E0],"categories":[],"categories_nodes":[],"categories_segments":[],"categories_sizes":[],"default_left":[0,0,0,0,0,0,0,0,0,0,0,0,0,0,0,0,0,0,0,0,0,0,0,0,0,0,0,0,0,0,0,0,0,0,0,0,0],"id":29,"left_children":[1,3,5,7,9,11,13,15,17,-1,-1,19,21,-1,-1,23,25,27,29,31,33,35,-1,-1,-1,-1,-1,-1,-1,-1,-1,-1,-1,-1,-1,-1,-1],"loss_changes":[9.788121E1,4.015625E1,1.9894806E1,2.7292347E1,2.149273E0,7.909336E0,3.820778E0,1.7163776E1,1.085721E1,0E0,0E0,1.0886555E1,9.008958E0,0E0,0E0,1.1384005E1,1.0562936E1,1.3810381E1,7.4642525E0,9.679274E0,7.108672E0,1.9224834E0,0E0,0E0,0E0,0E0,0E0,0E0,0E0,0E0,0E0,0E0,0E0,0E0,0E0,0E0,0E0],"parents":[2147483647,0,0,1,1,2,2,3,3,4,4,5,5,6,6,7,7,8,8,11,11,12,12,15,15,16,16,17,17,18,18,19,19,20,20,21,21],"right_children":[2,4,6,8,10,12,14,16,18,-1,-1,20,22,-1,-1,24,26,28,30,32,34,36,-1,-1,-1,-1,-1,-1,-1,-1,-1,-1,-1,-1,-1,-1,-1],"split_conditions":[4.2E0,5E0,7.5825846E-1,1.856318E2,3E0,1.20133E3,6.808116E-1,1.9390719E0,9.86E2,-2.9769357E-2,-1.6542853E-4,7.2E0,3.3468732E2,4.8477206E-2,1.5777277E-2,6.8369746E-1,4.2E1,6E-1,1.7888544E0,1.8E1,1.06E3,1.299038E0,2.6907478E-2,1.1909575E-2,-1.3793014E-2,3.5040945E-2,-0E0,3.4818824E-3,3.9989397E-2,-3.1820798E-4,2.5844794E-2,3.9600385E-3,5.5436596E-2,-1.717363E-2,3.0690854E-2,-2.3742592E-2,-0E0],"split_indices":[25,30,54,2,9,3,53,19,4,0,0,45,2,0,0,32,7,15,17,43,3,20,0,0,0,0,0,0,0,0,0,0,0,0,0,0,0],"split_type":[0,0,0,0,0,0,0,0,0,0,0,0,0,0,0,0,0,0,0,0,0,0,0,0,0,0,0,0,0,0,0,0,0,0,0,0,0],"sum_hessian":[4.7539285E2,3.8966248E2,8.573038E1,3.3171393E2,5.794854E1,4.3241978E1,4.24884E1,2.177028E2,1.1401113E2,5.457195E1,3.3765914E0,2.6257807E1,1.6984169E1,3.6009518E1,6.47888E0,1.8171815E2,3.598464E1,3.890331E1,7.510783E1,1.6080875E1,1.017693E1,1.1449253E1,5.5349154E0,1.5706804E1,1.6601135E2,1.0287828E1,2.569681E1,1.8958206E1,1.99451E1,6.4756744E1,1.0351077E1,5.805948E0,1.0274928E1,6.8393087E0,3.337622E0,8.08038E0,3.3688731E0],"tree_param":{"num_deleted":"0","num_feature":"62","num_nodes":"37","size_leaf_vector":"1"}},{"base_weights":[1.7248802E-2,-1.8330732E-1,1.1162934E0,-5.7741057E-2,-9.097338E-1,1.2540059E0,-1.5917039E-2,-3.9272824E-1,1.7592658E-1,-2.9172467E-2,1.9335422E-4,-9.548453E-3,1.3488264E0,-4.5321804E-1,6.508661E-1,8.6801924E-2,9.369839E-1,-0E0,1.45623E0,-6.4187543E-3,-1.9894179E-2,-9.724017E-3,5.3070623E-2,-2.1589652E-3,1.4041832E-2,3.459516E-2,-0E0,1.1011923E-2,4.7449663E-2],"categories":[],"categories_nodes":[],"categories_segments":[],"categories_sizes":[],"default_left":[0,0,0,0,0,0,0,0,0,0,0,0,0,0,0,0,0,0,0,0,0,0,0,0,0,0,0,0,0],"id":30,"left_children":[1,3,5,7,9,11,-1,13,15,-1,-1,-1,17,19,21,23,25,-1,27,-1,-1,-1,-1,-1,-1,-1,-1,-1,-1],"loss_changes":[1.061484E2,3.6419846E1,1.789434E1,2.7346857E1,3.880764E0,1.1262939E1,0E0,9.274801E0,1.326305E1,0E0,0E0,0E0,9.333015E0,6.299429E0,9.839657E0,1.1403298E1,4.664858E0,0E0,6.7541046E0,0E0,0E0,0E0,0E0,0E0,0E0,0E0,0E0,0E0,0E0],"parents":[2147483647,0,0,1,1,2,2,3,3,4,4,5,5,7,7,8,8,12,12,13,13,14,14,15,15,16,16,18,18],"right_children":[2,4,6,8,10,12,-1,14,16,-1,-1,-1,18,20,22,24,26,-1,28,-1,-1,-1,-1,-1,-1,-1,-1,-1,-1],"split_conditions":[4.5E0,5E0,2.5E-1,1.6726123E2,1.118034E0,4.499218E1,-1.5917039E-2,1.65021E3,6.2913153E2,-2.9172467E-2,1.9335422E-4,-9.548453E-3,2.25E0,7.937E1,7E0,3.25E0,3.52E0,-0E0,-4.6203217E-1,-6.4187543E-3,-1.9894179E-2,-9.724017E-3,5.3070623E-2,-2.1589652E-3,1.4041832E-2,3.459516E-2,-0E0,1.1011923E-2,4.7449663E-2],"split_indices":[28,30,26,41,21,41,0,4,41,0,0,0,25,42,7,25,45,0,56,0,0,0,0,0,0,0,0,0,0],"split_type":[0,0,0,0,0,0,0,0,0,0,0,0,0,0,0,0,0,0,0,0,0,0,0,0,0,0,0,0,0],"sum_hessian":[4.7752838E2,4.0415546E2,7.337292E1,3.4609848E2,5.8056976E1,6.8211174E1,5.161743E0,1.428159E2,2.0328258E2,5.4792618E1,3.2643583E0,3.4457018E0,6.476547E1,1.3597899E2,6.8369174E0,1.8355782E2,1.9724752E1,4.9421496E0,5.9823322E1,6.560557E1,7.037342E1,3.792721E0,3.0441964E0,1.2923882E2,5.431901E1,1.6190418E1,3.534335E0,6.9948277E0,5.2828495E1],"tree_param":{"num_deleted":"0","num_feature":"62","num_nodes":"29","size_leaf_vector":"1"}},{"base_weights":[1.2592893E-2,-2.0590198E-1,9.9069494E-1,-5.9965277E-1,-3.8978849E-3,5.183551E-1,1.4385018E0,-7.087663E-1,2.1523342E-1,-1.4868551E-1,4.1085842E-1,-2.3205303E-2,6.851961E-1,4.6665873E-2,1.4379893E-2,-1.0817469E-1,-7.852338E-1,6.395588E-1,-1.4576771E-2,-3.74681E-1,1.683952E-1,1.4936689E0,2.2737579E-1,9.6324766E-1,5.743732E-2,-1.9111628E-2,2.5522243E-2,-2.481942E-2,-3.8149036E-3,-0E0,4.4655714E-2,2.9835893E-2,-1.2899915E-2,-3.7965135E-4,1.8974284E-2,6.1728306E-2,7.026338E-3,-8.731607E-4,2.9662438E-2,4.283327E-2,8.598538E-3,2.2315443E-2,-1.2997797E-2],"categories":[],"categories_nodes":[],"categories_segments":[],"categories_sizes":[],"default_left":[0,0,0,0,0,0,0,0,0,0,0,0,0,0,0,0,0,0,0,0,0,0,0,0,0,0,0,0,0,0,0,0,0,0,0,0,0,0,0,0,0,0,0],"id":31,"left_children":[1,3,5,7,9,11,13,15,17,19,21,-1,23,-1,-1,25,27,29,-1,31,33,35,37,39,41,-1,-1,-1,-1,-1,-1,-1,-1,-1,-1,-1,-1,-1,-1,-1,-1,-1,-1],"loss_changes":[1.02690315E2,3.0787853E1,1.6851418E1,1.2109257E1,1.5555603E1,1.0151813E1,3.1730347E0,4.8379936E0,5.081608E0,1.4103923E1,1.2052057E1,0E0,6.519266E0,0E0,0E0,8.094774E0,2.2647285E0,5.4631653E0,0E0,8.839672E0,7.0992155E0,4.828848E0,1.1954153E1,7.381855E0,5.21833E0,0E0,0E0,0E0,0E0,0E0,0E0,0E0,0E0,0E0,0E0,0E0,0E0,0E0,0E0,0E0,0E0,0E0,0E0],"parents":[2147483647,0,0,1,1,2,2,3,3,4,4,5,5,6,6,7,7,8,8,9,9,10,10,12,12,15,15,16,16,17,17,19,19,20,20,21,21,22,22,23,23,24,24],"right_children":[2,4,6,8,10,12,14,16,18,20,22,-1,24,-1,-1,26,28,30,-1,32,34,36,38,40,42,-1,-1,-1,-1,-1,-1,-1,-1,-1,-1,-1,-1,-1,-1,-1,-1,-1,-1],"split_conditions":[4.2E0,5E-1,7.5825846E-1,1.9595917E0,3.2E0,2E0,6.808116E-1,-2E0,1.25E-1,4.8E1,3.506E1,-2.3205303E-2,1.20133E3,4.6665873E-2,1.4379893E-2,1.4E1,1.6583124E0,1.50037E3,-1.4576771E-2,-3E0,1.1661904E0,1E0,3.27E2,1.9202864E0,1.2E0,-1.9111628E-2,2.5522243E-2,-2.481942E-2,-3.8149036E-3,-0E0,4.4655714E-2,2.9835893E-2,-1.2899915E-2,-3.7965135E-4,1.8974284E-2,6.1728306E-2,7.026338E-3,-8.731607E-4,2.9662438E-2,4.283327E-2,8.598538E-3,2.2315443E-2,-1.2997797E-2],"split_indices":[25,29,54,19,25,34,53,31,44,43,42,0,3,0,0,34,20,4,0,14,18,33,5,18,10,0,0,0,0,0,0,0,0,0,0,0,0,0,0,0,0,0,0],"split_type":[0,0,0,0,0,0,0,0,0,0,0,0,0,0,0,0,0,0,0,0,0,0,0,0,0,0,0,0,0,0,0,0,0,0,0,0,0,0,0,0,0,0,0],"sum_hessian":[4.7672122E2,3.899009E2,8.6820335E1,1.3069794E2,2.5920297E2,4.384616E1,4.297417E1,1.15920006E2,1.4777921E1,1.9350069E2,6.570228E1,4.2562847E0,3.9589878E1,3.728237E1,5.6918E0,1.4103286E1,1.0181673E2,9.705217E0,5.0727034E0,1.1379202E2,7.970867E1,8.090576E0,5.7611702E1,2.6514826E1,1.307505E1,9.642272E0,4.4610143E0,9.474151E1,7.0752115E0,6.2632966E0,3.4419205E0,3.4083781E0,1.10383644E2,5.726386E1,2.2444813E1,4.8763795E0,3.2141967E0,4.3322758E1,1.4288943E1,1.4625126E1,1.1889701E1,5.6602626E0,7.4147882E0],"tree_param":{"num_deleted":"0","num_feature":"62","num_nodes":"43","size_leaf_vector":"1"}},{"base_weights":[2.3028165E-2,-1.7138644E-1,9.029398E-1,-8.4754777E-1,-3.650293E-2,4.292134E-1,1.3857402E0,-3.0112948E-2,-2.3361926E-1,-1.725783E-1,4.8798358E-1,7.5008166E-1,-1.5398525E-1,4.603025E-2,1.13567095E-2,-5.7159173E-1,1.4352854E-2,-4.625873E-1,6.7436196E-2,2.2405644E-1,9.913062E-1,1.1747712E0,1.3777968E-1,2.9428082E-2,-5.225442E-1,-5.459156E-3,-2.43281E-2,-1.587209E-2,3.2523222E-2,7.391375E-3,-1.0257117E-2,4.696644E-4,2.6803432E-2,4.49169E-2,-1.0176812E-3,5.276527E-2,1.1620199E-2,-1.0541615E-2,3.0428631E-2,-2.565516E-2,-2.9153933E-3],"categories":[],"categories_nodes":[],"categories_segments":[],"categories_sizes":[],"default_left":[0,0,0,0,0,0,0,0,0,0,0,0,0,0,0,0,0,0,0,0,0,0,0,0,0,0,0,0,0,0,0,0,0,0,0,0,0,0,0,0,0],"id":32,"left_children":[1,3,5,7,9,11,13,-1,15,17,19,21,23,-1,-1,25,-1,27,29,31,33,35,37,-1,39,-1,-1,-1,-1,-1,-1,-1,-1,-1,-1,-1,-1,-1,-1,-1,-1],"loss_changes":[8.10796E1,3.4738228E1,1.8131691E1,5.241253E0,2.3016672E1,8.890698E0,4.680496E0,0E0,3.8918855E0,1.8213509E1,7.957755E0,6.9690247E0,7.1242943E0,0E0,0E0,3.8146853E-1,0E0,1.2437326E1,1.038679E1,5.856389E0,1.20959015E1,6.0950317E0,6.6386867E0,0E0,1.3268275E0,0E0,0E0,0E0,0E0,0E0,0E0,0E0,0E0,0E0,0E0,0E0,0E0,0E0,0E0,0E0,0E0],"parents":[2147483647,0,0,1,1,2,2,3,3,4,4,5,5,6,6,8,8,9,9,10,10,11,11,12,12,15,15,17,17,18,18,19,19,20,20,21,21,22,22,24,24],"right_children":[2,4,6,8,10,12,14,-1,16,18,20,22,24,-1,-1,26,-1,28,30,32,34,36,38,-1,40,-1,-1,-1,-1,-1,-1,-1,-1,-1,-1,-1,-1,-1,-1,-1,-1],"split_conditions":[4.2E0,4E-1,7.5825846E-1,1E0,2.2E0,1.5878942E3,6.808116E-1,-3.0112948E-2,1.4013826E2,1.7067786E2,3.2E0,6E0,1.3621711E3,4.603025E-2,1.13567095E-2,8E-2,1.4352854E-2,2.0713684E3,1E0,4E0,1.4142135E0,4E-2,1.14526E3,2.9428082E-2,2E-1,-5.459156E-3,-2.43281E-2,-1.587209E-2,3.2523222E-2,7.391375E-3,-1.0257117E-2,4.696644E-4,2.6803432E-2,4.49169E-2,-1.0176812E-3,5.276527E-2,1.1620199E-2,-1.0541615E-2,3.0428631E-2,-2.565516E-2,-2.9153933E-3],"split_indices":[25,21,54,34,12,1,53,0,2,41,25,45,0,0,0,45,0,0,33,12,18,44,3,0,27,0,0,0,0,0,0,0,0,0,0,0,0,0,0,0,0],"split_type":[0,0,0,0,0,0,0,0,0,0,0,0,0,0,0,0,0,0,0,0,0,0,0,0,0,0,0,0,0,0,0,0,0,0,0,0,0,0,0,0,0],"sum_hessian":[4.699193E2,3.8507483E2,8.4844475E1,6.2545956E1,3.2252887E2,4.430086E1,4.0543613E1,4.8703655E1,1.3842303E1,2.5737778E2,6.515109E1,2.894622E1,1.5354641E1,3.444213E1,6.1014833E0,9.996795E0,3.8455086E0,1.1707373E2,1.4030405E2,4.4339405E1,2.081169E1,1.6067017E1,1.2879204E1,3.0241258E0,1.2330516E1,5.268974E0,4.7278214E0,1.13189644E2,3.8840835E0,9.875354E1,4.155051E1,3.51626E1,9.176804E0,1.3953372E1,6.8583183E0,8.151833E0,7.915184E0,8.284436E0,4.594768E0,5.692875E0,6.6376405E0],"tree_param":{"num_deleted":"0","num_feature":"62","num_nodes":"41","size_leaf_vector":"1"}},{"base_weights":[6.1667676E-4,-2.3711339E-1,6.735259E-1,-1.2684405E-1,-8.7478364E-1,3.40351E-1,1.3399904E0,-1.6124907E-1,5.637879E-2,-3.0194327E-2,-0E0,5.319494E-1,-4.8520368E-1,1.5124166E-2,1.4712163E0,-2.57389E-1,5.576717E-1,1.6340699E-2,-1.3019548E-2,1.3226846E0,3.1922656E-1,2.2166914E-3,-7.0978266E-1,4.8735883E-2,1.5522544E-2,-8.826846E-3,4.6345368E-2,3.2702807E-2,2.172435E-3,1.2643015E-3,5.262783E-2,3.2275926E-2,3.4972948E-3,-5.3066392E-3,-2.6443271E-2],"categories":[],"categories_nodes":[],"categories_segments":[],"categories_sizes":[],"default_left":[0,0,0,0,0,0,0,0,0,0,0,0,0,0,0,0,0,0,0,0,0,0,0,0,0,0,0,0,0,0,0,0,0,0,0],"id":33,"left_children":[1,3,5,7,9,11,13,15,-1,-1,17,19,21,-1,23,25,27,-1,-1,29,31,-1,33,-1,-1,-1,-1,-1,-1,-1,-1,-1,-1,-1,-1],"loss_changes":[7.557914E1,2.3827229E1,2.6133793E1,2.0023298E1,6.271782E0,1.3599748E1,2.6944275E0,2.0334377E1,0E0,0E0,1.9743898E0,1.0414885E1,2.3657844E0,0E0,3.03405E0,1.7149927E1,8.231589E0,0E0,0E0,6.696533E0,7.9311657E0,0E0,4.190402E-1,0E0,0E0,0E0,0E0,0E0,0E0,0E0,0E0,0E0,0E0,0E0,0E0],"parents":[2147483647,0,0,1,1,2,2,3,3,4,4,5,5,6,6,7,7,10,10,11,11,12,12,14,14,15,15,16,16,19,19,20,20,22,22],"right_children":[2,4,6,8,10,12,14,16,-1,-1,18,20,22,-1,24,26,28,-1,-1,30,32,-1,34,-1,-1,-1,-1,-1,-1,-1,-1,-1,-1,-1,-1],"split_conditions":[2.2E0,-8.9646083E-1,8.485672E-1,3.0595946E0,1.5988516E0,1.5764624E3,-1.580083E0,9.4E1,5.637879E-2,-3.0194327E-2,-4.3336105E-1,4E-1,2.25E0,1.5124166E-2,3.0790073E-1,3.5E0,3.3333334E-1,1.6340699E-2,-1.3019548E-2,1.3066337E3,2E-1,2.2166914E-3,1E0,4.8735883E-2,1.5522544E-2,-8.826846E-3,4.6345368E-2,3.2702807E-2,2.172435E-3,1.2643015E-3,5.262783E-2,3.2275926E-2,3.4972948E-3,-5.3066392E-3,-2.6443271E-2],"split_indices":[12,60,54,57,54,1,61,43,0,0,59,27,12,0,53,31,26,0,0,0,24,0,30,0,0,0,0,0,0,0,0,0,0,0,0],"split_type":[0,0,0,0,0,0,0,0,0,0,0,0,0,0,0,0,0,0,0,0,0,0,0,0,0,0,0,0,0,0,0,0,0,0,0],"sum_hessian":[4.690936E2,3.4656226E2,1.22531334E2,2.9715897E2,4.940329E1,8.31996E1,3.933174E1,2.932978E2,3.8611662E0,4.326737E1,6.135923E0,6.830773E1,1.4891867E1,6.5110707E0,3.282067E1,2.5988177E2,3.341604E1,3.0800176E0,3.055905E0,1.2876129E1,5.5431602E1,3.8218641E0,1.1070003E1,2.7218185E1,5.6024837E0,2.5576782E2,4.1139364E0,1.4848038E1,1.8568E1,3.8144314E0,9.061697E0,1.0278462E1,4.515314E1,3.9015033E0,7.168499E0],"tree_param":{"num_deleted":"0","num_feature":"62","num_nodes":"35","size_leaf_vector":"1"}},{"base_weights":[-0E0,-1.3672909E-1,1.3274097E0,-7.6599926E-1,6.6850786E-3,1.4063919E0,1.0196277E-2,-3.0230436E-2,-1.8682031E-1,-4.2019406E-1,1.5661575E-1,1.3028767E-2,4.3821037E-2,-6.593075E-1,2.9306677E-1,-5.4443616E-1,4.4295654E-1,1.0226504E-1,1.7868106E0,-2.4723327E-2,-0E0,-5.6298696E-3,3.4168642E-2,-1.8944886E-2,6.003191E-3,-1.0446573E-2,3.65479E-2,-1.6907007E-3,1.4706605E-2,8.6718254E-2,-0E0],"categories":[],"categories_nodes":[],"categories_segments":[],"categories_sizes":[],"default_left":[0,0,0,0,0,0,0,0,0,0,0,0,0,0,0,0,0,0,0,0,0,0,0,0,0,0,0,0,0,0,0],"id":34,"left_children":[1,3,5,7,9,11,-1,-1,13,15,17,-1,-1,19,21,23,25,27,29,-1,-1,-1,-1,-1,-1,-1,-1,-1,-1,-1,-1],"loss_changes":[8.497789E1,3.8705822E1,2.059105E0,1.0338303E1,2.208896E1,5.138931E-1,0E0,0E0,6.0979795E0,9.877195E0,2.1712326E1,0E0,0E0,1.2703066E0,5.8482165E0,5.4686775E0,7.78568E0,1.56793785E1,1.5321377E1,0E0,0E0,0E0,0E0,0E0,0E0,0E0,0E0,0E0,0E0,0E0,0E0],"parents":[2147483647,0,0,1,1,2,2,3,3,4,4,5,5,8,8,9,9,10,10,13,13,14,14,15,15,16,16,17,17,18,18],"right_children":[2,4,6,8,10,12,-1,-1,14,16,18,-1,-1,20,22,24,26,28,30,-1,-1,-1,-1,-1,-1,-1,-1,-1,-1,-1,-1],"split_conditions":[5.6E0,6.324555E-1,1.2247449E0,1E0,1.03123024E2,1.4393357E3,1.0196277E-2,-3.0230436E-2,4.0763454E1,2.1540658E0,1.0256975E0,1.3028767E-2,4.3821037E-2,1.5635E3,1.75E0,2.6E0,1.18186E3,4.0948166E2,2.13E2,-2.4723327E-2,-0E0,-5.6298696E-3,3.4168642E-2,-1.8944886E-2,6.003191E-3,-1.0446573E-2,3.65479E-2,-1.6907007E-3,1.4706605E-2,8.6718254E-2,-0E0],"split_indices":[25,22,17,34,41,1,0,0,2,19,54,0,0,4,12,12,3,41,42,0,0,0,0,0,0,0,0,0,0,0,0],"split_type":[0,0,0,0,0,0,0,0,0,0,0,0,0,0,0,0,0,0,0,0,0,0,0,0,0,0,0,0,0,0,0],"sum_hessian":[4.6634982E2,4.2362744E2,4.2722374E1,7.846877E1,3.4515866E2,3.869696E1,4.0254116E0,5.423447E1,2.4234303E1,8.8382E1,2.5677667E2,3.0106988E0,3.5686264E1,1.2547913E1,1.1686391E1,7.80902E1,1.02918005E1,2.4981721E2,6.9594636E0,9.541569E0,3.0063436E0,7.5708385E0,4.1155524E0,7.065217E1,7.438036E0,5.047226E0,5.244574E0,1.7700981E2,7.2807396E1,3.874983E0,3.0844805E0],"tree_param":{"num_deleted":"0","num_feature":"62","num_nodes":"31","size_leaf_vector":"1"}},{"base_weights":[3.3125605E-3,-1.3973139E-1,1.1924872E0,-1.7288141E-2,-9.178444E-1,1.3874601E0,-0E0,-4.1022533E-1,1.1501232E-1,-2.9532028E-2,6.044762E-4,5.443548E-3,4.3853153E-2,-1.7010812E-2,1.5092497E-2,-5.542296E-1,1.8607354E-1,-1.4376977E-1,2.9576576E-1,-1.8668493E-2,1.4747572E-2,1.4392829E-2,-2.1694168E-2,-9.3818065E-3,2.8248493E-2,2.4163838E-2,4.738902E-3],"categories":[],"categories_nodes":[],"categories_segments":[],"categories_sizes":[],"default_left":[0,0,0,0,0,0,0,0,0,0,0,0,0,0,0,0,0,0,0,0,0,0,0,0,0,0,0],"id":35,"left_children":[1,3,5,7,9,11,13,15,17,-1,-1,-1,-1,-1,-1,19,21,23,25,-1,-1,-1,-1,-1,-1,-1,-1],"loss_changes":[8.0331535E1,3.9381916E1,1.2097145E1,1.9071287E1,4.017769E0,2.8360748E0,2.5744827E0,8.24159E0,1.2817002E1,0E0,0E0,0E0,0E0,0E0,0E0,5.747608E0,5.056342E0,2.0367947E1,1.0720281E1,0E0,0E0,0E0,0E0,0E0,0E0,0E0,0E0],"parents":[2147483647,0,0,1,1,2,2,3,3,4,4,5,5,6,6,7,7,8,8,15,15,16,16,17,17,18,18],"right_children":[2,4,6,8,10,12,14,16,18,-1,-1,-1,-1,-1,-1,20,22,24,26,-1,-1,-1,-1,-1,-1,-1,-1],"split_conditions":[5.2E0,5E0,1.0198039E0,2.6666668E-1,1.118034E0,1.3633914E3,2.1213202E0,1.9595917E0,1.8282738E2,-2.9532028E-2,6.044762E-4,5.443548E-3,4.3853153E-2,-1.7010812E-2,1.5092497E-2,5.330644E2,1.50505E3,1.9103033E3,3.3E1,-1.8668493E-2,1.4747572E-2,1.4392829E-2,-2.1694168E-2,-9.3818065E-3,2.8248493E-2,2.4163838E-2,4.738902E-3],"split_indices":[25,30,20,29,21,1,22,19,41,0,0,0,0,0,0,41,3,1,43,0,0,0,0,0,0,0,0],"split_type":[0,0,0,0,0,0,0,0,0,0,0,0,0,0,0,0,0,0,0,0,0,0,0,0,0,0,0],"sum_hessian":[4.671748E2,4.174254E2,4.9749405E1,3.62109E2,5.5316387E1,4.2772533E1,6.9768724E0,9.163331E1,2.704757E2,5.2102936E1,3.2134526E0,3.0728738E0,3.9699657E1,3.4207938E0,3.5560787E0,7.454096E1,1.7092348E1,1.1017631E2,1.602994E2,7.081589E1,3.7250702E0,1.3691936E1,3.400413E0,9.635042E1,1.382589E1,3.231204E1,1.2798736E2],"tree_param":{"num_deleted":"0","num_feature":"62","num_nodes":"27","size_leaf_vector":"1"}},{"base_weights":[2.6838178E-2,-1.7290457E-1,9.8700774E-1,-1.08848745E-2,-7.281117E-1,1.1086589E0,-1.7008787E-1,-3.3042246E-1,1.9505177E-1,-9.175425E-1,-2.3035242E-1,1.1933855E0,-1.0670209E-2,8.020312E-3,-1.7597672E-2,8.1796414E-1,-4.4061077E-1,1.0432261E-1,8.134315E-1,-2.8626415E-1,-2.967506E-2,-4.3409708E-1,1.7273845E-2,-0E0,1.2523619E0,-1.0953639E-2,5.208397E-2,-5.7073287E-3,-2.011968E-2,2.5262665E-2,5.692928E-4,1.0334881E-2,8.167403E-2,-2.2406185E-2,4.386231E-3,1.9352566E-2,-2.0986293E-2,2.739369E-2,4.38282E-2],"categories":[],"categories_nodes":[],"categories_segments":[],"categories_sizes":[],"default_left":[0,0,0,0,0,0,0,0,0,0,0,0,0,0,0,0,0,0,0,0,0,0,0,0,0,0,0,0,0,0,0,0,0,0,0,0,0,0,0],"id":36,"left_children":[1,3,5,7,9,11,13,15,17,19,21,23,-1,-1,-1,25,27,29,31,33,-1,35,-1,-1,37,-1,-1,-1,-1,-1,-1,-1,-1,-1,-1,-1,-1,-1,-1],"loss_changes":[8.932353E1,3.4117115E1,1.1956093E1,1.9778381E1,7.315403E0,9.919243E0,1.7943429E0,1.5144837E1,9.623995E0,1.8448296E0,4.407716E0,5.3095856E0,0E0,0E0,0E0,1.252153E1,5.720789E0,9.621122E0,1.7523596E1,2.0731483E0,0E0,6.670842E0,0E0,0E0,2.1970139E0,0E0,0E0,0E0,0E0,0E0,0E0,0E0,0E0,0E0,0E0,0E0,0E0,0E0,0E0],"parents":[2147483647,0,0,1,1,2,2,3,3,4,4,5,5,6,6,7,7,8,8,9,9,10,10,11,11,15,15,16,16,17,17,18,18,19,19,21,21,24,24],"right_children":[2,4,6,8,10,12,14,16,18,20,22,24,-1,-1,-1,26,28,30,32,34,-1,36,-1,-1,38,-1,-1,-1,-1,-1,-1,-1,-1,-1,-1,-1,-1,-1,-1],"split_conditions":[4.4E0,3E0,2.2E0,1.6726123E2,1.2E0,1.85E2,1.496663E0,2.4E1,1.8330302E0,1.6798027E3,3.2E2,4.3194016E1,-1.0670209E-2,8.020312E-3,-1.7597672E-2,6E-1,7.937E1,1.9375539E2,1.52E2,7.295927E-1,-2.967506E-2,3.506E1,1.7273845E-2,-0E0,7.5825846E-1,-1.0953639E-2,5.208397E-2,-5.7073287E-3,-2.011968E-2,2.5262665E-2,5.692928E-4,1.0334881E-2,8.167403E-2,-2.2406185E-2,4.386231E-3,1.9352566E-2,-2.0986293E-2,2.739369E-2,4.38282E-2],"split_indices":[28,30,14,41,22,6,19,7,17,1,42,41,0,0,0,45,42,41,6,32,0,42,0,0,54,0,0,0,0,0,0,0,0,0,0,0,0,0,0],"split_type":[0,0,0,0,0,0,0,0,0,0,0,0,0,0,0,0,0,0,0,0,0,0,0,0,0,0,0,0,0,0,0,0,0,0,0,0,0,0,0],"sum_hessian":[4.6173138E2,3.8246658E2,7.926481E1,2.9755478E2,8.491181E1,7.2152985E1,7.1118226E0,1.1732821E2,1.8022656E2,6.0166546E1,2.4745266E1,6.870423E1,3.4487548E0,3.0578988E0,4.053924E0,9.312455E0,1.0801575E2,1.5889119E2,2.1335373E1,7.35148E0,5.2815063E1,2.0616444E1,4.1288233E0,3.0251358E0,6.567909E1,4.094435E0,5.2180195E0,5.3638992E1,5.4376755E1,1.4948157E1,1.4394304E2,1.8285976E1,3.0493972E0,3.7677534E0,3.5837266E0,3.4157486E0,1.7200695E1,2.7967228E1,3.771187E1],"tree_param":{"num_deleted":"0","num_feature":"62","num_nodes":"39","size_leaf_vector":"1"}},{"base_weights":[2.195374E-2,-1.6358796E-1,8.4494865E-1,-7.4835193E-1,-1.6168691E-2,4.5888576E-1,1.2565564E0,-2.9989403E-2,-2.9842663E-1,-1.2138294E-1,4.497461E-1,5.6221373E-2,9.703786E-1,1.3693677E0,9.357203E-3,-2.1100074E-2,1.1393999E-1,-1.6529843E-1,1.1389366E0,-1.0828155E-1,7.7516025E-1,5.1476395E-1,-4.4096294E-1,1.459915E0,1.9488117E-1,1.2491476E-2,4.442924E-2,2.580784E-2,-8.983942E-3,1.4020254E-2,-7.1302024E-3,-7.497584E-3,6.494498E-2,1.6037034E-2,-1.2009257E-2,4.5780204E-2,1.6266352E-2,3.94877E-2,-3.251682E-3,-0E0,-2.3019964E-2,9.948249E-3,5.5553295E-2,2.406945E-2,-9.654738E-3],"categories":[],"categories_nodes":[],"categories_segments":[],"categories_sizes":[],"default_left":[0,0,0,0,0,0,0,0,0,0,0,0,0,0,0,0,0,0,0,0,0,0,0,0,0,0,0,0,0,0,0,0,0,0,0,0,0,0,0,0,0,0,0,0,0],"id":37,"left_children":[1,3,5,7,9,11,13,-1,15,17,19,21,23,25,-1,-1,27,29,31,33,35,37,39,41,43,-1,-1,-1,-1,-1,-1,-1,-1,-1,-1,-1,-1,-1,-1,-1,-1,-1,-1,-1,-1],"loss_changes":[7.0545815E1,3.1913725E1,1.208445E1,7.5046196E0,1.4646964E1,8.927157E0,2.9920158E0,0E0,5.2049837E0,1.3385208E1,1.0367152E1,6.5112796E0,6.3661423E0,2.1509247E0,0E0,0E0,5.036685E0,1.0992768E1,1.2994072E1,3.9942243E0,4.312456E0,8.358334E0,2.1205602E0,3.3903904E0,3.3772E0,0E0,0E0,0E0,0E0,0E0,0E0,0E0,0E0,0E0,0E0,0E0,0E0,0E0,0E0,0E0,0E0,0E0,0E0,0E0,0E0],"parents":[2147483647,0,0,1,1,2,2,3,3,4,4,5,5,6,6,8,8,9,9,10,10,11,11,12,12,13,13,16,16,17,17,18,18,19,19,20,20,21,21,22,22,23,23,24,24],"right_children":[2,4,6,8,10,12,14,-1,16,18,20,22,24,26,-1,-1,28,30,32,34,36,38,40,42,44,-1,-1,-1,-1,-1,-1,-1,-1,-1,-1,-1,-1,-1,-1,-1,-1,-1,-1,-1,-1],"split_conditions":[4.2E0,7.483315E-1,7.5825846E-1,1E0,3.7343948E2,2.7795782E2,1.0195202E0,-2.9989403E-2,4.0763454E1,9.628249E-1,1.356466E0,1.4876277E3,2.6E1,-1.3566753E0,9.357203E-3,-2.1100074E-2,4E-1,6.8369746E-1,8E-1,2.2E0,1.155E3,3E0,7.295927E-1,7.5E1,4.278331E2,1.2491476E-2,4.442924E-2,2.580784E-2,-8.983942E-3,1.4020254E-2,-7.1302024E-3,-7.497584E-3,6.494498E-2,1.6037034E-2,-1.2009257E-2,4.5780204E-2,1.6266352E-2,3.94877E-2,-3.251682E-3,-0E0,-2.3019964E-2,9.948249E-3,5.5553295E-2,2.406945E-2,-9.654738E-3],"split_indices":[25,22,54,34,2,41,58,0,2,54,22,1,34,51,0,0,22,32,18,25,3,10,32,7,41,0,0,0,0,0,0,0,0,0,0,0,0,0,0,0,0,0,0,0,0],"split_type":[0,0,0,0,0,0,0,0,0,0,0,0,0,0,0,0,0,0,0,0,0,0,0,0,0,0,0,0,0,0,0,0,0,0,0,0,0,0,0,0,0,0,0,0,0],"sum_hessian":[4.5785376E2,3.737799E2,8.407386E1,7.375398E1,3.0002594E2,4.5101254E1,3.8972603E1,4.5825924E1,2.7928059E1,2.4623341E2,5.3792522E1,2.6403206E1,1.8698046E1,3.3940483E1,5.03212E0,1.4347214E1,1.3580846E1,2.3916533E2,7.0680814E0,1.9494188E1,3.4298336E1,1.4240136E1,1.2163071E1,1.0526097E1,8.171949E0,4.5237813E0,2.9416702E1,4.886955E0,8.693891E0,2.3282646E1,2.1588269E2,3.1171293E0,3.9509523E0,5.295127E0,1.4199061E1,6.2987595E0,2.7999575E1,6.093221E0,8.1469145E0,5.214518E0,6.9485526E0,3.5181906E0,7.007907E0,3.9469154E0,4.2250338E0],"tree_param":{"num_deleted":"0","num_feature":"62","num_nodes":"45","size_leaf_vector":"1"}},{"base_weights":[1.4215257E-2,-1.6145417E-1,8.867848E-1,-3.0567002E-1,3.256785E-1,-2.0264374E-2,1.0070502E0,-4.0839082E-1,2.7526492E-1,1.2729369E-1,8.870876E-1,5.780262E-1,1.3976612E0,-7.324175E-1,-2.3190512E-1,1.7096164E-3,1.3077565E0,-0E0,9.570758E-1,1.0817406E0,2.1448245E-3,8.7343234E-1,-1.8383829E-2,1.7865488E-2,4.476564E-2,2.7800058E-3,-2.3595951E-2,-1.0558544E-2,6.9026803E-3,1.1530764E-2,-1.6768988E-2,6.2805705E-2,-0E0,2.4200585E-2,-3.7660731E-3,7.4011474E-3,4.1247223E-2,3.768211E-2,2.7640562E-3,-5.5262493E-3,3.1467967E-2],"categories":[],"categories_nodes":[],"categories_segments":[],"categories_sizes":[],"default_left":[0,0,0,0,0,0,0,0,0,0,0,0,0,0,0,0,0,0,0,0,0,0,0,0,0,0,0,0,0,0,0,0,0,0,0,0,0,0,0,0,0],"id":38,"left_children":[1,3,5,7,9,-1,11,13,15,17,19,21,23,25,27,29,31,33,35,37,-1,39,-1,-1,-1,-1,-1,-1,-1,-1,-1,-1,-1,-1,-1,-1,-1,-1,-1,-1,-1],"loss_changes":[7.059406E1,2.6854694E1,1.5361847E1,1.7798786E1,9.038224E0,0E0,1.034301E1,1.3760979E1,1.1835669E1,6.5130897E0,2.8096676E0,1.3623312E1,8.42659E-1,4.3224945E0,9.327784E0,7.926253E0,8.574833E0,6.3569393E0,1.3064995E0,2.1511917E0,0E0,6.242792E0,0E0,0E0,0E0,0E0,0E0,0E0,0E0,0E0,0E0,0E0,0E0,0E0,0E0,0E0,0E0,0E0,0E0,0E0,0E0],"parents":[2147483647,0,0,1,1,2,2,3,3,4,4,6,6,7,7,8,8,9,9,10,10,11,11,12,12,13,13,14,14,15,15,16,16,17,17,18,18,19,19,21,21],"right_children":[2,4,6,8,10,-1,12,14,16,18,20,22,24,26,28,30,32,34,36,38,-1,40,-1,-1,-1,-1,-1,-1,-1,-1,-1,-1,-1,-1,-1,-1,-1,-1,-1,-1,-1],"split_conditions":[4.4E0,3.7221854E2,4.499218E1,2E0,6.2913153E2,-2.0264374E-2,7.5825846E-1,3.3333334E-1,1.5303E3,2.6666667E0,2E0,1.344E3,-4.6203217E-1,1.78E1,3.25E0,1.25951E3,8.3333336E-2,2.24E2,1.8708287E0,1.63592E3,2.1448245E-3,1.1349077E3,-1.8383829E-2,1.7865488E-2,4.476564E-2,2.7800058E-3,-2.3595951E-2,-1.0558544E-2,6.9026803E-3,1.1530764E-2,-1.6768988E-2,6.2805705E-2,-0E0,2.4200585E-2,-3.7660731E-3,7.4011474E-3,4.1247223E-2,3.768211E-2,2.7640562E-3,-5.5262493E-3,3.1467967E-2],"split_indices":[28,41,41,19,41,0,54,29,4,9,19,4,56,42,25,4,44,42,19,3,0,0,0,0,0,0,0,0,0,0,0,0,0,0,0,0,0,0,0,0,0],"split_type":[0,0,0,0,0,0,0,0,0,0,0,0,0,0,0,0,0,0,0,0,0,0,0,0,0,0,0,0,0,0,0,0,0,0,0,0,0,0,0,0,0],"sum_hessian":[4.5624484E2,3.7998633E2,7.625853E1,2.9426727E2,8.571904E1,4.823719E0,7.143481E1,2.5103671E2,4.3230568E1,6.490201E1,2.081703E1,3.583529E1,3.5599518E1,8.640837E1,1.6462836E2,3.535049E1,7.880076E0,5.7625813E1,7.276194E0,1.6047655E1,4.7693753E0,2.9262552E1,6.572737E0,5.0800695E0,3.051945E1,4.705842E0,8.170253E1,1.3172174E2,3.2906605E1,2.1727913E1,1.3622579E1,4.421548E0,3.458528E0,7.5313773E0,5.0094437E1,3.7269561E0,3.549238E0,1.2985586E1,3.0620687E0,3.752099E0,2.5510452E1],"tree_param":{"num_deleted":"0","num_feature":"62","num_nodes":"41","size_leaf_vector":"1"}},{"base_weights":[-1.3900627E-2,-1.4314719E-1,1.0208755E0,-1.8127955E-1,4.0539283E-2,1.1087787E0,-0E0,-3.1448194E-1,2.7432474E-1,-1.4804015E-3,1.2027187E0,-5.490588E-1,-9.650394E-2,1.1167967E-1,6.8450236E-1,1.2983434E0,8.412329E-3,-1.8048305E-2,3.467004E-2,-4.684526E-3,4.043065E-2,-2.2755826E-2,5.50204E-3,2.9124415E-2,-5.3936234E-3,4.171008E-2,6.850893E-3],"categories":[],"categories_nodes":[],"categories_segments":[],"categories_sizes":[],"default_left":[0,0,0,0,0,0,0,0,0,0,0,0,0,0,0,0,0,0,0,0,0,0,0,0,0,0,0],"id":39,"left_children":[1,3,5,7,-1,9,-1,11,13,-1,15,17,19,21,23,25,-1,-1,-1,-1,-1,-1,-1,-1,-1,-1,-1],"loss_changes":[6.053373E1,2.277476E1,4.927124E0,2.418295E1,0E0,5.7012177E0,0E0,1.5388166E1,5.4919705E0,0E0,2.6833267E0,1.3603069E1,1.3579918E1,3.9775918E0,6.5896645E0,2.6774445E0,0E0,0E0,0E0,0E0,0E0,0E0,0E0,0E0,0E0,0E0,0E0],"parents":[2147483647,0,0,1,1,2,2,3,3,5,5,7,7,8,8,10,10,11,11,12,12,13,13,14,14,15,15],"right_children":[2,4,6,8,-1,10,-1,12,14,-1,16,18,20,22,24,26,-1,-1,-1,-1,-1,-1,-1,-1,-1,-1,-1],"split_conditions":[3.6E0,4.1116915E0,1.77E2,3.7221854E2,4.0539283E-2,6E-1,-0E0,8E-1,6.0908887E2,-1.4804015E-3,1.7826809E0,3.6E0,4.9273208E-1,4E-1,6E1,6.0908887E2,8.412329E-3,-1.8048305E-2,3.467004E-2,-4.684526E-3,4.043065E-2,-2.2755826E-2,5.50204E-3,2.9124415E-2,-5.3936234E-3,4.171008E-2,6.850893E-3],"split_indices":[12,48,6,41,0,9,0,18,41,0,46,10,49,20,34,41,0,0,0,0,0,0,0,0,0,0,0],"split_type":[0,0,0,0,0,0,0,0,0,0,0,0,0,0,0,0,0,0,0,0,0,0,0,0,0,0,0],"sum_hessian":[4.5380698E2,4.0461432E2,4.919265E1,3.957302E2,8.884132E0,4.5557423E1,3.6352296E0,3.0729523E2,8.843495E1,3.0543587E0,4.2503063E1,1.461757E2,1.6111954E2,6.510897E1,2.332598E1,3.764972E1,4.8533444E0,1.427166E2,3.4591074E0,1.5591801E2,5.201518E0,3.6976435E0,6.1411327E1,1.7863602E1,5.462379E0,3.3963013E1,3.686707E0],"tree_param":{"num_deleted":"0","num_feature":"62","num_nodes":"27","size_leaf_vector":"1"}},{"base_weights":[1.8944765E-2,-1.0181698E-1,1.1322129E0,1.960426E-2,-7.919238E-1,1.2547979E0,-8.30248E-3,-3.4712186E-1,1.3925779E-1,8.613113E-3,-8.6131704E-1,5.6433217E-3,1.3235778E0,1.9331645E-2,-4.163933E-1,-4.883079E-2,3.9886352E-1,-2.7618416E-2,-0E0,1.6221328E-2,4.183056E-2,-2.1382656E-2,-4.7367685E-3,-4.9435054E-3,2.5509194E-2,1.7259484E-2,-7.1229157E-4],"categories":[],"categories_nodes":[],"categories_segments":[],"categories_sizes":[],"default_left":[0,0,0,0,0,0,0,0,0,0,0,0,0,0,0,0,0,0,0,0,0,0,0,0,0,0,0],"id":40,"left_children":[1,3,5,7,9,11,-1,13,15,-1,17,-1,19,-1,21,23,25,-1,-1,-1,-1,-1,-1,-1,-1,-1,-1],"loss_changes":[6.137544E1,3.4600548E1,8.557503E0,1.5189525E1,5.154709E0,2.0496674E0,0E0,5.9737406E0,1.3070597E1,0E0,3.3558884E0,0E0,4.119873E-1,0E0,5.6019278E0,1.5715973E1,8.642254E0,0E0,0E0,0E0,0E0,0E0,0E0,0E0,0E0,0E0,0E0],"parents":[2147483647,0,0,1,1,2,2,3,3,4,4,5,5,7,7,8,8,10,10,12,12,14,14,15,15,16,16],"right_children":[2,4,6,8,10,12,-1,14,16,-1,18,-1,20,-1,22,24,26,-1,-1,-1,-1,-1,-1,-1,-1,-1,-1],"split_conditions":[5.3333335E0,4E0,2.0976176E0,2.173913E-2,-2.929035E0,1.1196653E3,-8.30248E-3,-4E0,3E0,8.613113E-3,3.6167712E2,5.6433217E-3,6.3798637E1,1.9331645E-2,2.6E0,5.673579E2,1.4696939E0,-2.7618416E-2,-0E0,1.6221328E-2,4.183056E-2,-2.1382656E-2,-4.7367685E-3,-4.9435054E-3,2.5509194E-2,1.7259484E-2,-7.1229157E-4],"split_indices":[25,30,17,29,58,0,0,31,25,0,41,0,41,0,25,41,18,0,0,0,0,0,0,0,0,0,0],"split_type":[0,0,0,0,0,0,0,0,0,0,0,0,0,0,0,0,0,0,0,0,0,0,0,0,0,0,0],"sum_hessian":[4.508363E2,4.0713205E2,4.370423E1,3.4642685E2,6.0705204E1,4.063327E1,3.070961E0,8.372827E1,2.6269858E2,3.0431523E0,5.7662052E1,3.127908E0,3.7505363E1,4.454131E0,7.927414E1,1.5168571E2,1.1101287E2,5.4308174E1,3.3538792E0,4.411572E0,3.309379E1,3.5212646E1,4.4061493E1,1.3557481E2,1.6110907E1,7.88938E1,3.211907E1],"tree_param":{"num_deleted":"0","num_feature":"62","num_nodes":"27","size_leaf_vector":"1"}},{"base_weights":[5.4648877E-3,-1.7356543E-1,8.7763524E-1,-7.135597E-2,-9.0832555E-1,-3.5564837E-1,1.0033039E0,3.633391E-1,-1.9172953E-1,-2.96431E-2,-3.872441E-1,9.5123146E-4,-2.2112006E-2,1.0913365E0,-1.6548224E-2,2.2691287E-2,7.5662065E-1,5.7846755E-1,-2.4924241E-1,-2.2464924E-2,1.8855784E-3,3.1032524E-1,1.2196854E0,-2.1243412E-3,2.95036E-2,3.0490696E-2,-9.477424E-3,3.209273E-2,-5.7120267E-3,-1.0979895E-2,6.402612E-3,-4.916805E-3,2.1596335E-2,3.9015878E-2,1.8929286E-2],"categories":[],"categories_nodes":[],"categories_segments":[],"categories_sizes":[],"default_left":[0,0,0,0,0,0,0,0,0,0,0,0,0,0,0,0,0,0,0,0,0,0,0,0,0,0,0,0,0,0,0,0,0,0,0],"id":41,"left_children":[1,3,5,7,9,11,13,15,17,-1,19,-1,-1,21,-1,23,25,27,29,-1,-1,31,33,-1,-1,-1,-1,-1,-1,-1,-1,-1,-1,-1,-1],"loss_changes":[7.186907E1,2.7950226E1,1.2843811E1,1.7507397E1,8.281746E-1,1.5030088E0,1.0707161E1,9.248475E0,1.1665917E1,0E0,1.7799658E0,0E0,0E0,5.737297E0,0E0,4.149103E0,9.791519E0,7.453433E0,1.34856615E1,0E0,0E0,2.64489E0,9.770508E-1,0E0,0E0,0E0,0E0,0E0,0E0,0E0,0E0,0E0,0E0,0E0,0E0],"parents":[2147483647,0,0,1,1,2,2,3,3,4,4,5,5,6,6,7,7,8,8,10,10,13,13,15,15,16,16,17,17,18,18,21,21,22,22],"right_children":[2,4,6,8,10,12,14,16,18,-1,20,-1,-1,22,-1,24,26,28,30,-1,-1,32,34,-1,-1,-1,-1,-1,-1,-1,-1,-1,-1,-1,-1],"split_conditions":[4.4E0,5E0,1.6E0,-5.6E1,8.3333336E-2,1.5E0,1.85E2,1.8332822E3,1E-1,-2.96431E-2,2E-1,9.5123146E-4,-2.2112006E-2,2.6666667E0,-1.6548224E-2,-6E1,2.5E-1,1.2777762E3,1.5491934E0,-2.2464924E-2,1.8855784E-3,6E0,6.480068E-1,-2.1243412E-3,2.95036E-2,3.0490696E-2,-9.477424E-3,3.209273E-2,-5.7120267E-3,-1.0979895E-2,6.402612E-3,-4.916805E-3,2.1596335E-2,3.9015878E-2,1.8929286E-2],"split_indices":[28,30,12,8,44,19,6,0,15,0,14,0,0,25,0,8,14,0,17,0,0,34,60,0,0,0,0,0,0,0,0,0,0,0,0],"split_type":[0,0,0,0,0,0,0,0,0,0,0,0,0,0,0,0,0,0,0,0,0,0,0,0,0,0,0,0,0,0,0,0,0,0,0],"sum_hessian":[4.5604144E2,3.785618E2,7.747963E1,3.3389294E2,4.466887E1,6.627737E0,7.08519E1,7.107034E1,2.628226E2,3.7128654E1,7.540213E0,3.0927827E0,3.5349545E0,6.764198E1,3.209913E0,3.9331615E1,3.1738728E1,1.7028584E1,2.45794E2,4.429179E0,3.1110342E0,1.057936E1,5.7062622E1,3.6213177E1,3.1184385E0,2.5968496E1,5.7702303E0,1.0547761E1,6.4808235E0,1.9729562E2,4.849839E1,4.6148405E0,5.96452E0,4.836282E1,8.6998005E0],"tree_param":{"num_deleted":"0","num_feature":"62","num_nodes":"35","size_leaf_vector":"1"}},{"base_weights":[-4.9975333E-3,-1.8024446E-1,8.330226E-1,-4.8681477E-1,4.449202E-2,4.2037955E-1,1.2692597E0,-5.379455E-1,4.7828978E-1,1.2315413E-1,-2.836927E-2,7.108972E-1,-2.6654784E-2,4.0885415E-2,1.0036735E-2,-5.846386E-1,1.4130992E-2,-7.867098E-3,3.6262903E-2,4.0146194E-2,7.375958E-1,8.70473E-1,-5.0991373E-3,-2.4251046E-2,-1.2392935E-2,-9.694724E-3,4.768054E-3,-3.7510553E-4,2.876058E-2,3.502204E-2,4.8845354E-3],"categories":[],"categories_nodes":[],"categories_segments":[],"categories_sizes":[],"default_left":[0,0,0,0,0,0,0,0,0,0,0,0,0,0,0,0,0,0,0,0,0,0,0,0,0,0,0,0,0,0,0],"id":42,"left_children":[1,3,5,7,9,11,13,15,17,19,-1,21,-1,-1,-1,23,-1,-1,-1,25,27,29,-1,-1,-1,-1,-1,-1,-1,-1,-1],"loss_changes":[6.609153E1,2.6045216E1,1.2613018E1,8.154713E0,1.653393E1,1.65237E1,1.9055939E0,7.5109863E0,5.1497297E0,9.859678E0,0E0,5.4547386E0,0E0,0E0,0E0,4.679985E0,0E0,0E0,0E0,7.7075934E0,4.3341436E0,5.5529766E0,0E0,0E0,0E0,0E0,0E0,0E0,0E0,0E0,0E0],"parents":[2147483647,0,0,1,1,2,2,3,3,4,4,5,5,6,6,7,7,8,8,9,9,11,11,15,15,19,19,20,20,21,21],"right_children":[2,4,6,8,10,12,14,16,18,20,-1,22,-1,-1,-1,24,-1,-1,-1,26,28,30,-1,-1,-1,-1,-1,-1,-1,-1,-1],"split_conditions":[4.4E0,1.6824588E2,7.5940955E-1,2.0770583E3,7.479111E-1,1.7641615E3,1.0195202E0,2.4494898E0,4.054054E-1,6.2913153E2,-2.836927E-2,2.1602468E0,-2.6654784E-2,4.0885415E-2,1.0036735E-2,5E-1,1.4130992E-2,-7.867098E-3,3.6262903E-2,2.9032257E-1,2.5E-1,5.5E0,-5.0991373E-3,-2.4251046E-2,-1.2392935E-2,-9.694724E-3,4.768054E-3,-3.7510553E-4,2.876058E-2,3.502204E-2,4.8845354E-3],"split_indices":[28,41,54,0,46,1,58,17,29,41,0,17,0,0,0,29,0,0,0,29,11,28,0,0,0,0,0,0,0,0,0],"split_type":[0,0,0,0,0,0,0,0,0,0,0,0,0,0,0,0,0,0,0,0,0,0,0,0,0,0,0,0,0,0,0],"sum_hessian":[4.5022952E2,3.735039E2,7.672565E1,1.5843553E2,2.1506836E2,4.1027218E1,3.5698425E1,1.5137637E2,7.059165E0,2.0051859E2,1.4549776E1,3.4261417E1,6.765802E0,3.15468E1,4.1516237E0,1.4555649E2,5.81988E0,3.4838688E0,3.5752962E0,1.7830904E2,2.2209557E1,2.9497204E1,4.764213E0,6.0293E1,8.526349E1,4.247477E1,1.3583426E2,4.7559233E0,1.7453632E1,1.9823242E1,9.673962E0],"tree_param":{"num_deleted":"0","num_feature":"62","num_nodes":"31","size_leaf_vector":"1"}},{"base_weights":[-0E0,-1.06974915E-1,1.1502692E0,-4.0551927E-3,-8.5850114E-1,3.274512E-3,1.2233524E0,-3.0790636E-1,1.8347411E-1,-2.8511677E-2,3.9412645E-3,8.559248E-3,4.1111574E-2,-4.2349538E-1,5.4102373E-1,1.411154E-1,5.9206855E-2,-1.5397532E-2,2.3052687E-2,-1.213074E-2,3.2629E-2,1.44761E-3,1.7779412E-2],"categories":[],"categories_nodes":[],"categories_segments":[],"categories_sizes":[],"default_left":[0,0,0,0,0,0,0,0,0,0,0,0,0,0,0,0,0,0,0,0,0,0,0],"id":43,"left_children":[1,3,5,7,9,-1,11,13,15,-1,-1,-1,-1,17,19,21,-1,-1,-1,-1,-1,-1,-1],"loss_changes":[5.5955074E1,3.144844E1,2.1467514E0,2.0868277E1,4.99691E0,0E0,3.696537E0,1.3943842E1,1.570867E1,0E0,0E0,0E0,0E0,1.3599026E1,9.432959E0,8.914919E0,0E0,0E0,0E0,0E0,0E0,0E0,0E0],"parents":[2147483647,0,0,1,1,2,2,3,3,4,4,6,6,7,7,8,8,13,13,14,14,15,15],"right_children":[2,4,6,8,10,-1,12,14,16,-1,-1,-1,-1,18,20,22,-1,-1,-1,-1,-1,-1,-1],"split_conditions":[5.6E0,5E0,1.3183263E3,1.6726123E2,1.2E0,3.274512E-3,3.08E0,2.6E0,1.6577681E0,-2.8511677E-2,3.9412645E-3,8.559248E-3,4.1111574E-2,1.65021E3,-1.9735862E0,5.673579E2,5.9206855E-2,-1.5397532E-2,2.3052687E-2,-1.213074E-2,3.2629E-2,1.44761E-3,1.7779412E-2],"split_indices":[25,30,1,41,21,0,45,12,54,0,0,0,0,4,2,41,0,0,0,0,0,0,0],"split_type":[0,0,0,0,0,0,0,0,0,0,0,0,0,0,0,0,0,0,0,0,0,0,0],"sum_hessian":[4.4893567E2,4.1121057E2,3.772508E1,3.6314893E2,4.806167E1,3.0867887E0,3.463829E1,1.3936386E2,2.2378505E2,4.4477886E1,3.5837836E0,5.552898E0,2.9085392E1,1.23621826E2,1.574204E1,2.199388E2,3.8462474E0,1.15884224E2,7.737608E0,5.5275126E0,1.0214527E1,1.8425851E2,3.5680286E1],"tree_param":{"num_deleted":"0","num_feature":"62","num_nodes":"23","size_leaf_vector":"1"}},{"base_weights":[1.2906719E-2,-1.4372872E-1,7.8455776E-1,-4.8288167E-2,-8.547199E-1,3.4977764E-1,1.250345E0,-1.3667594E-1,3.6694726E-1,-2.8147286E-2,1.1654968E-3,6.329022E-1,-2.3506084E-2,1.213852E-2,4.09538E-2,-2.2535668E-1,4.0911993E-1,1.9113784E-1,1.0662562E0,-1.1230916E-2,7.811109E-1,2.8006049E-2,-8.144279E-3,1.6370662E-2,-2.1508953E-2,2.8618716E-2,2.0339827E-3,-0E0,5.4669123E-2,2.8645344E-2,-6.1129117E-3],"categories":[],"categories_nodes":[],"categories_segments":[],"categories_sizes":[],"default_left":[0,0,0,0,0,0,0,0,0,0,0,0,0,0,0,0,0,0,0,0,0,0,0,0,0,0,0,0,0,0,0],"id":44,"left_children":[1,3,5,7,9,11,13,15,17,-1,-1,19,-1,-1,-1,21,23,25,27,-1,29,-1,-1,-1,-1,-1,-1,-1,-1,-1,-1],"loss_changes":[5.4468826E1,2.4745724E1,1.4179913E1,1.203177E1,3.7206383E0,1.3678513E1,2.0390434E0,1.3236805E1,6.1906114E0,0E0,0E0,5.5664234E0,0E0,0E0,0E0,1.2572401E1,6.1173053E0,3.8876104E0,7.89577E0,0E0,5.765913E0,0E0,0E0,0E0,0E0,0E0,0E0,0E0,0E0,0E0,0E0],"parents":[2147483647,0,0,1,1,2,2,3,3,4,4,5,5,6,6,7,7,8,8,11,11,15,15,16,16,17,17,18,18,20,20],"right_children":[2,4,6,8,10,12,14,16,18,-1,-1,20,-1,-1,-1,22,24,26,28,-1,30,-1,-1,-1,-1,-1,-1,-1,-1,-1,-1],"split_conditions":[4.4E0,5E0,7.5940955E-1,3.27E2,1E0,1.344E3,-4.120586E-1,2.1540658E0,2.8E0,-2.8147286E-2,1.1654968E-3,1.1349077E3,-2.3506084E-2,1.213852E-2,4.09538E-2,-5.9509033E2,3.2787192E0,7.0710677E-1,2.5E0,-1.1230916E-2,8.3333336E-2,2.8006049E-2,-8.144279E-3,1.6370662E-2,-2.1508953E-2,2.8618716E-2,2.0339827E-3,-0E0,5.4669123E-2,2.8645344E-2,-6.1129117E-3],"split_indices":[28,30,54,5,21,4,56,19,9,0,0,0,0,0,0,2,17,19,28,0,44,0,0,0,0,0,0,0,0,0,0],"split_type":[0,0,0,0,0,0,0,0,0,0,0,0,0,0,0,0,0,0,0,0,0,0,0,0,0,0,0,0,0,0,0],"sum_hessian":[4.460637E2,3.7093445E2,7.512925E1,3.285962E2,